-0.0303635	-0.06940371	0.03875591	-0.0024805418	-0.002057006	0.067593865	-0.020527832	0.05041998	0.01857856
-0.053584497	-0.07144285	0.0087634595	0.036262304	0.014070082	0.044621855	0.0178164	0.060544927	-0.07880175
-0.045033816	-0.069406286	0.071457125	0.015044513	0.033914037	0.03960869	0.024354706	0.06322493	0.016536418
-0.09610788	-0.017658697	0.026060406	0.011999936	0.051663425	0.03707128	0.08252703	0.076242976	-0.087622344
-0.06504687	-0.030721474	0.042713106	0.042285103	0.012362909	0.085092165	0.06353847	0.03343317	-0.020994611
-0.040734258	-0.047323857	0.08709369	0.0766276	0.055562653	0.056256358	0.07326247	0.06921491	-0.11382619
-0.034470495	-0.052551024	0.069428	0.090602584	0.07461647	0.023715887	0.06441423	0.056075875	-0.04040179
-0.048218437	-0.045653388	0.114252515	0.07735978	0.034756366	0.09022904	0.11856881	0.07125985	-0.043127567
-0.034971878	-0.10514934	0.038182385	0.03127011	0.029451555	0.038323723	0.054123808	0.084591106	-0.010719523
-0.046681732	-0.078812025	-0.017601477	0.017699003	-0.0036295624	0.026838576	0.022727538	0.059484843	-0.068694755
-0.08628256	-0.07075501	0.07486271	0.11960615	0.06532895	0.038822394	0.052052394	0.11705448	-0.07839672
-0.07763852	-0.052007407	0.06955028	0.05583861	0.06254328	0.03855084	0.11635221	0.061853766	-0.10056378
-0.07653179	-0.026340999	0.057023913	0.03973574	0.022832735	0.06805537	0.03788631	0.028386928	-0.073643476
-0.049752187	-0.03923775	0.03215222	0.035167336	0.031919397	0.06256585	0.07645884	0.09763723	-0.03837929
-0.031975534	-0.06482415	0.07265553	0.016463606	0.08283858	0.045770124	0.029657295	0.07265528	-0.026592031
-0.08325457	-0.03902703	0.096747115	0.06925255	0.0012507251	0.07299737	0.007871509	0.075399764	-0.06504288
-0.053266272	-0.04061224	0.04605242	0.07987989	-0.004177862	0.015288117	0.054552186	0.026877176	-0.01990702
-0.0802346	-0.029953616	0.051542494	0.0032649282	0.026225338	0.027620403	0.060516886	0.017706232	-0.049032513
-0.092462584	-0.016586235	0.07681128	0.09178692	0.020118687	0.029694533	0.037623562	0.027252296	-0.041713797
-0.07405225	-0.005778382	0.011694463	0.04592309	0.057674903	0.03603468	0.007719748	0.08706715	-0.031752724
-0.03600008	-0.021726757	0.03182369	0.07254177	0.0557857	0.08946718	0.04187494	0.022313656	-0.051128365
-0.06829444	-0.024779148	0.0643742	0.07218606	0.058501147	0.061018374	0.037521016	0.022975849	-0.01126222
-0.042834014	-0.016612023	0.0032769826	0.045667533	0.05668395	0.08548728	0.054072525	0.016458124	-0.082120135
0.010896271	-0.051621582	0.05248442	0.013951276	-0.0063522053	0.07296457	0.08121681	0.053122483	-0.055717777
-0.06817425	-0.0021230686	0.0483405	0.03791014	0.009769211	0.067298084	0.00061037525	0.05322002	-0.034401093
-0.0622747	-0.019873668	0.042393677	0.08735277	0.0032283673	0.0729375	0.049169417	0.059361216	-0.009767596
-0.045953777	-0.07934934	0.04742584	0.059335068	0.008223583	0.03175506	0.01816098	0.026661102	-0.0765904
-0.11806879	-0.020004798	0.081516914	0.04598701	0.04865297	0.030552633	0.09278247	0.10660162	-0.036859512
-0.058147755	-0.02084729	0.0707362	0.06884969	0.00917361	0.006416565	0.026190799	0.004651701	-0.08048297
-0.06845457	-0.02451591	0.077374734	0.06805249	0.037751418	0.03335599	0.06489182	0.07283633	-0.053674165
-0.030116789	-0.09816052	0.014477234	0.004470316	0.05722178	0.05387287	0.024967236	0.040182866	-0.017429754
0.015591172	-0.016034154	0.055935927	0.07248011	0.031384777	0.018870769	0.03194125	0.03023981	-0.07076053
-0.026166653	-0.07991749	0.050537065	0.009958239	0.03494153	0.06741037	0.080961406	0.02964695	-0.045488965
0.0010103853	-0.033854384	0.023238264	0.032436807	0.012772858	0.030931644	0.014157818	0.06703023	-0.06390661
-0.03941894	-0.010745089	0.019285362	0.011590617	0.06578225	0.06504218	0.0005020601	0.067180954	-0.06002427
-0.029119503	-0.0756649	0.059330806	0.050581664	0.029442767	-0.02270249	-0.023036055	0.05939982	-0.05361776
-0.08353357	-0.03768042	0.059350077	0.07756273	0.012384848	0.09066455	0.040943775	0.06817156	-0.06811127
-0.044618744	-0.01661487	0.07160474	0.03999386	0.04532309	0.101381354	0.016514577	0.033860352	-0.010688964
-0.049073398	-0.014841871	0.021818966	0.06557337	0.08798533	0.08382756	0.021379482	0.018552478	-0.004108286
-0.08101953	-0.029353196	0.06076607	0.078912616	0.015354447	0.07565599	0.00035988906	0.03164238	-0.024592951
0.0053080083	-0.04520785	0.020301733	0.07559315	0.058543798	0.03903774	0.03770647	0.06528537	0.010688783
-0.04775721	-0.044555455	0.076226674	0.10100852	0.029354414	0.024220258	0.101534225	0.019831954	-0.03225994
-0.056609213	-0.08831906	0.071257554	0.09439834	0.050884936	0.083061755	0.061893776	0.12122882	-0.053772863
-0.081992686	-0.06535494	0.12647752	0.06885162	0.048492618	0.11501247	0.048475042	0.07270193	-0.039120704
-0.054840345	-0.047157627	0.02088149	0.098790824	0.03605518	0.010674186	0.09528656	0.019224547	-0.0049631377
-0.04744378	-0.03863357	0.066955864	0.017441958	0.062225588	0.04099906	0.057453547	0.068132594	-0.07501953
-0.004048423	-0.015144146	-0.0039320313	0.08908672	0.0730023	0.054491993	0.010598759	0.059124798	-0.07627166
-0.0563056	-0.023382701	0.016723912	0.043880902	0.045697562	0.078299396	0.047173083	0.046371937	-0.025826791
-0.041105054	-0.09727514	0.07550028	0.05291917	0.048983514	0.09108509	0.035912406	0.075048186	-0.0904323
0.017489716	-0.060063303	0.024361314	0.054993853	0.06221023	0.062188506	0.027808208	0.030594124	-0.05625834
-0.007497617	-0.020569107	-0.02106531	0.068672135	0.009817568	0.034330927	0.0397774	0.06076507	-0.03494288
-0.020721778	-0.03977437	-0.016515853	0.07931481	0.044491176	0.009407157	0.005855283	0.064034335	-0.09029226
-0.053186815	-0.04391397	0.07026312	0.01654576	0.040250838	0.061687913	0.04510228	0.09715238	-0.04280608
-0.080148816	-0.07181402	0.023392027	-0.0019638957	0.05132191	0.040477462	0.021739997	0.00044990957	-0.08764702
-0.031879216	-0.037588745	0.02102696	0.04858508	0.079818726	0.06668051	0.03377135	0.053668804	-0.018737733
-0.06272602	-0.055594318	-0.0125312405	0.06385792	-0.011769396	0.07526564	-0.0067118527	0.03564283	-0.035164606
-0.06701653	-0.034326788	0.018758811	0.05383628	0.041370012	0.045931373	0.045760218	0.0036874257	0.009134116
-0.0216289	-0.07679756	0.06837972	0.05551165	0.013462223	0.099611476	0.10578237	0.05019789	-0.10356892
-0.03179792	-0.100520656	0.071275085	0.13055448	0.04586534	0.09649592	0.0946921	0.08885794	-0.09580571
0.021229267	-0.057526283	0.074346796	0.058009613	0.048864655	0.022905758	0.015771084	0.04390612	-0.048632633
-0.027561134	-0.060158484	0.053902157	0.047413994	0.01725654	0.056329023	0.052338786	0.061937347	-0.061294712
-0.03665055	-0.07882413	0.033322457	0.06744705	0.074410535	0.052354958	0.11156622	0.035016805	-0.07169976
-0.06877133	-0.060654998	0.08333974	0.0025694137	0.033041935	0.00081917975	0.008696613	0.07012907	0.008342186
-0.032134164	-0.040358726	-0.0025747423	0.07915237	0.07143454	0.08385526	0.0740858	0.029308766	-0.06504135
-0.061467264	-0.02631217	0.03666554	0.07393117	0.039717004	0.026614515	0.078507684	0.034948554	-0.03206811
-0.009500106	0.0034710534	0.019049075	0.06852598	0.06889049	0.09198527	0.05372915	0.0673193	-0.020612605
-0.07364616	-0.00869898	0.0726127	0.035013627	0.023306025	0.090073325	0.06602773	0.018237375	-0.07338417
-0.05230942	-0.05404047	0.06733223	0.058126587	0.042106412	-0.015677005	0.023940563	0.0429324	-0.001984925
-0.03325162	0.021374205	0.07787386	0.05324113	0.054306045	0.04137005	0.060657974	0.00848247	-0.03783467
-0.032192692	-0.06908387	0.06761291	0.030960726	0.008606365	0.017587187	0.046846244	0.025336668	-0.0625472
-0.022532461	-0.041055635	0.042214528	0.047362875	0.03166915	0.021819621	0.028731827	0.050194602	-0.064805314
-0.023501726	-0.080198504	0.023646532	0.058589015	-0.009114896	0.06383774	0.08065002	0.008828883	0.011446146
-0.008514991	-0.04530277	0.08153281	0.04543925	-0.026733909	-0.007662404	0.055107787	0.0622332	-0.08853271
-0.049430832	-0.04757851	0.063267455	0.036508165	0.050221056	0.023302518	0.063806646	0.03997283	-0.05063769
-0.09006415	-0.06422832	0.054624487	0.06639705	0.006595513	0.0076644165	0.0051489985	0.045037407	-0.015318016
-0.013843083	-0.018393908	0.08576475	0.04537484	0.019204479	0.059648722	0.074966885	0.058717202	-0.013952136
-0.00072454306	-0.088236764	0.00307403	0.041412238	0.048804954	0.069485955	0.022356564	0.05576885	-0.067015775
-0.035580043	-0.03169409	0.06747087	0.0621926	0.016729232	-0.0019896384	0.06993905	0.032144427	-0.027913546
-0.05697377	-0.022056583	0.10745635	0.03614877	0.090846166	0.034938924	0.032992527	0.06732631	-0.06702918
-0.051675558	-0.06558758	-0.0071319295	0.058524735	-0.016803717	0.04707032	0.08114231	0.03446604	-0.082068615
-0.06457847	-0.0491821	0.04999008	0.022685986	0.001486239	0.02993475	0.077121146	0.029296514	-0.021905411
-0.02192851	-0.07672927	0.013741575	0.026441783	0.069721445	0.0789716	0.009545252	0.06056169	-0.03372988
-0.06950023	-0.0884918	0.0352728	0.018406946	0.018728893	0.024038779	0.021981958	0.013287399	-0.063272916
-0.03819422	-0.06115956	0.048001762	0.02858769	0.045750942	0.0091099925	0.022124762	0.03422086	-0.011433496
-0.04272821	-0.10497934	0.031084754	0.063611485	0.049089644	0.02572801	0.013988925	0.037582014	-0.050417952
-0.06469362	-0.04879027	0.047801416	0.0659938	0.044411995	0.068665415	0.024723824	0.053962637	-0.0017417913
-0.065898396	0.005573377	0.009787151	0.08507366	0.025558004	0.07207718	0.030290032	0.040304657	-0.06709682
-0.024939604	-0.017586194	0.023384497	0.11125261	0.016058858	0.018184705	0.03515006	0.077312775	-0.030599646
-0.041560695	-0.08813295	0.036367692	0.100812145	0.028514767	0.06980738	0.0019526891	0.038646758	-0.056468695
-0.093819745	-0.07913926	0.085586146	0.11331853	0.09228848	0.046385176	0.06143708	0.038382627	-0.071128465
-0.016972603	-0.027140688	0.065140285	0.082025975	-0.012734975	0.02381835	0.0502359	0.05977889	-0.0048456965
-0.039043818	-0.023526965	0.07699984	0.020000737	0.06382167	0.004672643	0.016733367	0.054281242	-0.08123547
-0.06717445	-0.088563584	0.04997404	0.054786235	0.07416772	0.0047128033	0.054241367	0.02421539	-0.000429707
-0.04625037	-0.07842055	0.056613844	0.061585486	0.069711134	0.023230845	0.06331458	-0.0045450614	-0.05179681
-0.059674524	-0.060809035	0.048493065	0.052712236	0.0039342884	0.00743732	0.027830325	0.02611746	-0.05629268
-0.030099114	-0.07318005	0.03814159	0.0068621896	0.086851366	0.038787268	0.048980046	0.06184766	-0.06040553
-0.08651522	-0.030641783	0.06657154	0.052551262	0.047091715	0.04286425	-0.004040397	0.0013700442	-0.067694925
-0.0614976	-0.020040208	0.07182636	0.0036137379	0.062723815	0.06309837	0.050075147	0.067705676	0.012802226
-0.006092688	-0.063501686	0.1073929	0.033094138	0.028508982	0.057439905	0.03247982	0.03735236	-0.030099437
0.0038457604	-0.088326044	0.041326743	0.012983385	0.014527156	0.075711735	0.06567429	0.06919373	-0.053104077
-0.060076978	-0.037736204	0.02860127	0.05163686	0.019635834	0.07680728	-0.0062937974	0.08368225	-0.041366935
-0.019252589	-0.017726712	0.024119524	0.0688931	0.056047123	0.011613808	0.058275368	0.056709547	-0.073079914
-0.06550471	-0.04084648	0.036831364	0.06337797	0.0623958	0.075479515	0.024713444	0.046706323	-0.018168885
-0.033544764	-0.04302639	0.05719227	0.03045861	0.067674436	0.09099804	0.0026026939	0.024094502	-0.005063689
-0.04801101	-0.08910872	0.055766836	0.02941741	-0.00029143423	0.022804588	0.027739448	0.08914211	-0.076571696
0.015106136	-0.08443494	0.05340137	-0.0041430374	0.033476703	0.051747967	0.044067215	0.0798516	-0.049416117
-0.06784435	0.0023369747	0.022792641	0.07531547	0.043902326	0.017598286	0.006240886	0.07290963	0.007244888
-0.080912516	-0.07462864	0.07295699	-0.0013519473	0.018149352	0.043598752	0.0073873373	0.08703101	-0.083758056
-0.052897643	-0.06283853	-0.022634434	0.06635199	0.037774686	0.04817212	0.06713861	0.010923759	-0.041971304
-0.012514063	-0.045204144	0.01765849	0.05403145	0.09523344	0.074429505	0.05329549	0.021926403	-0.10439125
-0.016703663	-0.021295497	0.0026651546	0.090899244	0.06722025	-0.0006483521	0.038030345	0.023348523	-0.06762268
-0.013732847	-0.07437119	0.03543121	0.07860134	0.03655959	0.059756115	0.031356726	0.009635591	-0.03614333
-0.068107605	-0.08459099	0.08632333	0.07901383	0.057838324	0.046829488	0.09579353	0.05359312	-0.06273706
-0.043049447	-0.035106443	-0.0014846275	0.03294925	0.03796068	0.03143821	0.072975956	0.07416318	-0.022816695
-0.07419563	-0.031917565	0.05065604	0.074302	0.03307763	0.075719506	0.0236058	0.012139323	-0.090678036
-0.018714646	-0.022435538	0.080596335	0.018825036	0.073809534	0.073076025	0.06171111	0.046700556	-0.025805851
9.455061e-05	-0.06881941	0.0006906549	0.005513798	0.031159246	0.011656952	0.0007004665	0.089858316	-0.03452583
-0.064483315	-0.023508236	0.029813908	0.06708315	0.06408983	0.05220692	0.008460511	0.031243889	-0.05253411
-0.077029146	-0.07364188	0.085224345	0.054172043	0.05529153	0.05134722	-0.0016768061	0.082066916	-0.09370506
-0.07026906	-0.0029511736	0.083704785	0.059774008	0.03668056	0.024168737	0.03128273	0.082371235	-0.09009316
-0.05618339	-0.012489315	0.011409472	0.025708484	0.04573807	0.06527119	0.085210584	0.018878471	-0.0634474
-0.0112154465	-0.042583436	0.039403062	0.07126282	0.0139445355	-0.0036671432	-0.0018096502	0.069906294	-0.0686115
0.015820554	-0.04184934	0.05679968	-0.010129319	0.07485884	0.0036180594	0.06376489	0.008740636	-0.06421725
-0.03028215	-0.018421032	0.013037342	0.074936785	-0.01567268	0.028922686	0.01048524	0.06387077	-0.053101663
-0.0073827794	-0.06716908	0.041796856	0.059645783	0.08860714	0.010008511	0.03207916	0.0062147435	-0.08100134
-0.016581303	-0.11703023	0.028048897	0.078709684	0.048812132	0.031255126	0.079913616	0.06884898	-0.048413448
-0.071055576	-0.035463613	0.08186375	0.114821784	0.015336756	0.028384801	0.062151458	0.1020559	-0.070055656
-0.019909227	-0.03489508	0.059507146	0.0026491173	0.05425426	0.017821766	0.05119462	0.05058207	-0.04970515
-0.029187534	-0.05738541	0.02257947	0.097285435	0.086998165	0.020870805	0.0841805	0.054497954	-0.09624503
-0.0026599912	-0.028700445	0.077235736	0.050061267	0.07094134	0.030732512	0.051703125	0.068494596	-0.033186257
-0.030361328	-0.024463823	0.033871282	0.03434704	0.0072176037	-0.0058566467	0.024911944	0.055080894	-0.034145303
-0.07572407	-0.057957336	0.05545948	0.04943704	0.024951214	0.09741217	0.02211616	0.028447734	-0.012635718
-0.010503396	-0.06529815	0.043879397	0.008306891	0.06385021	0.1048426	0.007708243	0.012085911	-0.034435604
-0.030507075	-0.072617255	0.022640476	0.08452199	0.0781765	-0.0004050479	0.03252943	0.012855369	-0.047474228
0.024533162	-0.043963164	0.056247406	0.073160425	0.051121164	0.05006698	0.000650207	-0.019160636	-0.058910485
-0.015434712	-0.06994148	0.006613564	0.020751402	0.03910307	0.0032582788	-0.008654363	0.06389279	-0.06695243
-0.08310825	-0.07584724	0.10287045	0.057067487	0.10933037	0.0574397	0.02761352	0.045544207	-0.13267654
-0.03454157	-0.04819902	0.05219833	0.06083707	0.08322002	0.035145104	0.05010045	0.04482979	-0.07129757
-0.0055107917	-0.07316041	0.079310276	0.020225724	0.09996511	0.0067179156	0.025255188	0.044132486	-0.09038636
-0.06769854	-0.013836436	0.037320327	0.027426917	0.020012649	0.07954054	0.020522615	0.030642647	-0.07919279
-0.049498282	-0.01560025	0.10386251	0.024955755	0.07628156	0.035863206	0.056939334	0.10494984	-0.03771995
-0.02500622	-0.086804524	0.079979606	0.051445663	0.027177846	0.07026324	0.023199137	0.04694991	-0.050467476
-0.072113	-0.03894098	0.06135329	0.07252821	0.013251207	0.005932126	0.043518186	0.009850704	-0.059659798
-0.020754306	0.007663562	-0.0017691297	0.058889464	0.07741353	0.04394947	0.06440129	0.020678638	-0.05326977
-0.052079894	-0.053295992	0.047761068	0.04673269	0.020610176	0.07102647	0.031912852	0.022396551	-0.043410372
-0.023551973	-0.059208717	-0.013618855	0.05383747	0.050277077	0.03675547	0.04627674	0.036560547	-0.053304974
-0.07776308	-0.00044881713	0.05239458	-0.006262408	0.010869947	-0.0042500375	0.064040974	0.08394191	-0.029016512
-0.014336334	-0.026410162	-0.011693648	0.070006624	0.0045411126	0.058494583	0.032944746	0.014153656	-0.017670741
-0.041996498	-0.054188933	-0.0029129216	0.0026985353	0.07257582	0.06816942	0.046479948	0.01078361	-0.07719043
-0.007755613	-0.09467582	0.060664617	0.013803554	0.023542555	0.07720248	-0.008642399	0.057876937	-0.028114123
-0.030503307	-0.056445286	0.078180544	0.03749501	0.025543293	-0.029774752	0.06552205	0.060850766	0.0049526626
0.011457668	-0.039879203	-0.016248126	0.030753845	0.05095803	0.0637538	0.005823583	0.050121974	-0.055708796
-0.082624376	0.0012885509	0.036263987	0.06644253	0.004142966	0.066966675	0.01826364	0.08696902	-0.020778304
-0.018018823	-0.060225498	0.053108886	0.035255127	0.0069713304	0.078736	0.06516607	0.06824083	-0.057528123
-0.07758897	-0.010423472	-0.0017231533	0.0791624	0.073537044	0.07460831	0.034820676	0.0126583595	-0.04685295
-0.04116555	-0.039552733	0.042790636	0.038273003	0.03824087	0.044402793	0.07141361	0.06935351	-0.015953494
-0.058878798	-0.07780615	0.006714541	0.0082861	-0.0043160752	0.0514192	0.0574542	0.051735867	-0.05886151
-0.041236274	-0.022286663	-0.008633645	0.07622943	0.0562489	0.03277556	0.039917994	0.01131311	-0.017130915
-0.060991444	-0.023962125	0.044971514	-0.02865701	0.060858823	0.06518047	0.06279334	0.025375754	-0.0075845597
-0.03766862	-0.0074284384	0.03499109	0.027350424	0.010442809	0.070399165	0.070585	0.066001885	-0.059595536
-0.024048183	-0.034310352	0.05324527	0.031902716	0.027341252	0.034564536	0.082153164	0.037438706	-0.069257505
-0.05753795	-0.066935875	0.0526743	0.07384947	0.04188936	0.030743679	0.024911629	0.025541637	-0.0029136096
-0.0013958804	-0.09519986	0.006161015	0.09746174	0.0102901375	0.0779484	0.0019731137	0.100122534	-0.06875107
-0.075722486	-0.070814006	0.07340313	0.0077673546	0.0031914199	0.06856196	0.07841016	0.0064970693	-0.030607473
-0.0024870038	-0.008513418	0.021915881	0.030221896	0.05434044	0.08681183	0.055707395	0.05321882	-0.030742746
-0.03180431	-0.016095946	0.010347586	0.07812552	-0.0074981204	0.073283896	0.010525159	0.056997027	-0.0050493223
0.0150118675	-0.03096921	0.0069812615	0.028917229	0.027314084	0.050936654	0.06516103	0.06451168	-0.0640399
-0.07011287	-0.06304405	0.046518814	0.065001585	0.08410545	0.043248035	-0.010943912	-0.010304249	-0.07099154
-0.0064637344	-0.04792136	0.04188579	0.06911576	0.030673986	0.022132967	0.080591254	0.023541534	-0.038215194
-0.044226065	-0.092257254	-0.0055598263	0.07574137	0.05148816	-0.010776601	0.04966047	0.04089824	-0.041281413
-0.04779113	0.011186032	0.066814646	0.071640305	0.0822391	0.016172502	0.0076983906	0.007980887	-0.030804161
-0.062928095	-0.055781335	0.0136587005	0.047694325	-0.0018557538	0.02546672	0.09834609	0.028300859	-0.0041299835
-0.023242904	-0.040123977	0.06598268	0.01840234	0.044977017	0.063241616	0.06387429	0.07986167	-0.056784052
-0.025423307	-0.09112849	0.07542889	0.023284215	0.0461326	0.027903425	0.02526402	0.019384634	-0.058739465
-0.06604332	-0.094571285	0.020598067	0.07282325	0.005616862	0.026288247	-0.0037769973	0.06421262	-0.050732594
-0.055839002	-0.007544983	0.04878303	0.05466006	0.019243091	0.051261343	0.06993861	0.07061329	-0.0107209105
-0.03947907	-0.005599984	0.020539029	0.08110693	0.065834776	0.026261248	0.07651855	0.07076926	-0.00040907584
-0.0740109	-0.01656382	0.056590065	0.051600624	0.024491915	0.028795317	0.017480481	0.01713145	-0.056222152
-0.05248309	-0.0055185417	0.04111525	0.03905819	-0.0017890967	0.05586884	0.019107338	0.08222687	-0.053396843
-0.092460364	-0.06580795	0.020225862	0.08979011	0.044494823	0.07445667	0.020645505	0.04468307	-0.08433222
-0.07078002	-0.09323423	0.04112324	0.045230944	0.056967407	0.023109509	0.04615117	0.07382101	-0.11084037
-0.041355703	-0.04056147	0.052733634	0.07115759	-0.006332282	0.059489958	0.018562261	0.027948705	-0.03999075
-0.03176299	-0.04706284	0.06476246	0.0156793	0.046455387	0.09433904	0.055919327	0.0031347997	-0.062285386
-0.03391891	-0.038036894	0.07786873	0.052661292	0.07477642	0.03205665	0.011873879	0.045272738	-0.012469579
-0.07188368	-0.064893104	0.041176848	0.09596794	0.016335605	0.082379475	0.030459467	0.08099271	-0.069303334
-0.05236649	-0.08260055	0.084106945	0.008855327	0.06688532	0.020245329	0.048446447	0.0015558929	-0.07041667
-0.033134483	-0.05707212	0.013690802	-0.008157501	0.0706679	0.057272874	-0.0021597443	0.03296663	-0.019199038
-0.060881577	-0.050865874	0.03184666	0.0056354776	0.040376417	0.03926511	0.08499795	0.08097894	-0.072822146
-0.11417996	-0.049348038	0.05024068	0.04601253	0.102519736	0.032355946	0.09866406	0.13158056	-0.08920134
-0.05192409	-0.050955158	0.024805171	0.0021179155	0.028787382	0.09451153	0.026166355	0.08923793	-0.077294365
-0.083949886	-0.017093023	0.04286039	0.09697702	0.019511199	0.025050584	0.10804726	0.06471674	-0.07355325
-0.0227405	-0.060086712	0.05156052	0.045815032	-0.0133167915	0.025666902	0.024351645	0.07953097	-0.080123566
-0.027732356	-0.060959514	0.0912303	0.052298345	0.041982047	0.0665822	-0.0016908243	0.00692561	-0.03341072
-0.022125604	-0.034240708	0.018731639	0.026355721	0.082616374	0.07281786	0.036424458	0.06902	-0.055682905
-0.081041865	0.00196192	0.0019607937	0.010799228	0.032333262	0.07644841	0.013502287	0.05499761	0.013525308
-0.012958117	-0.048041772	0.0752287	0.03741852	0.07745691	0.0040562456	0.1046115	0.0123965815	-0.037950225
-0.041763574	-0.06524086	0.009989625	0.045013882	0.07233146	0.004908013	0.01385961	0.092115425	-0.049288645
0.0015538002	-0.00017826339	-0.0006243414	0.019664515	0.052121483	0.025431577	0.056736324	0.09061002	-0.06899817
-0.015106546	-0.026757699	0.059137795	0.09033937	0.0345548	-0.01355014	0.04097785	0.060845025	-0.033301402
-0.11977603	-0.107286975	0.055316374	0.0633444	0.08737811	0.10927806	0.09175741	0.10378092	-0.10278305
-0.023527365	-0.08337138	0.08852504	0.07986578	0.006561129	0.026237393	0.028739428	0.04716501	-0.08933663
-0.07334733	0.004653236	0.07182594	-0.015835281	0.05185047	0.0024286334	-0.0006201895	0.073013544	-0.07088967
-0.010089075	-0.0008264061	0.082661755	0.06943223	0.024713704	0.038370896	0.056042287	0.036326047	-0.0018872877
-0.07134519	-0.08351991	0.059565857	0.0064737136	0.054622486	0.0054096766	0.0052970466	0.04353832	-0.020888796
-0.05159111	-0.036087353	0.04607942	0.08519679	0.07900973	0.053366896	0.057495248	0.08445792	-0.070621766
-0.005803186	-0.06600662	0.0019315353	0.09001332	0.0029612244	0.009372598	0.08018794	0.047046658	-0.07354169
-0.017921593	-0.045008652	0.07071241	-0.0036535442	0.013373176	0.059953652	0.01713864	0.04548948	-0.050832536
-0.12184642	-0.04437324	0.07101072	0.06305059	0.088224396	0.04336432	0.064950354	0.07379655	-0.01626664
-0.037935495	-0.044091314	0.058566604	0.1000713	0.08034927	0.0077787316	0.09131719	0.07672505	-0.037926614
-0.05622279	-0.08362983	0.05044359	0.018056687	0.10031133	0.08579142	0.04120916	0.06744071	-0.06166088
-0.06456107	-0.03434298	0.008289064	0.07031187	0.061705258	0.0015289765	0.0453651	0.07829803	-0.017128436
-0.04817812	-0.004175045	0.05492928	0.05341682	0.047421698	0.02033755	0.062134206	0.06079339	-0.050432194
-0.056421965	-0.027638813	0.092909634	0.013243559	0.060472477	-0.0061801737	0.023791773	-0.0028262157	-0.06091765
-0.023116391	-0.062215738	0.12901753	0.08543401	0.035356745	0.068247974	0.07213852	0.12381177	-0.09435344
-0.016628705	-0.01739176	0.056527037	0.072918296	0.07552771	-0.014370662	0.023301756	0.031036684	-0.069514945
-0.038055565	-0.03717261	0.032156292	0.01821364	-0.0020784254	0.0576463	0.039400734	0.09979467	-0.010103407
-0.03381981	-0.05724118	0.05692709	0.054094676	0.002401988	0.09361537	0.039877653	0.03604101	-0.08022599
-0.039476924	-0.03947404	0.025530148	0.080893725	0.08478862	0.04845342	0.06510202	0.007999332	-0.03979858
-0.046614528	-0.095786	0.06650121	0.036382705	0.09399607	0.07005929	0.06571097	0.030836852	-0.041871924
-0.02278382	-0.015139004	0.03355129	0.031174626	0.06248227	0.074882895	0.04639918	0.10355748	-0.040600754
-0.084183455	-0.019699607	0.099750996	0.03367813	0.010380868	0.063750036	0.02568202	0.094285175	-0.05290968
-0.01795956	0.015760899	0.0649176	0.086350456	0.037081104	0.020278154	0.053606246	0.064232506	-0.074192934
-0.044005886	-0.1289423	0.07985734	0.056077905	0.10215955	0.041615687	0.07172181	0.1278833	-0.1291036
-0.02565727	-0.06981382	0.03751876	0.0948007	0.039322358	0.0801366	0.0970277	0.010821747	-0.060439833
-0.005005633	-0.022431374	0.07427687	0.06855017	0.060773496	0.08557682	0.058430284	-0.012387683	0.0008552218
-0.035506807	-0.066557385	-0.0045516924	0.08640323	0.03429768	0.052439034	0.06998431	0.013180361	-0.08154905
-0.084853396	0.0015655686	0.055704806	0.08476409	0.009617938	0.0443289	0.021201342	0.033553533	-0.05284141
-0.09645054	-0.032083612	0.08142307	0.016173393	0.016698506	0.095503606	0.02937316	0.047569957	-0.02294474
-0.08829619	-0.060418665	0.0035002965	0.084058516	0.03767813	0.046184953	0.0899268	0.04382091	-0.048748225
-0.046784014	-0.021919925	0.07650441	0.05451089	-0.006871985	0.019565526	0.08412793	0.011395282	-0.06573339
0.008248681	-0.008178161	0.056121957	0.06631914	0.079067215	0.010188774	0.02281435	0.08395052	-0.03644354
-0.04514757	-0.045360994	0.027439667	0.080579765	0.016789185	0.016851982	0.01092571	0.011402798	-0.010613192
-0.0032801877	-0.06089918	0.017882224	0.05155745	-0.0022994117	0.08488062	0.012584198	0.040351562	-0.054004185
-0.09700541	-0.031801805	0.052892018	0.08104625	0.06184879	0.024236	0.039784417	0.025732137	-0.09549963
-0.024116848	-0.073760696	0.08458007	0.033310596	0.07660623	0.019942096	0.002912704	0.07903401	-0.0032372784
-0.06900564	0.020349106	0.06065135	0.074123375	-0.0019047583	0.046721578	0.051753223	0.070384234	-0.0032916924
-0.07089701	-0.07043011	0.011163034	0.008878628	0.022825195	0.06542323	0.0840409	0.09653815	-0.07067239
-0.09361954	-0.09333949	0.110045984	0.035886567	0.07575882	0.045463376	0.05154399	0.059570696	-0.06461155
-0.030645043	-0.07365405	0.10754952	0.021048378	0.07021757	0.04227038	0.032185037	0.032927796	-0.0750885
-0.08174224	0.0023365426	0.06362974	0.045593373	0.051393814	0.011456987	0.06418307	0.057553377	0.0025061169
-0.020159151	-0.06661507	0.05300629	0.02983538	0.058622655	0.066609755	0.08756467	0.023566224	-0.053871136
-0.050278824	-0.036986683	0.10882852	0.030186594	0.0724171	0.080092706	0.07513308	0.1020107	-0.076750055
-0.007924495	-0.0026980147	0.015938343	0.06774439	0.014567195	0.08795527	0.034697182	0.07377976	-0.089501746
-0.042918272	0.0042709806	0.017108986	0.07907951	0.020498788	0.05805075	0.07725491	0.045935806	-0.0720779
-0.017295599	-0.071930386	0.08778063	-0.0055249226	0.071025	0.086670116	0.07137869	0.003976287	-0.0066434047
-0.07787114	-0.006694264	0.060316626	-0.0019156397	-0.0072012795	0.013659776	0.0472632	0.073923916	-0.06799276
-0.0520609	-0.08101409	-0.011108983	0.04663276	0.0067996574	0.06439259	0.054638688	0.026047396	-0.008331788
-0.017766919	-0.051883455	0.07135716	0.036656924	0.043303963	0.03470106	0.051466916	0.05558883	-0.03916708
-0.04553969	-0.00031168258	0.08985818	0.0060473625	0.049691636	0.044557	0.024792884	0.08869488	0.011039917
-0.0021941161	-0.06329116	0.068678394	0.07021053	0.068969935	0.07262215	0.044417832	-0.0021901457	-0.030734185
-0.05210604	-0.10028796	0.10444625	0.024993582	0.09557981	0.026924001	0.038173337	0.057644144	-0.11145531
-0.034617145	-0.0365786	0.050005935	0.05657359	0.053009544	0.024152612	0.04267845	0.050560772	-0.011850947
-0.060977317	-0.04984028	0.07613068	0.012731114	0.07558817	0.055903688	0.03900442	0.01924692	-0.074943595
-0.056117594	-0.009767585	0.052291792	0.050136883	0.032424893	0.008019591	0.04636552	0.05072199	-0.07397618
-0.050144598	0.0015558862	0.031999372	0.01919202	0.06219332	0.0013399945	0.06330745	0.077976376	-0.084980346
-0.052476157	-0.042637184	0.08824306	0.041846804	0.07773409	0.08342041	0.01793307	0.016579997	-0.06368909
-0.05047479	-0.016958773	0.083423495	0.08882524	0.038551547	0.091336906	0.06866782	0.06604265	-0.022503762
0.0011282121	-0.043824248	0.044184286	0.0197566	0.06258582	0.06447128	0.06220681	0.068886146	-0.039715145
-0.09870633	-0.0058428454	0.08915499	0.050421536	0.0471433	0.07785857	0.006620381	0.05787583	-0.07160505
-0.020509327	-0.06222154	0.0074176015	0.053753313	0.02493456	0.07501109	0.045662142	0.064434186	-0.013503229
-0.08710442	-0.031921577	0.027605506	0.04023835	0.06339552	-0.002408692	0.057536416	0.09236659	-0.022171002
0.007624809	-0.040012684	0.0019617	0.021593265	0.027772967	0.060389813	0.09429739	0.044558782	-0.08751716
-0.009704724	-0.005525919	0.08007618	0.014114359	0.07790246	0.011002771	0.0739424	0.0786072	-0.07321822
-0.06928035	-0.054122847	0.08850864	0.08672627	0.056536507	0.05090458	0.06018524	0.08291214	-0.012312612
-0.037409376	-0.04229719	0.040294856	-1.830043e-05	0.078307614	0.019430831	0.006737059	0.009192128	-0.060596414
-0.0022435288	-0.08537687	0.016183272	0.009215595	0.0797151	0.066465385	0.007899596	0.035764735	-0.06485778
-0.10133127	-0.017450158	0.011176321	0.049555246	0.023685807	0.013465237	0.020282794	0.027959937	-0.09004423
-0.061220504	-0.04833712	0.07165909	0.07309008	0.026441658	0.020044168	0.04236789	0.066948496	-0.008463559
-0.03928366	-0.081076644	0.023187904	0.018238274	0.09294928	0.0791465	0.10315176	0.05669116	-0.06935175
-0.09576023	-0.029106438	0.056826685	0.07613199	0.07337104	0.08130828	0.046842735	0.03865873	0.0057249395
-0.01816189	-0.035694495	0.032740813	0.10118524	0.03360999	0.09823677	0.021010233	0.049578454	-0.07766097
0.016684677	-0.03852625	0.03359646	0.06930231	0.031388596	0.072071716	0.072443716	0.061008744	-0.028668396
0.046820443	-0.058424294	0.052844014	0.07596403	0.0071869576	0.028655231	0.054375894	0.06305267	-0.024488607
-0.06105609	-0.09872843	0.051759414	0.080636114	0.0694246	0.008025846	0.057241924	0.07352543	-0.013448941
-0.05918306	-0.08510916	0.052842595	0.018850101	0.079569615	0.0697706	0.06180281	0.010913835	-0.0476302
-0.06435209	-0.035795145	0.022632277	0.07010275	0.010981595	0.056779433	-0.007182378	0.070172265	0.016161049
-0.03524202	-0.0503195	0.06836698	0.0722135	0.05271352	0.030810878	-0.010215563	0.062081426	-0.009044072
-0.04372274	-0.055326853	0.036436066	0.044034436	0.05060445	0.077699095	0.012507729	0.042938635	-0.085707694
-0.10424878	-0.013940026	-0.0057600657	-0.009843487	0.02588758	0.010315342	0.057765074	0.08739191	-0.068664305
-0.0746511	-0.019485531	0.045874517	0.0042243474	0.06926187	0.086994424	-0.012768042	0.032633122	-0.0366082
-0.066768244	-0.08283925	0.09944059	0.08062454	0.022664193	0.085184015	0.028560963	0.03940801	-0.039016154
-0.024243131	-0.07150211	0.08867175	0.0705328	0.08415651	0.034811545	0.068026826	0.074391276	-0.025244117
-0.029022329	-0.0026582475	0.029717915	0.081371434	0.041674927	0.022927668	0.094790615	0.020126652	-0.060661938
-0.049407635	-0.0018846316	0.0614422	0.07633099	0.039017424	-0.012757915	-0.015203287	0.062033333	0.0052291784
-0.025697991	-0.021792466	0.030511718	0.08030571	0.021627633	0.046403978	0.0064139892	0.05381187	-0.004673618
-0.094771594	-0.037435263	0.021125343	0.01726908	0.07155612	0.07291489	0.01230075	0.0029552067	-0.040731654
-0.06896715	-0.06779772	0.034261927	0.08099774	0.03161856	0.0028257563	0.05669879	0.052590292	-0.036590993
-0.009804559	-0.08130421	0.010904076	0.013507395	0.06492245	0.02463077	0.05256623	0.012752936	-0.0780885
-0.08296633	-0.01580101	0.010047141	0.07964891	0.041447274	0.042752963	0.03963721	0.07978309	0.0011489728
-0.052354887	-0.084304065	0.07352064	0.050594162	0.11546159	0.04295377	0.046324834	0.109108835	-0.044231273
-0.051092293	-0.07237588	0.023483455	0.07316301	0.07861419	0.019122185	0.033376664	0.03161977	-0.037341516
-0.024434187	-0.04034962	0.09105903	0.08327714	0.049141627	0.03444718	0.001705845	0.10068558	-0.047958326
-0.069829874	-0.06545371	0.07813906	0.040737268	0.097450465	0.08745096	0.024631605	0.026608128	-0.06617795
0.008386716	-0.033582974	0.006930262	0.03666754	0.08365446	0.050121	-0.0043999525	0.056671657	-0.047044553
-0.016329	-0.0953283	0.007419417	0.0803116	0.042140055	0.017802292	0.03525936	0.06949098	-0.029317882
-0.03197658	-0.007318155	0.067798264	0.074952506	0.026490297	0.050310746	0.03662908	0.08290091	-0.07101675
-0.020239918	-0.030206665	0.06720559	0.07472902	0.031118613	0.021559892	0.06827907	0.066500716	-0.04216364
-0.048879474	0.01004792	0.023678053	0.056050368	-0.0023711256	0.07753898	0.046109706	0.053111784	-0.05198312
-0.007000438	-0.005006917	0.0027290657	0.030546548	0.04290051	0.04861051	0.094733715	0.07055041	-0.011171639
-0.051151145	-0.09105284	0.0033728739	0.04043719	0.0811444	0.037673388	0.07208604	0.016348062	-0.092296585
-0.034395725	-0.012583858	0.02717926	-0.0006722625	0.053287577	0.008985709	0.006926311	0.079386696	-0.029420849
-0.05615989	-0.039226163	0.024014546	0.019862905	0.0017866348	0.056659777	-0.005565604	0.057723258	-0.03741559
-0.010223393	-0.07336388	0.049867418	0.08097408	0.07968367	0.08861635	-0.0040140133	0.002048741	-0.024639266
-0.022380784	-0.077124126	0.06922173	0.060042445	0.015774412	0.04913101	-0.0068774773	0.04960973	-0.058313474
-0.061189387	-0.036066074	0.05804226	0.0017241624	0.03455021	0.08105467	0.019662788	0.0015846231	-0.044111058
-0.049437806	0.0032959562	0.078281954	0.0013413274	-0.00053032517	0.052150927	-0.014605359	0.025403243	-0.06962817
-0.072510295	-0.016819138	0.057179425	0.047113914	-0.017210629	0.058871046	0.03338882	0.04786155	-0.009618241
-0.015191161	-0.022293694	0.019971885	0.057253283	0.071343414	0.04694441	0.054753136	0.011531605	-0.0049458863
-0.00251083	-0.026405225	0.014242154	0.037120372	0.023102278	0.08381617	0.05042577	0.09480162	-0.014973081
-0.059182692	-0.017222937	0.09503052	0.055711024	0.069182284	0.031116938	0.044699114	0.07101408	-0.03164863
-0.07399184	-0.035819285	0.08135088	0.09473821	0.03642001	0.044819385	0.008790521	0.061337125	-0.012927938
-0.06167809	-0.066684835	0.05536019	0.025671447	0.087539	0.048060253	0.027487528	0.10541804	-0.10009601
-0.10082712	-0.05280417	0.057329517	0.10351736	0.015997356	0.06345011	0.12351545	0.048717715	-0.11050714
0.013385008	-0.032133278	0.064511076	0.058072977	0.082961366	0.0732584	0.028977362	0.031307127	-0.083575554
-0.04098602	-0.08229347	0.060020883	0.048918176	0.011856596	0.086606055	0.048477765	0.0143959	-0.06682458
-0.02352934	-0.0043598255	0.013767472	0.047655996	0.028842619	0.050928634	0.04987665	0.071043424	-0.06441665
-0.04095658	-0.0137436995	0.04487449	0.07745717	0.07999028	0.08119657	0.034139987	0.018346632	-0.054526724
-0.018619847	-0.04764298	0.034751758	0.04485275	-0.014406854	0.04986408	0.08256078	0.042349413	-0.07265193
-0.07624988	-0.09623235	0.03318521	0.11416924	0.02615867	0.049876746	0.07045627	0.045262553	-0.10325827
-0.059215643	-0.06447447	0.02595201	0.058254138	0.0004896549	-0.027789343	0.034469053	0.07433711	-0.0060966844
-0.101750836	-0.06225037	0.033898503	0.11269358	0.102239855	0.10997646	0.07309253	0.032920305	-0.1114515
-0.08619643	-0.08294862	0.046222094	-0.016439902	0.02190721	0.010800333	0.0736787	0.02906474	-0.052858446
-0.028429246	-0.0347643	0.0667468	0.02390991	0.07403373	0.01380222	0.0704724	0.07370133	-0.051457748
-0.056507386	-0.05310371	0.059224512	0.06078612	0.033206806	0.018313361	0.09690595	0.06170346	-0.040521644
-0.03918318	-0.062497344	0.03694302	0.07093822	0.038744155	0.0911458	0.031191211	0.051310524	-0.042468432
-0.035428904	-0.090184934	0.07161342	0.048647016	0.07326437	0.010058531	0.037316713	0.111022905	-0.07175839
-0.01539606	-0.061616886	-0.007261615	0.0601462	0.076932095	0.035070106	0.023660935	0.019907525	-0.049955506
-0.03934529	-0.022373902	0.06646537	0.0013548346	0.024757665	0.01602867	-0.023877887	0.057390016	-0.048127014
-0.050246183	-0.08295441	0.08433543	0.008271775	-0.012343086	0.033329513	0.01995817	0.06622017	-0.02991147
-0.0943611	-0.061248675	-0.0032614612	0.07940461	0.062618695	0.011625241	0.0408828	0.03421223	-0.0072954637
0.002962017	-0.040910725	0.049866274	0.008442906	0.087778725	0.042710226	0.066295266	0.03667029	-0.0483704
-0.03462061	-0.02887396	0.07366328	0.030820169	0.041052353	0.07964087	0.06706425	0.022392532	-0.04385186
-0.029531417	-0.031918474	0.012767821	0.06641843	0.05088472	0.04646555	0.03346261	0.03407821	-0.036196243
-0.067840464	-0.012577518	0.076770596	0.019381454	0.034541234	0.008959792	0.08031866	0.043699794	-0.06696185
-0.018305311	0.007617782	0.018091008	0.09347115	0.07606399	0.01984224	0.048357204	0.07075791	-0.06630832
-0.023692684	-0.015875919	0.07463014	0.03536492	0.022930615	0.08074071	0.039946113	0.033769906	-0.0901112
-0.021962538	-0.051606134	0.08232253	0.010549197	0.02096695	0.051468816	0.022690523	0.03816808	-0.033205826
-0.08670615	-0.039245356	0.053692464	0.024623806	0.04884268	0.06966657	0.02531931	0.05967069	-0.020145992
-0.0011785462	-0.09783669	0.04746342	0.017173138	0.033042	0.0349771	0.026587019	0.07865171	-0.022890106
-0.059990797	-0.074175745	0.047332156	0.070704155	0.04187936	0.09124149	0.045054782	0.045520358	-0.09040272
-0.02835833	-0.046375345	0.05650637	0.055096984	0.022740813	0.08227866	0.0037101412	0.049162567	-0.0056817383
-0.09750324	-0.0684877	0.04767715	0.053811435	0.12183811	0.092526644	0.087893344	0.10921596	-0.10983738
-0.06555406	-0.003756644	0.06334451	0.07578341	0.006584021	0.041978642	0.035394184	0.032441102	-0.08626211
-0.04535313	-0.01304074	0.03504388	0.07210341	0.029889937	0.012054378	0.06629719	0.008906443	-0.061070457
-0.082159184	-0.07788286	0.07659973	0.10598906	0.06701178	0.0711938	-6.16202e-06	0.047488097	-0.02619486
0.0008378805	-0.080619	0.043213867	0.06478439	0.05845743	0.038083673	0.067337275	0.10274603	-0.026155876
-0.0069709984	-0.056411043	0.04553458	0.04259338	0.08016254	0.013684896	0.08114574	0.033940673	-0.04820658
-0.0060827993	-0.0454595	0.0172975	0.05397394	0.040488534	0.063302785	0.05235978	0.09346279	-0.053063653
-0.079616934	-0.082675494	0.07061314	0.048223138	0.06946258	0.065229595	0.02073799	0.04877864	-0.10126386
-0.057007387	-0.0099677425	0.006255596	0.06911159	0.0042400644	0.074628636	0.0806768	0.043712534	0.018607983
-0.054608185	-0.053866733	0.00975585	0.06384979	0.04683478	0.07271926	0.035466574	0.04237708	-0.015101706
-0.038295135	-0.06287339	0.067506395	0.052692313	0.06047749	0.06388524	0.04302193	0.049459152	0.029501274
-0.07390019	-0.05249716	0.042766474	0.07551924	0.0302319	0.07304805	0.096227646	0.045453843	-0.09005658
-0.0058969934	-0.06753432	0.077898264	0.035315458	0.0962861	0.090702236	0.040613893	0.07913872	-0.029498644
-0.041513734	-0.0461165	0.0051556993	0.084008686	0.018649662	0.066996716	0.036740765	0.040050715	-0.0030888394
-0.0077477256	-0.07177425	0.05880506	0.072756834	0.0045829164	0.09485542	0.07215061	0.029757418	-0.036227494
-0.063007176	-0.039187293	0.074266076	0.042015646	0.042743012	0.005110488	0.009976225	0.08875154	-0.085992254
-0.049188286	-0.03837747	0.048020985	0.028269254	0.058349203	0.07452954	0.10527123	0.08752762	-0.021945076
-0.029157273	-0.05844622	0.08896153	0.0039846236	0.047215134	0.048687078	0.0021821223	0.04262517	-0.016719786
-0.031879026	-0.05599349	0.03317733	0.024756353	0.034003053	0.076898485	0.06837806	0.027385846	0.011668075
-0.021839378	-0.054369133	0.047530975	0.0060972488	0.045991752	0.035434984	0.058695216	0.05013081	-0.024131108
-0.07502101	-0.042207655	0.037530933	0.014109963	0.0031019761	0.03152944	-0.021428036	0.06705714	-0.058333103
-0.08650674	-0.047894098	0.082696594	0.099558465	0.09584238	0.0002882127	0.009947988	0.0360454	-0.034691628
-0.066163786	-0.056522958	0.07371302	0.04745398	0.044671696	0.015507095	0.004556633	0.000108111635	-0.052803636
-0.015189522	-0.050714336	0.0985714	0.06436411	0.042411115	0.016770834	0.09896589	0.028755909	-0.019307852
-0.07699387	-0.0027370115	0.036467824	0.046415288	0.06384642	0.06638126	0.055836547	0.0005720182	-0.042390443
-0.08943342	-0.066775106	0.012183433	0.05785003	0.03795986	-0.0021226204	0.0009947864	0.055838503	-0.04221767
-0.12563953	-0.108669005	0.063904695	0.061035715	0.0404388	0.060254686	0.10336994	0.114721924	-0.09455586
-0.10960778	-0.064736225	0.13739847	0.08469891	0.05744386	0.100190476	0.08079606	0.06257818	-0.10268677
-0.018350236	-0.050624877	0.003302664	0.02628594	0.06546942	0.056475334	0.04945853	0.039676476	-0.052438684
-0.038715217	-0.084827326	0.073751785	0.075252794	0.06685526	0.12442176	0.1274928	0.12686759	-0.042887457
-0.02990551	-0.036093935	0.048042532	0.0725024	0.0067708045	0.03055947	0.039405018	0.010173509	-0.022441981
-0.018209351	-0.03310695	0.018897068	0.075076014	0.0663981	0.0075965044	-0.00438849	0.066119626	0.0030488304
-0.03596218	-0.07391233	0.064931355	0.003467297	0.07808552	0.05356358	0.081345014	0.042808365	-0.08478151
-0.07040661	-0.09172064	0.03919218	0.03393708	-0.00762899	0.05985384	0.06274769	0.058074694	-0.05437858
-0.097559385	-0.009567032	0.051313456	0.10024058	0.07546403	0.08986967	0.02958695	0.07092783	-0.018729016
-0.05582531	-0.07888851	0.031095227	0.01666379	0.011903358	0.042211197	0.029262768	0.08827256	-0.0461929
-0.011219598	-0.04190785	0.06802865	0.047634717	-0.010504244	0.02838106	0.08047018	0.07961596	-0.03636505
-0.07626435	-0.07823874	-0.008297517	0.07948644	0.07708564	-0.008601905	-0.008133201	0.06728059	-0.06080023
-0.091557644	-0.1021605	0.043353565	0.042159498	0.08515144	0.09093073	0.03970176	0.10139404	-0.028681602
-0.09386824	-0.093700096	0.00960602	0.06795127	0.07738717	0.052363716	0.011979755	0.038774192	-0.030269718
-0.027689895	-0.020498218	0.0657732	0.0063701537	0.004193536	0.045920502	0.06360884	0.071387395	-0.06513268
-0.0905537	-0.04488022	0.054830234	0.006132761	0.009058152	0.08449152	0.05130106	0.0029326926	0.015944667
-0.039482396	-0.0019977451	0.027368385	0.014457313	0.09435289	0.015393448	0.053575475	0.07867459	-0.045399033
-0.06618736	-0.085673176	0.04775212	0.018135104	0.04428374	0.035948046	0.017283535	0.016697261	-0.07014152
-0.11006067	-0.052982375	0.034899943	0.06341404	0.048261967	0.057228338	0.041658357	0.063153766	-0.07880531
-0.094197065	-0.02346461	0.009630129	0.082342535	0.077633336	0.09444795	0.06360516	0.0520845	-0.011721896
-0.06601109	-0.05266435	0.0165957	0.034996502	0.08613423	0.050601713	0.04626592	0.07001288	-0.0373835
-0.053191863	-0.042792525	0.06469913	0.023658618	0.041211408	0.054978564	0.08122395	0.05654309	-0.038857166
-0.07268948	-0.064073585	0.08363011	0.011727688	0.08132878	0.009172524	0.010765462	0.054239854	-0.016581928
-0.09752247	-0.021948358	0.058603387	0.029987412	0.018986464	0.032650802	0.012139679	0.07575578	-0.106029
-0.072263665	-0.07743432	0.002623146	0.012591623	0.07665829	0.041463625	0.036299195	0.08741641	0.002542522
-0.06817487	-0.017789943	0.027740734	0.026222331	0.09040939	0.014576506	0.07745739	0.027488455	-0.035961367
-0.042190347	-0.045669578	0.09028755	0.008995295	-0.0015595683	0.02471696	0.066782415	0.0062467353	-0.034835733
-0.03131227	-0.03193086	0.030094802	0.08760242	0.09620783	-0.0038609116	0.032781556	0.12114982	-0.068504855
-0.02101099	0.00021800776	0.04539927	0.083007924	0.011463174	0.06590654	0.058854356	0.086304136	-0.025818633
-0.03235593	-0.074587986	0.040037435	0.009916722	0.08021591	0.034928102	0.014534448	0.05465419	-0.008506213
-0.00014436491	-0.06603638	0.005754291	0.056662016	0.07841825	0.043480076	0.0060312795	0.097342975	-0.042215772
-0.04651691	-0.1194127	0.04634453	0.043033738	0.06924621	0.03116894	0.062636025	0.030593704	-0.033397943
-0.07329202	-0.119873494	0.04036729	0.044598244	0.07703025	0.04566331	0.060869217	0.12430546	-0.10165768
-0.07303534	-0.07872985	0.015785154	0.03115623	0.006402716	0.034108493	0.06853137	0.06726942	-0.089077994
-0.06486407	-0.040236004	0.02487686	0.09845332	0.05230126	0.04328608	0.01247091	0.0065059876	-0.074053615
-0.088914834	-0.035789736	0.10546609	0.064349584	0.074789084	0.08945564	0.043198615	0.080804095	-0.07736851
-0.021622296	-0.08846326	0.008707353	0.060858805	0.017373366	0.0351109	0.021232612	0.019194478	-0.08182259
-0.052743427	-0.10200294	0.0851209	0.043197785	0.12940131	0.051850528	0.04141821	0.09590899	-0.023293404
-0.05028204	-0.078435816	0.054056022	-0.0025073972	0.050105892	0.03762207	0.0077328	0.002380061	-0.054365188
-0.10040049	-0.074865706	0.12718736	0.038905066	0.052409276	0.064445876	0.06602112	0.064836904	-0.11192821
-0.041365083	-0.07579532	0.032527708	0.07248352	0.081798196	0.049063373	0.023170933	0.01869268	-0.075261
-0.06816192	-0.07222399	-0.0012617543	0.0657912	0.062996835	0.016784148	0.012377164	0.029272022	-0.0726561
0.0033354415	-0.02030816	0.061532676	0.08105428	0.052175045	0.062495753	-0.0048675803	0.028522018	-0.06415963
-0.011001584	-0.0236394	0.055817034	0.048690002	0.017328385	0.056683462	0.03993394	0.089595556	-0.035109106
-0.06207318	-0.023350807	0.007327556	0.033093538	0.07031363	0.0031070258	0.078967035	0.07445335	-0.07747048
-0.0040836134	-0.06722841	0.078331724	0.031220363	0.042745672	0.056943078	0.08051897	0.018146781	0.0031494836
-0.03756806	-0.013356669	0.044577435	0.027262129	0.059608344	0.055302262	0.069069244	0.05186334	-0.021205427
-0.05584909	-0.054819327	0.051386606	0.024178438	0.048689567	0.04609686	0.06381534	0.048835814	-0.06252303
-0.07764928	-0.018869601	0.047167376	0.08540989	0.053532474	0.02949983	0.041894075	0.03646894	-0.041805588
-0.057290267	-0.068228185	0.07911726	0.08407223	0.05664609	0.003666529	0.048324615	0.0014793752	-0.039250273
-0.08578448	-0.012514128	0.014841636	0.08326125	0.0019575497	0.057158574	0.028500656	0.086962566	0.007475587
-0.018642645	-0.04256152	0.08907052	0.10291422	0.025531568	0.085818544	0.0589166	0.051903196	-0.045126762
-0.022031454	-0.0776222	0.023101041	0.027371857	0.020742014	0.024920344	0.03242233	0.11333791	-0.02842121
-0.009706827	-0.014299654	0.0053228526	0.0757083	-0.014914474	0.05831727	0.07055024	0.053126037	-0.040103186
-0.043515433	0.015680129	0.06152438	0.047262974	0.0684061	-0.009862404	0.06422161	0.06711846	0.0034519057
-0.04118849	-0.0711596	0.011970797	0.08464702	0.023487318	0.017295234	-0.017342996	0.07353908	-0.05039734
0.0046556946	-0.022813704	0.04772604	0.08090808	0.047175888	0.085720204	0.02469394	0.072597966	-0.014326244
-0.06766034	-0.009478375	0.00076693145	0.03191915	0.05181493	0.0028289	0.061892122	0.057776563	0.003972506
-0.017815646	0.006283606	0.06768324	0.018429626	0.066182114	0.06742414	0.03683762	-0.015542735	-0.043876145
-0.054015867	-0.0802411	0.06809721	-0.001791065	0.015342924	0.04367558	0.07841153	0.031879757	-0.0434876
0.0056937146	-0.05235343	0.08202691	0.08419064	0.0067208577	0.059081193	0.034527108	0.012443787	-0.08376058
-0.023427514	-0.0791747	0.014150226	0.024826562	0.040225405	0.07080024	0.0844819	0.036897045	-0.024184262
-0.052656982	-0.067864105	0.07784857	0.043335177	0.00896577	0.012193229	0.054268733	0.084778525	-0.005561613
-0.05141216	-0.05745973	0.030708356	0.101878405	0.09307621	0.09630304	0.015119898	0.059562087	-0.036393777
-0.0023193248	-0.017280327	0.07101185	0.030627029	0.018078243	0.050103113	0.038311608	0.06787335	-0.018415442
-0.066583395	-0.03984617	0.06286519	0.016794294	0.04345111	0.014408905	0.080249	0.0808598	-0.00068408594
-0.08322575	-0.047367357	0.0067962	0.038630024	-0.0023699172	0.068875685	0.015644686	0.09729126	-0.017391467
-0.04118304	-0.062134568	0.0012057732	0.02780791	0.019397454	0.07776137	0.09218709	0.014671944	-0.07183202
-0.107528806	-0.092223525	0.07494968	0.0029098406	0.040230967	0.040236738	0.011390242	0.0056270016	-0.06382379
-0.044267815	-0.019933587	0.01331702	0.04940298	0.028195497	0.034546155	-0.013363774	0.06802722	-0.06683643
0.000118190364	-0.029314963	0.035339933	0.03657816	0.030768568	0.055959698	0.07955869	0.04173861	-0.08349931
-0.0444492	-0.023947556	0.0275803	0.05550008	0.039733913	0.036765005	0.057356812	0.071290344	-0.0527984
-0.055624932	-0.041189164	0.05422657	0.06856501	0.024864804	0.10187565	0.104992345	0.04614763	-0.024281118
-0.05422861	-0.024171455	0.040822852	0.0050846995	0.031466927	0.07736436	0.049312524	-0.003951725	-0.03940965
-0.06831494	-0.052145936	0.028764244	0.06304117	0.039978243	0.0058122845	0.026839377	0.084885955	-0.09610756
-0.042393092	-0.061525967	0.09950042	0.064376205	0.08105271	0.11549185	0.08478475	0.08239519	-0.06421818
-0.06909955	-0.07715803	0.043378055	0.0006265374	0.058365844	0.04983561	-0.0048515657	0.019041553	-0.04217092
-0.015274883	-0.03197531	0.04111265	0.08441396	0.09021278	0.09357732	0.018814115	0.0349555	-0.0644806
-0.051738523	-0.09811597	0.07651615	0.052740652	0.014441167	0.053061515	0.07528566	0.032504063	0.005331451
-0.0052720197	-0.06988878	0.065804556	0.04960463	0.022104029	0.04800775	0.010221639	0.032422666	-0.08698361
-0.09389086	-0.038426634	0.01186023	0.04938412	0.0234548	0.09122858	0.033461604	0.07249436	-0.017346216
-0.058357436	-0.034129225	0.0814531	0.059602436	0.066862665	-0.0016808481	0.011834601	0.04018591	-0.022461288
-0.076747246	-0.08886277	0.05946404	0.0012694732	0.004370661	-0.0046069766	0.0853527	0.049433444	-0.015366165
-0.031101914	-0.020203317	0.06718207	0.0779808	0.008876589	0.09194606	0.049602527	0.018139739	-0.07111268
-0.045379248	-0.019171907	0.0240851	0.033945724	0.025099082	0.05614065	0.032571975	0.0949854	-0.020402588
-0.04466329	-0.045661293	0.0669336	0.09877546	0.059019007	0.050321527	0.100896835	0.097609006	-0.050571542
-0.07721612	-0.04170804	0.07913841	0.07202029	0.055456996	0.08361656	0.04699572	0.047871098	-0.12182692
0.020398604	-0.068689264	0.045445707	0.058867164	-0.007359808	0.041826762	0.049275104	0.04733027	-0.06013744
-0.053206775	-0.06774242	0.012232543	0.057253107	0.048347868	0.03294575	0.017160237	0.074146144	-0.02195119
-0.076877005	-0.03660121	0.05663815	0.0978466	0.011634527	0.022330917	0.09168948	0.08653739	-0.089076824
-0.041704856	0.012281687	0.06981807	0.069134206	0.06792486	0.020221913	0.062373172	0.027456114	-0.06297267
-0.06486681	-0.059879646	0.057724025	0.08846614	0.068456285	0.0816649	0.019893497	0.04905402	-0.0274556
0.005551252	-0.084174946	0.02616082	0.013481297	0.03909708	0.07269095	0.057239536	0.06642501	-0.075515516
-0.07396151	0.011871919	0.00852209	0.08331134	0.029531866	0.07249462	0.09994297	0.03938326	-0.09251866
-0.051470228	-0.050907634	0.12289808	0.0874659	0.077814326	0.05374032	0.11814078	0.056717154	-0.09093223
-0.013537669	-0.042404946	0.023146497	0.035295196	0.06586437	0.059971098	0.040267255	-0.0012910892	-0.06610748
-0.030190807	-0.0065445984	0.065027885	0.057509292	0.016124774	0.06298668	0.023688473	0.01059955	-0.09016842
-0.0807911	-0.03293735	0.050486654	0.033080682	0.02081329	0.09246594	0.041332632	0.023114124	-0.0112006515
-0.08192279	-0.10573266	0.0696296	0.05989757	0.108306676	0.025982305	0.033924486	0.059738632	-0.068887584
-0.01909313	-0.067335196	0.10686379	0.02678824	0.027408132	0.09299719	0.04546913	0.028940829	-0.064787924
-0.042821568	-0.04935557	0.015485887	0.020565897	0.07383034	0.034527257	-0.020104073	0.07986443	-0.036002148
-0.0049294033	-0.016881865	0.07939723	0.032326248	0.08755115	0.013866946	0.07710759	0.09979547	-0.010992943
-0.009347897	-0.05604455	0.016344842	0.028786587	0.01501335	0.033669118	0.08580131	0.07187664	-0.06688432
-0.021088397	-0.04184411	0.059462428	0.07942175	0.039703045	-0.003949312	0.02159235	0.055433087	-0.030224519
-0.019212343	-0.026638119	0.03985211	0.06124859	0.021531388	0.021633722	0.042812712	0.038992558	-0.042015955
-0.0699198	-0.10078879	0.040958077	0.015803155	-0.003684047	0.0038461694	0.09696763	0.056185324	0.011276213
-0.016010623	-0.07308394	0.06408965	0.060451683	0.03429213	0.04918906	0.028440332	0.018616538	-0.009175718
-0.036290966	-0.04431224	0.022409212	0.04534301	0.028532324	0.061275624	0.01825932	0.01729283	-0.054217223
-0.002116837	-0.00601215	0.040943954	0.052747857	0.0038182987	0.072961695	0.037721638	0.058799308	-0.030879563
-0.028066922	-0.03873661	0.048893254	0.061671548	0.018021667	0.045940723	0.03515422	0.038151454	-0.010457562
-0.058813915	-0.0071666767	0.041432872	-0.015721135	0.077218406	0.06565571	0.072627015	0.073688865	0.0007924849
-0.09536705	-0.019511618	0.017546503	0.054893773	0.022836216	0.036917694	0.039485157	0.03604227	-0.066393316
-0.08021292	-0.08623998	0.0694919	0.009863866	0.06976128	0.052736998	0.018063653	0.019889917	-0.052715696
-0.04615064	-0.055655114	0.015235246	0.096694134	0.02887603	0.08698037	0.06518672	0.038073167	-0.0630813
0.00065966	-0.043340266	0.07234032	0.015705245	0.015120416	0.07112124	-0.017222583	0.05029486	-0.004879321
-0.08717915	-0.05807264	0.068312556	0.07978445	0.01767935	0.0032800438	0.009838911	0.0060988646	-0.025616644
-0.03680635	-0.021142244	0.092298515	0.044580527	0.06222182	0.06263699	0.08186907	0.103223816	-0.035556167
-0.035096552	-0.06600189	0.0771375	0.06845616	0.027335694	0.05722605	0.066907376	-0.005020999	-0.04464614
-0.04035236	-0.016128853	0.02083109	0.0754007	0.10375927	0.024758864	0.0448805	0.044606153	-0.0779751
-0.021338815	-0.04064278	0.057683714	-0.011024412	0.050631866	0.028166007	0.070864566	0.042031962	-0.05377408
-0.005536283	-0.031094026	0.076420255	0.046663594	0.026688453	0.07505168	0.03333943	0.08565224	-0.02035831
-0.031098671	-0.10076937	0.09731922	0.07863837	0.056211255	0.08493994	0.0527235	0.07161839	-0.04465992
-0.012096114	-0.057463754	0.05605029	0.092071794	0.08867982	0.044500858	0.06602789	0.058840096	-0.012188386
0.018404158	0.0023163576	0.051221773	0.047906995	0.06308513	0.047306895	0.023002723	0.020706918	0.0049734456
-0.040093675	-0.052009664	0.04581198	0.06842146	-0.012110251	0.015171903	-0.0057669934	0.06021443	-0.0014678321
-0.061181292	-0.007250656	0.026266726	0.033942066	0.010808535	0.0765983	0.006311438	0.057735126	-0.091497116
-0.036829617	-0.04799937	0.006434552	0.050545346	0.076409936	0.059108697	0.013161602	0.08566923	-0.031140778
-0.039493818	-0.0033038699	0.070005305	0.07362788	-0.016386995	0.050082963	0.047114763	0.068034396	-0.014317544
-0.062177703	-0.03688788	0.016240466	-0.008544695	0.019210808	0.03816366	0.056500547	0.04245348	-0.05519816
-0.05249219	-0.060644157	0.07740598	0.032540627	0.0071292156	0.08008749	0.035580352	0.036831055	-0.014919522
0.02812458	0.010415306	0.011985573	0.009308554	0.0060656234	0.06574921	0.075167924	0.073873974	-0.013244974
-0.03532895	-0.11092413	0.050404668	0.020765113	0.08860841	0.04034447	0.036621537	0.048962664	-0.06744544
-0.053944044	-0.087485716	0.03142625	0.048421856	0.013539638	0.05844952	0.08040534	0.06436158	-0.06605113
0.0045102476	-0.06542022	0.025172891	0.029932244	0.09439402	0.08525635	0.013162119	0.08386862	-0.01941155
-0.08559417	-0.06929231	0.04211639	0.007919575	0.06687465	0.052446283	0.008156849	0.06375452	-0.04456582
-0.08703165	-0.033130407	0.059581317	0.05721562	0.06639455	0.026384087	0.026170356	0.07983979	-0.064008825
-0.02462081	-0.008998292	0.05114696	0.02803845	0.008453893	0.047115453	0.028472628	0.029168501	-0.07763947
-0.0741521	-0.06132115	0.004678163	0.099686295	0.0874646	0.07301331	0.06772645	0.079995334	-0.0329777
-0.024952568	-0.08541908	0.07743624	-0.0044721267	0.00703518	0.036637634	0.045450352	0.038434826	-0.058313157
-0.081578024	-0.03916111	0.031484663	0.051490057	0.030894464	0.0064354073	0.055955835	0.018119587	-0.056583732
0.012390633	-0.010832907	0.058726717	0.060157176	-0.002538917	0.054708738	0.08157335	0.026667206	-0.056732237
-0.052628182	0.003978423	0.080374956	0.011040199	0.06006436	0.009810633	0.06326724	0.050485704	-0.0016210903
-0.05249206	-0.029964117	0.007485867	0.024014128	0.07894421	0.07544123	0.093151405	0.058867253	-0.0016300547
-0.039462678	-0.080733836	0.009523213	0.03855178	0.015907798	0.0473486	-0.0025834604	0.06359844	-0.066638924
-0.07294723	-0.038265277	0.059024353	0.03339964	0.10330621	0.05320129	0.12497743	0.08132869	-0.026879512
0.010200432	-0.02699988	0.008789135	0.011079565	0.032413676	0.048710734	0.04139301	0.07274332	-0.05823826
-0.037612863	-0.01424852	0.019529156	0.038148444	0.065075256	0.042214334	0.022570292	0.018490352	-0.023208348
-0.0860459	-0.056948926	0.03718882	0.040203325	0.013134253	0.08545286	0.04490745	0.028690776	-0.06657481
-0.009298154	-0.039311804	0.00472616	0.08507736	0.008523809	0.0952119	0.07383973	0.028119259	-0.10280159
-0.05045503	-0.060995556	0.018056437	0.014923543	0.03549041	0.035421833	0.034834694	0.087798156	-0.04626952
-0.08556696	-0.06360447	0.033454165	0.032464508	0.071217775	0.047894318	0.058307696	0.031668812	-0.058483396
-0.02541023	-0.07533727	0.03993113	0.09537031	0.049554095	0.10771476	-0.0038861784	0.005856282	-0.002127343
-0.009937558	-0.06541694	0.020794185	0.011806888	-0.008069401	0.040845163	0.04229065	0.051133234	-0.04816291
-0.058710694	-0.03898065	0.076723576	0.005183082	0.04579743	-0.017236365	0.029306231	0.026592867	-0.009085201
-0.09695971	-0.061038323	0.058914077	0.06533002	0.080839716	0.053947467	0.07587089	0.048384324	-0.037751973
-0.01717288	-0.038440615	0.07597585	0.075388454	0.043854564	0.022217564	0.045388456	0.075605184	-0.059184212
-0.113205075	-0.11371911	0.04837625	0.06599098	0.060785465	0.03201244	0.12855007	0.05427189	-0.12691419
0.001983932	-0.0031416167	0.0686415	0.112960786	0.041549183	0.038588934	0.029826263	0.045436982	-0.064735234
-0.105242446	-0.04347056	0.08369873	0.013430409	0.047524944	0.006009132	0.017167456	0.03344984	-0.090784036
-0.05545507	-0.016249195	0.046909116	0.09114802	0.07316843	0.033758257	0.054327875	0.07570025	-0.042397786
-0.09815165	-0.023733761	0.072162785	0.035821266	0.0033826008	0.07669494	0.018334325	0.075689875	-0.10303672
-0.035742886	-0.003205027	0.038108382	0.07327179	0.05397617	0.021960476	0.07114896	0.013267548	-0.03187323
-0.08991479	-0.041540645	0.07303674	0.030249504	0.014699067	-0.0023724858	0.08070121	0.047553577	-0.023347607
-0.0031533034	-0.016882969	0.01140662	0.01107879	0.0347033	0.055998046	0.021368718	0.09955147	-0.079887114
-0.019305006	-0.056963354	0.035755824	0.027922457	0.09892812	0.11808689	0.114137575	0.12621221	-0.061435886
-0.04734181	-0.012174056	0.08610331	0.026154723	0.036463417	0.007732377	0.011152366	0.046145674	-0.061709072
-0.09735469	0.0061092293	0.038415372	0.057998177	-0.0053381403	0.06608332	0.06458723	0.004772719	-0.051802162
-0.042841647	-0.03606424	-0.014658758	0.03905293	0.048384506	0.058272365	-0.023405286	-0.001169052	-0.060542062
-0.039587867	-0.0361928	0.038231317	0.076125085	0.0095587345	0.049583554	0.020581376	0.06714411	-0.052035347
-0.043788556	-0.0830244	0.073851526	0.059687804	0.08926247	0.019916363	0.059246603	0.01298241	-0.05686364
-0.087149225	-0.0825402	0.05668597	0.060073797	0.061871096	0.040016226	0.046501134	0.033375446	-0.004085067
-0.015501862	0.019350521	0.09422052	0.026023524	0.013393609	0.043395203	0.10056568	0.0034824195	-0.0330914
-0.039434474	-0.0014539026	0.06976025	0.06323713	0.0826819	0.012001783	0.020815093	0.015409464	-0.08711862
-0.0073892055	-0.010497499	0.028499926	0.046081137	0.028130447	0.020879297	0.056576803	0.044315428	-0.032774348
-0.062673524	-0.048013374	0.035021126	0.09071199	0.006378567	0.015312423	0.075887054	0.08413424	-0.010281465
-0.11171614	-0.05451974	0.013091873	0.016261576	0.038123824	0.053230293	0.038038135	0.032000627	-0.061420392
-0.027439494	-0.028616624	0.08156131	0.017606234	0.047635112	0.06734094	0.039009858	0.030972792	-0.032882743
-0.06664623	-0.06692198	-0.0009875721	0.077152416	0.009493235	0.017044416	0.032878224	0.05382773	0.005861082
-0.040469185	-0.031368744	0.034729227	0.04279851	0.06097634	0.07535686	0.06531539	0.021631112	-0.035266876
-0.087068394	-0.08809537	0.05320075	0.040722754	0.049996685	0.063875906	0.07508123	0.07738887	-0.08733157
-0.03344979	-0.08076887	0.07381338	0.021818934	0.06485304	0.054552782	0.09613868	0.05445672	-0.010393951
-0.043636	-0.07993578	0.0428394	0.08702659	0.04079433	-0.005330984	0.036790725	0.08655111	-0.053991396
-0.03158344	-0.09347978	0.042158827	0.05860097	0.025020653	0.062145542	0.03152113	0.06185795	-0.03448052
-0.03797068	-0.0015913575	0.007556678	0.05655814	0.034778394	0.06762823	0.0391412	0.07249594	0.015771909
-0.01128682	-0.03144015	0.053089317	0.07175658	0.09855111	0.017112821	0.0063277413	0.019455435	-0.094718896
0.023010733	-0.028602298	0.034289002	0.056694858	0.022686502	0.067382015	0.04464534	0.043196056	-0.017008696
-0.08286251	-0.022782195	0.0056873583	0.063305385	0.07728959	0.038448997	0.069791265	0.059654668	-0.060044784
-0.012022102	-0.058082033	0.043491803	0.049607135	-0.010208841	0.06240927	-0.00915106	0.05228172	-0.06254469
0.009790621	-0.06612336	0.04582426	0.044341255	0.08090593	0.04209702	0.029812982	0.08730112	-0.0034573344
-0.052893076	-0.049536817	0.041100014	0.081732	0.08037204	0.015860204	0.07156941	0.05210869	-0.015997585
-0.020096783	-0.028227564	0.024212845	0.068241194	0.06771468	0.08053988	0.10496787	0.10389747	-0.09242696
0.004583671	-0.019250121	0.03743502	-0.001762592	0.043548584	0.06416975	0.07283555	0.031206625	-0.08986767
-0.037044402	-0.057123367	0.010563664	0.04274662	0.040154148	0.06570153	0.040730774	0.04667934	-0.015625792
-0.078145556	-0.05107208	-0.007559345	0.020768741	0.04459584	0.015622755	0.08257482	0.071622565	-0.07145051
-0.027810302	-0.010590959	-0.008766653	0.019625051	0.050682407	0.0437294	0.053478256	0.06724102	-0.053946257
-0.081270084	-0.042006105	0.051817853	0.0394223	0.009549534	0.018674698	0.029285014	0.07641922	-0.086631745
-0.08501639	-0.07688123	0.022057733	0.017909892	0.04232348	0.08967502	0.052725956	0.036751237	-0.03447634
-0.062050276	-0.049121283	-0.0033069863	0.03787816	-0.01231045	0.061762966	0.07970579	0.08159493	-0.06729989
-0.02023008	-0.04590183	0.024264563	0.08389041	0.10824313	0.021294942	0.027191134	0.010419632	-0.063315384
-0.062044863	-0.05441476	0.058373973	0.010538728	0.04127837	0.075523436	0.07031708	0.052269246	-0.0007604054
-0.034030654	-0.065555185	0.020235315	0.046169586	0.045716196	0.0595801	0.07476357	0.041764576	-0.08611009
-0.07553208	-0.060809396	0.08229248	0.075735286	0.0031084598	0.050984412	0.049918864	0.06386504	-0.029139105
-0.037074722	-0.020497777	0.034799125	0.08314333	-0.00016373085	0.022400707	0.0982734	0.007689113	-0.04424828
-0.07707255	-0.0154834185	0.036944166	0.050642766	0.020737046	0.038854185	0.058456253	0.06538301	-0.031876415
-0.07497221	-0.097392835	0.0059203827	0.07658789	0.03194995	0.071319796	0.06034097	0.04321826	-0.003473926
-0.050775003	-0.01815329	0.099537015	0.043478828	0.044209614	0.104550935	0.08570961	0.03330701	-0.02954935
-0.08275972	-0.049302433	0.0684687	0.034477286	0.041500073	0.028667215	0.07941781	0.045634426	-0.034030985
-0.018314406	-0.046990354	0.0015042544	0.029647846	0.076888755	0.011106608	0.04083329	0.009253517	-0.05319896
-0.05697859	-0.03649536	0.084192	0.09463394	0.055602834	0.055913787	0.05876064	0.017510382	-0.029560402
-0.050456118	-0.057371125	0.051277645	0.010101943	0.024337603	0.04710997	0.050153475	0.025417168	-0.0040299064
-0.08680106	-0.0963121	0.03324511	0.10653257	0.073680066	0.054469712	0.019581912	0.05699837	-0.057955313
-0.026738232	-0.04168558	0.058402237	0.09572571	0.019011931	-0.00353794	0.015656486	0.026877018	-0.01818314
-0.042001385	-0.055961143	0.04089415	0.028374134	0.07964196	0.07242608	0.0065488	0.02890029	-0.07253287
-0.029217301	-0.073561005	0.0052311574	0.038331203	0.043365106	0.03242079	-0.0025456678	0.01693135	-0.06641073
-0.0033701234	0.01982463	0.03118107	0.05948869	0.048679873	0.068338536	0.052861325	0.053830482	-0.06843194
-0.06820625	-0.072173014	0.048586942	0.052419968	0.06810126	0.03657149	0.07960427	0.020291341	-0.09669498
-0.018734194	-0.03612112	0.06421392	-0.002394022	0.064864874	0.06223822	0.016390601	0.07326075	-0.045661904
-0.064482175	-0.02259761	0.03035823	0.018260732	0.06431121	0.070505925	0.09883589	0.03156083	-0.09862513
-0.07207077	-0.06524337	0.110150956	0.071201116	0.0818736	0.040781647	0.073320284	0.11066346	-0.025479302
-0.037019104	0.0014807074	0.05035462	0.046989635	0.020213446	0.05416251	0.068449795	-0.0010589171	-0.002877344
-0.030610802	-0.04152388	0.015147206	0.048316304	0.037141528	0.041167736	0.040414337	0.060052287	-0.094393365
-0.072855234	-0.084948435	0.05377857	0.09466292	0.08781266	0.08236923	0.06487776	0.029224494	-0.022955025
-0.029662546	0.026147733	0.06063476	0.060834836	0.0056967014	0.041113272	0.05826741	0.050446272	-0.031321425
-0.082692645	-0.06792522	0.048688587	0.04815924	0.0873666	0.029317332	0.09500999	0.057759862	-0.05854522
-0.063404284	-5.930267e-05	0.001625507	0.08654946	0.021499217	-0.0034391053	0.016466487	0.061764713	-0.019331895
0.0018456674	-0.03348337	0.056466788	0.053040452	0.023043182	0.046321467	0.06322714	0.016458962	-0.038237866
-0.035674445	-0.07110928	0.084171295	0.0033414355	0.025760476	0.08503613	0.09582656	0.06769791	-0.012898459
-0.03481384	-0.014453331	-0.012253281	0.03770632	0.073980615	0.018977135	0.02289195	0.02424359	-0.07681129
-0.083903104	-0.0828854	0.028073948	0.054768015	0.050496418	0.018645136	0.06936053	0.043441206	-0.0415709
-0.06568746	-0.038787022	0.06012421	0.011628278	-0.008104211	0.022199726	0.048938405	0.030066947	-0.08421846
-0.022562781	-0.05225189	-0.017081061	-0.012896749	0.049226258	0.024197713	0.0059155948	0.078177184	-0.039641585
-0.018475672	-0.0072356695	0.07405219	0.0146711925	0.01582184	0.07815286	0.05354112	0.047260642	-0.0867854
-0.06630103	-0.09222947	0.05464257	0.07817752	0.014862009	0.049807478	0.04393993	0.01746873	-0.015516952
-0.060081117	-0.0019121661	0.054860126	-0.0004910793	0.06990578	0.019540692	0.035878457	0.0445321	-0.04144425
-0.04111675	-0.008894219	0.00866334	0.029707124	0.081934035	0.058080293	0.05090925	0.029698487	-0.04339716
-0.07184883	-0.095602356	0.11593208	0.038829524	0.017291145	0.07064223	0.03115575	0.0314021	-0.08900604
-0.012586392	-0.055015728	0.0073113563	0.08265549	0.008443122	-0.0008384331	0.057000946	0.028296959	-0.034426108
-0.049602967	-0.029440023	0.056677952	0.101512365	0.080933616	0.12812807	0.10007248	0.05484747	-0.11089534
-0.08616096	-0.080026485	-0.005566645	0.015559038	-0.0026771098	0.0324254	0.008057824	0.048034325	-0.05636119
-0.015627947	-0.01754582	0.05783958	0.032909755	0.02882053	0.033911567	0.026950048	0.008483898	-0.07303903
-0.07066533	-0.035482056	0.026467001	0.074967	0.015525075	0.09067242	0.009570926	0.026996471	-0.035302836
-0.041855644	0.0027739836	0.071266904	0.07124013	-0.016203852	0.06464782	0.041833088	-0.00177949	-0.008136297
-0.077677146	-0.07289551	0.077249624	0.0234665	0.06587122	0.08599145	0.056659207	0.070259236	-0.069332376
-0.07086096	-0.038900807	0.064290866	0.014186788	0.06487452	-0.0118570095	0.01881053	0.07915709	-0.065529115
-0.10312612	-0.07988811	0.056306276	0.06686678	0.019732008	0.03305803	0.019319471	0.041970592	-0.05760391
-0.016841883	-0.031241296	0.07477738	0.0089918235	0.049486525	0.045034483	0.0859033	0.038905013	-0.038503062
-0.05681844	-0.03944317	0.026876792	0.03390631	0.03382666	0.011661203	0.031043112	0.06628144	-0.0780253
-0.031000447	-0.103155255	0.11618197	0.04251164	0.09046535	0.116577856	0.08774177	0.059414834	-0.04626371
0.0041243583	-0.0438078	0.0725764	0.06394569	0.07406911	0.007121659	0.072254404	-0.005225699	-0.07044257
-0.022371534	-0.0023738411	0.10017308	0.021498041	0.019104624	0.008056177	0.059526965	0.014821698	-0.0950031
-0.05843348	-0.05107179	0.003694443	0.012388254	0.083506554	0.09972595	0.10069985	0.016001541	-0.07014479
-0.06088044	-0.0010689744	0.0872902	0.0087600835	0.02106879	0.057616856	0.016102064	0.05059283	-0.0479784
-0.03656741	-0.040935285	0.033087526	0.0041216444	-0.0012383184	0.055522677	0.058139216	0.0650041	-0.01761541
-0.015425891	-0.08297695	0.04229297	0.06719573	0.04174239	0.0659752	-0.013037927	0.044974077	0.013966947
-0.048484206	-0.06384395	0.03126512	-0.0118992645	0.07780873	0.056630436	0.030631762	0.024023933	-0.034278136
-0.0040728403	-0.036408555	0.01662722	0.03459456	0.09011979	0.08567178	0.010258792	0.09137749	-0.06338541
-0.0071964776	-0.08169547	0.029890638	0.009814608	0.07340092	0.0995071	0.045010444	0.02282456	-0.06323522
-0.05299663	-0.05408408	0.017355299	0.039192382	0.039551627	0.027733905	0.027105896	0.053037994	-0.02785767
-0.06818443	-0.062415384	0.020566791	0.058806073	0.059529033	0.027159981	-0.014912526	0.010379848	-0.05655196
-0.017623065	-0.075162604	0.009575794	0.04330292	0.04437181	0.04149894	0.01830911	0.009099125	-0.06455166
-0.06630478	-0.06604342	0.07565023	0.01658492	0.056029122	0.042890243	0.010380615	0.08411276	-0.09224382
-0.07820503	-0.03657225	0.030246109	0.090105854	0.08729612	0.050186016	0.03870648	0.020084387	-0.047939174
0.011889589	-0.050032005	0.09264989	0.09779202	-0.0027921281	-0.004225515	0.0594674	0.04507238	-0.05145144
-0.05556841	-0.033909366	0.015411834	0.037380137	0.02724187	0.054283313	0.041268524	0.036424436	-0.07523176
-0.06489808	-0.068316504	0.004733023	0.0451621	0.07198891	0.046870474	0.022255428	0.09771347	-0.08936732
-0.053010833	-0.043193717	0.00077982	0.0565006	0.063937694	0.076472364	0.019045671	0.06739613	-0.042531185
-0.028788269	-0.11121093	0.11359778	0.082450666	0.06655795	0.11255318	0.11069876	0.039014053	-0.07891865
-0.03470166	-0.08302652	0.08468897	-0.0068055056	0.073044136	-0.004793556	0.016843988	0.0019649977	-0.04451534
-0.09116619	-0.060643222	0.06620708	0.0072224652	0.08558332	0.048559632	0.040229574	0.045733377	-0.032313704
0.0020743855	-0.030514695	0.02211072	0.041207775	0.0687921	0.016936408	0.05185323	0.07999688	-0.006425645
-0.06362074	-0.09856512	0.07179758	-0.009762663	0.056230664	0.006147165	0.016343132	0.09359334	-0.0070639416
-0.084780864	-0.12810831	0.04808049	0.055936575	0.042151056	0.07146655	0.08353891	0.1275084	-0.061976183
-0.058912378	0.011054636	0.08924502	0.000105007224	0.01122746	0.0677931	0.07696068	0.056435026	-0.037118997
-0.010021426	-0.07477796	0.077787	0.028454786	0.0123242885	0.08717634	0.016702617	0.039248057	-0.07360142
-0.044385906	-0.031863064	0.040542845	0.07396812	0.09137198	0.09486485	0.01786528	0.08450109	-0.09015894
-0.03220492	-0.041216485	0.041287374	0.03792729	0.017520506	0.009939541	0.08835643	0.010524148	-0.04178421
-0.052365556	-0.08084038	0.0140872495	0.04507675	0.0913975	0.016930012	0.092828706	0.054916658	-0.07101244
-0.03791986	-0.04825164	0.040830057	0.060922228	0.032076385	0.016333785	0.06719277	0.059290376	-0.07421096
-0.06860063	-0.018063277	0.05866602	0.033992045	0.020341067	-0.010967112	0.067972355	0.06352475	-0.011522189
-0.05496255	-0.097230576	0.036664564	0.02747103	0.07863231	0.03672116	0.06645731	0.085295804	-0.018771587
-0.052307	-0.07245137	0.067095846	0.03197121	0.023634104	0.02523004	0.04205855	0.0731115	0.009026999
-0.056684744	-3.9974777e-05	0.08671307	0.03348678	0.027111059	0.07914197	0.08071844	0.08947549	-0.03902695
-0.09482771	-0.03363892	0.11430018	0.10146552	0.0548656	0.028016262	0.06596739	0.09035745	-0.061809774
-0.053571835	-0.042592447	0.054923818	0.031136721	0.007108737	0.034836166	0.061573304	0.015411219	-0.012102465
-0.025275342	-0.059753582	0.060446195	0.048582524	0.09346892	0.06498734	0.063635126	0.069729306	-0.120992005
-0.070536725	-0.03982036	0.0761019	0.055819754	0.07481115	0.044734538	0.03133359	0.022277491	-0.029800877
-0.011280641	-0.105495274	0.10128194	0.0626927	0.014693914	0.08364983	0.077555716	0.082082294	-0.104786985
-0.05736874	-0.064182006	0.07244592	0.08775583	0.040756375	0.031953517	-0.004883914	0.06151577	-0.07289829
-0.016227119	-0.010879395	0.030656276	0.076983236	0.05739843	-0.0059095128	0.0037530682	0.08257713	-0.0651647
-0.076863915	-0.0131238	0.04353501	0.03514676	-0.00022537864	0.0055499077	0.06784368	0.021417364	-0.05413585
-0.025962025	-0.031703826	0.06058393	0.06307028	0.08777728	0.088603266	0.047175705	0.0059271934	-0.00993289
-0.021934193	-0.021042911	0.04407371	0.06897196	0.07016722	0.028829828	0.051793564	0.02131321	-0.025039684
-0.04208603	-0.05111933	0.06553479	0.051304635	0.074606486	0.044119872	0.098298125	0.040559206	-0.04195023
-0.011634099	-0.0811984	0.095002815	0.086440936	0.03374148	0.0474651	0.100777864	0.045285013	-0.049658034
-0.06442023	-0.028864698	0.020330342	0.026148612	0.04318129	0.090489164	0.09650724	0.112648845	-0.048734758
-0.05338008	-0.056645207	0.097498536	0.07184056	0.115815006	0.065517865	0.04856209	0.056953378	-0.057269413
-0.009812919	0.0058607827	1.0676326e-05	0.084347054	0.0110729365	0.05645545	0.049513638	0.08623967	-0.026701035
-0.096786305	-0.037094377	0.0015401534	0.03508418	0.016042694	0.014608139	0.052959315	0.03071323	-0.07307969
-0.061523173	-0.029746799	0.026474843	0.10277375	0.016559817	0.0039132503	0.064141706	0.031665877	-0.017879536
-0.006630156	-0.06812373	0.046486378	0.055501055	0.010750757	0.02909739	0.06501142	0.06606125	-0.030192737
-0.02311027	-0.031376522	0.027923306	0.09783432	0.013293938	0.06709697	0.06347049	0.10168	-0.08622293
-0.07961311	-0.0151876025	0.06897061	0.0338932	0.010573498	0.0939834	0.011288931	0.104445234	-0.049631868
-0.049437925	-0.056345046	0.08793086	0.022591542	-0.0035831763	-0.004521134	0.06125793	0.009081118	-0.03928142
-0.07759871	-0.077801906	0.051159974	0.011973559	0.0705827	0.037116613	-0.012414638	-0.0048168427	-0.03652943
-0.063782334	-0.06635244	0.0055873008	0.079472326	0.04687049	0.014586068	0.0027855877	0.09537531	-0.042173564
0.0057759876	-0.03613147	0.019793946	0.054945543	0.07642206	0.08052422	0.06910474	0.038385816	-0.007145539
-0.062757194	-0.037350148	0.034533992	0.03925018	0.095709816	0.053060513	0.061359253	0.099003755	-0.019448671
-0.078139775	-0.08011489	0.034301568	0.018688163	0.0058690608	0.018193565	0.04515178	0.015849415	-0.024492657
-0.028060595	-0.051132597	0.072346434	0.020253522	0.024131306	0.048493177	0.038209867	0.07377631	-0.01929442
0.0003641895	-0.039542925	0.0041016703	0.023287492	0.030470649	0.080716014	-0.0060057836	0.09481534	-0.053100456
-0.012780444	-0.070673674	0.034796774	0.08703223	0.075129524	-0.002163714	0.07702427	0.03659736	-0.045952067
-0.110549815	-0.07901564	0.03121006	0.072134145	0.058321863	0.034994226	0.046787407	0.063841626	-0.06458763
-0.044343196	-0.04747185	0.05183933	0.072520226	0.024849132	0.013852571	0.03084041	0.047744874	0.014845552
-0.082237184	-0.07703176	0.08980388	-0.00018361757	0.09417805	0.0042360346	0.042339027	0.0063146027	-0.018237589
0.011042217	-0.03722724	0.0746466	0.07516407	0.0038970523	-0.011233128	0.05538506	0.03955469	-0.067529954
-0.06773059	-0.038973097	0.035610378	0.030739473	-0.002251152	0.07231632	0.038780827	0.06803921	-0.090426035
-0.011643988	-0.045765765	0.056102782	0.06237267	0.059228286	0.035122067	0.031050988	0.046531785	-0.09951526
-0.012211687	-0.028038211	0.10033339	0.014973643	0.04517241	0.03005643	0.043224335	0.039810654	0.000702428
-0.021571305	-0.05440714	0.07409197	0.013743464	0.088772245	0.027848452	0.039716814	0.014009351	-0.033488695
-0.0013909029	-0.01529185	0.07989789	0.029151684	0.035538454	0.053348683	0.0699007	0.07266883	-0.08460584
-0.028212287	-0.028670823	0.04164039	0.11162975	0.08592954	0.018218394	0.031082327	0.021083985	-0.030528108
-0.075728856	-0.07759725	-0.0030518412	0.028603138	0.029238492	0.08852824	-0.008025646	0.0027428258	-0.07298996
-0.11490455	-0.05769114	0.056706656	0.10173788	0.08328693	0.108311236	0.075217664	0.05590841	-0.096727185
-0.029070966	0.008334205	0.026979486	0.06617106	0.038406692	0.044769168	0.014122466	0.02789975	-0.0659786
-0.13261236	-0.057757895	0.05378402	0.10640098	0.0797723	0.043615013	0.06232687	0.13033558	-0.10567877
-0.095554985	-0.02043752	0.022988059	0.011584943	0.06937893	0.022912472	0.060968496	0.03377617	-0.06630651
-0.045678787	-0.04626717	0.003418415	0.07084879	0.06967325	-0.022378387	0.01974738	0.021449858	-0.04377588
-0.09081637	-0.070377484	0.07464137	0.07599364	0.06641636	0.07059489	0.08211409	0.0063892337	-0.049731623
-0.07412407	-0.023502741	0.04349076	0.061999362	0.018585267	-0.003044256	0.042595487	0.019410098	-0.0020680742
-0.05306442	-0.047557723	0.06584143	0.10953552	0.042213272	0.03471716	0.09769654	0.030097505	-0.064141154
-0.080401905	-0.022720268	0.07082963	0.02829519	0.041536823	0.06627753	0.046892807	0.013083754	-0.038348343
-0.022429451	-0.019592186	0.055201262	0.021090498	0.10749249	0.028093424	0.10349092	0.029973269	-0.045085732
-0.08710982	-0.051421124	0.025475502	0.07443937	0.033876464	0.07506918	0.05964639	0.048066296	-0.018467985
-0.12061215	-0.035521895	0.12029453	0.096165806	0.020066146	0.02896268	0.016005406	0.069089375	-0.061364137
-0.032631014	-0.024102425	0.088156976	0.10097897	0.039577544	0.024013087	0.029924378	0.039346114	-0.05722617
-0.05102139	-0.052689567	0.0304204	0.022591207	0.011470557	0.10749738	0.06581554	0.027030371	-0.09363138
-0.011038072	-0.09219557	0.02094767	0.09240531	0.021827154	0.04774347	0.10747057	0.05928411	-0.032600384
-0.03988797	-0.018368304	0.009734454	0.01767939	0.06587172	0.08949044	0.04223251	0.025023388	-0.039421868
-0.053065483	-0.08749019	0.012475963	0.043899715	0.046162702	0.051708344	0.032822713	0.08624623	-0.004420605
-0.05408737	-0.07484068	0.018812649	0.01227471	0.07657602	0.0002468736	0.09336732	0.05821792	-0.00764772
-0.040438436	-0.025875824	0.03053021	0.09194475	0.06642248	0.103282735	0.016575813	0.075029105	-0.025628688
-0.03755716	-0.013508615	0.074135505	0.06521105	0.104052186	0.03403947	0.06727031	0.06568746	-0.034430902
-0.022528654	-0.031842925	0.07604057	0.08438289	0.07630393	0.0068983827	-0.005131568	0.06924246	-0.08698968
-0.054367263	-0.06938831	0.05606266	0.0043183933	0.026235398	-0.0025513368	0.044395965	0.016762083	-0.05264603
-0.05460573	-0.03810029	0.028969988	0.076261036	0.008523344	0.020405117	0.077802576	0.079477854	0.01485345
-0.06595715	-0.06799992	0.05351093	0.086991206	0.0498356	0.0056074914	0.09290381	0.06664479	-0.034460478
-0.029272208	-0.024443494	0.059459455	0.040096015	0.04463024	0.09611558	0.09003386	0.07587582	-0.012325762
-0.056562986	-0.050413843	0.01212868	0.09582092	0.0112765655	0.092981465	0.0747074	0.011610644	-0.02864865
-0.05780313	-0.0783652	0.04076701	0.045919735	0.119227685	0.09973138	0.06557688	0.07844176	-0.043187436
-0.045688946	-0.039887078	0.025853619	0.07744739	-0.009005197	-0.015895737	0.038465273	0.028760754	-0.06344635
-0.06582759	-0.076665305	0.06682312	0.039524555	0.007961463	-0.0015357685	0.09875013	0.060414776	-0.08025994
-0.0072287833	-0.063564904	0.1144197	0.06529091	0.022432301	0.10264682	0.05609103	0.051362634	-0.08876911
0.00069419574	-0.090162754	0.023007562	0.067461066	0.071836725	0.0774135	0.057570934	0.06604594	-0.048430074
-0.067393474	-0.07575827	0.096242234	0.065400496	0.02326616	0.08830045	0.04823692	0.017691648	-0.02305515
-0.015172875	-0.030109143	0.049079366	0.06786257	0.099795446	0.11300061	0.01600072	0.02064504	-0.08332205
-0.065620266	0.010630957	0.079899624	0.034065716	0.03766625	0.08037611	0.06607679	0.08138915	-0.0657134
-0.042370867	-0.039318305	0.069859974	0.008113833	0.03909298	0.09434285	0.004094235	0.07283305	-0.009288458
-0.029416995	-0.01398241	0.034943342	0.09865573	0.04052697	0.045944072	0.060571134	0.026867894	-0.019279158
-0.019060224	-0.013366046	0.02910154	0.068912044	0.0380609	0.06010408	0.030778259	0.08535082	0.010574265
-0.02445378	-0.056396984	-0.00346346	0.009864499	0.012719718	0.01564704	0.06337271	0.080072105	-0.019651448
-0.013756116	-0.033801835	0.039046247	0.053832997	0.0024863945	0.02938841	0.019618634	0.06935321	-0.009827949
-0.0054000807	-0.041848402	0.06627764	0.09112775	-0.0040383493	0.061218	0.0552622	0.02521852	0.007124961
-0.025597973	0.028355842	0.0279873	0.07208942	0.07619535	0.010132274	0.020078588	0.08400735	-0.06474227
-0.046991773	-0.079681665	0.023260966	0.07833627	0.05611384	0.043907367	0.0787732	0.0072805006	-0.071597025
-0.070730984	-0.047338102	0.08062527	0.054556847	0.02976982	0.07613183	0.0062623364	0.006839412	-0.025818259
0.0053404705	-0.092231706	0.054742288	0.05433713	0.05847988	0.08340362	0.0152406525	0.03718253	-0.061971985
-0.0009080637	-0.06903506	0.060803477	-0.0034711582	0.061352715	-0.009025483	0.06856694	-0.012126027	-0.03982225
-0.061415713	-0.065232396	0.021894045	0.07921001	0.04397307	0.04675089	0.09904585	0.10029843	-0.025062498
-0.07465582	-0.05563038	0.063752264	0.087398954	0.0029419702	0.00090633956	0.07631083	0.033023853	-0.03730164
-0.07345779	-0.01944544	0.040610407	0.04453509	0.07636835	0.07573208	0.0116808675	0.047483664	0.007277395
-0.04236835	-0.01878688	0.023048664	0.052763026	0.06788923	0.043862298	0.09096922	0.031683918	-0.09188304
-0.06268738	-0.07067968	0.042154003	0.026795533	0.07708987	0.009455182	0.04231967	0.06588083	-0.023761671
-0.039767943	-0.045790497	0.08812932	0.060381345	0.11175363	0.08747459	0.064912826	0.07886022	-0.011341916
-0.019830551	-0.04951268	0.03858412	0.05940703	0.06433363	0.019557087	0.05175833	0.029222244	-0.07949592
-0.03865385	-0.066377014	0.07393211	0.0547691	0.0023419624	-0.005405936	0.0025050577	0.0692942	0.016021794
-0.079108894	-0.03701945	0.060150504	0.05948085	0.005455689	0.031287033	0.00044393665	0.05778848	-0.01215881
-0.039730947	-0.05660431	0.06303539	0.08182496	0.05097047	0.0021909378	0.02638291	0.0017308763	-0.029033141
0.00037110187	-0.07539986	0.05949857	0.016402492	0.06782456	0.06543611	0.051857434	-0.005349057	-0.033842783
-0.052329905	-0.085786015	0.089235656	0.0328767	0.09069185	0.037020054	0.045916077	0.036098603	-0.028243013
-0.029300604	-0.06367144	-0.017105052	0.011882306	0.041178036	0.021759955	0.061246395	0.052357983	-0.04200036
-0.028518312	-0.057746254	0.0908521	0.10941031	0.065274194	0.04595884	0.12029597	0.037328135	-0.07094815
-0.030446269	-0.022373686	0.012699743	0.030762492	0.066561505	0.03577883	0.05310208	0.0372692	-0.09259315
-0.07054066	-0.07903787	0.007766091	0.01572	-0.0043214406	0.055538	0.03359731	0.064690575	-0.07609378
-0.05697737	-0.027879614	0.04159833	0.021520104	0.078299664	0.04633441	0.026339456	0.0728676	-0.03479011
-0.032325115	-0.055614058	0.002313575	0.039240677	0.07634454	0.07483217	0.005593474	0.08381249	-0.045837726
0.008686731	-0.021376528	0.07221353	0.08452099	0.041120928	0.04881975	0.023823543	0.025047835	-0.053029995
-0.021102633	-0.028759457	0.07906293	0.067600645	0.024059549	0.06723759	0.056915645	0.018452022	-0.013510261
-0.05600165	-0.051664513	-0.013283023	0.03271939	0.03316882	0.07236135	0.06370672	0.04287018	-0.031648744
-0.02857819	-0.073377684	0.015048628	0.055696394	0.05525643	0.01756337	0.009973364	0.041633725	-0.05632011
-0.031856872	-0.05401109	0.013811767	0.07538529	0.02150321	0.032324877	0.0082819285	0.08419523	0.0017325201
-0.0708952	-0.09725625	0.021297134	0.041432124	0.0044020987	0.05109061	0.07681799	0.08943065	-0.030078769
-0.06626105	-0.06682767	0.059560247	0.053855512	0.05051624	-0.00016065352	-0.010443049	0.011387362	-0.022595061
-0.08813419	-0.031048259	0.03461602	0.041391492	0.07200509	0.036670886	0.107227504	0.020245807	-0.08406427
0.0035960039	-0.051591814	0.065378495	0.042160388	0.069995284	0.012872721	0.042039905	0.04984207	0.012631992
-0.038206868	-0.070042774	0.02798999	0.0044617993	0.02679154	0.08804387	0.03308156	0.069713145	-0.08247783
-0.026357457	-0.02397133	0.049610924	0.012616188	0.0048137857	0.057157747	0.0019041811	0.046912577	-0.062056217
-0.035669923	-0.056144208	0.04472444	0.010104004	0.08295763	-0.010488104	0.006988288	0.02364838	0.012691497
-0.077919506	0.0015006994	0.061409645	0.052535865	-0.005364351	0.05477497	0.059071038	0.023596926	-0.047966
-0.05015565	-0.028386705	0.064322606	0.073020846	0.049749415	0.036956977	-0.0027770563	0.034118667	-0.0035546515
-0.058292642	-0.010427251	0.034343228	0.018891368	0.06727052	-0.008934965	0.02803053	0.022102678	-0.029034883
-0.009343603	-0.042101715	0.06036752	0.07258115	0.04880679	0.031528365	0.10266021	0.03892969	-0.100407936
-0.0062766797	-0.056508135	0.021771511	0.01127166	0.06771632	-0.009648809	0.013333115	0.07245641	-0.08997803
-0.05086209	-0.033767004	0.098547906	0.075171754	0.033686105	0.039071713	0.03960638	0.0175388	-0.056681678
-0.015373921	-0.05912109	0.011978622	0.05434849	0.04869596	0.0009976493	0.066611014	0.039285164	-0.049524713
-0.06031176	-0.090782136	0.056459837	0.048348583	0.03453793	0.090813	0.09037884	0.040223192	-0.07481737
-0.064932026	-0.015260448	0.046866972	0.037795056	0.04359854	0.06799776	0.018989382	0.037973136	-0.0059794667
-0.07696495	-0.04782809	0.09047833	0.098818995	0.0154478345	0.02421219	0.016925193	0.033337705	-0.030172475
-0.026199741	-0.033789773	0.07559705	0.088753775	0.0076184836	0.017930957	0.019392211	0.04623184	-0.045986857
-0.05898631	-0.079188965	0.08549549	0.05377522	0.058642168	0.077565484	0.059685916	0.09465368	-0.080587596
-0.0053669843	-0.036207106	0.0791397	0.06195551	0.016267536	0.029595738	0.019078514	0.05059456	-0.08068566
-0.052582026	-0.04475584	0.057877887	-0.0042651384	0.049088728	0.03989083	0.027855014	0.048893016	-0.08376164
-0.0737756	-0.06650434	0.07196859	0.05915916	0.03159407	0.0054093427	0.021267146	0.05415646	-0.05295031
-0.0054779206	-0.015012599	0.050276265	0.108114734	0.057638578	0.06776195	0.04913083	0.10401831	-0.047024626
0.00017233257	-0.047002483	0.059909817	0.083828695	0.03778878	-0.033017635	0.06367214	0.0271941	-0.017275093
-0.05789558	-0.07365846	0.0077093206	0.051694304	0.054246604	0.07383479	0.09551789	0.057456255	-0.05542805
-0.041287422	0.014036608	0.037343312	0.0029102932	0.03777986	0.015229456	0.06332263	0.071916625	-0.030922115
-0.03813812	-0.064626	0.015897477	0.07441927	0.025601802	0.0651489	0.00744352	0.07643011	-0.075467415
-0.0021078312	-0.017209174	0.0725274	0.04135628	0.05743465	0.06372669	0.020106064	0.05222028	-0.0015811302
-0.04811139	-0.0077301753	0.04244552	0.046619613	0.03505169	0.021976907	0.054509744	0.020959502	0.011782821
-0.024405295	-0.0497413	0.016138991	0.038868316	0.07046983	0.07689475	0.02595557	0.018713064	-0.11078588
-0.036232363	-0.010515139	0.08874578	0.055042867	0.031148873	0.036569286	0.08661692	0.017751541	-0.102048054
-0.035301253	-0.03809072	0.015991777	0.045416053	0.007059957	0.080977045	0.041666616	0.08987499	-0.051478498
-0.02451357	-0.021292081	0.008253764	0.037930798	0.025199635	0.03556892	0.026228331	0.07798404	-0.091516785
-0.029633844	-0.075616136	0.028691402	0.017428365	0.08717831	0.04604353	0.025103565	0.024225185	-0.06533264
-0.077856936	-0.03840911	0.054283053	0.062370736	0.07848228	0.044892546	0.019075379	0.061989915	-0.030535389
-0.058154006	-0.029771684	0.03622917	0.121737875	0.026921127	0.041674856	0.027575608	0.06573075	-0.06699787
-0.0019730025	0.0019307224	0.02423243	0.033481162	0.06038335	0.059341818	0.054021753	0.02264521	-0.034720045
-0.04179507	-0.08240437	0.088487536	0.06419552	0.063670844	0.044363197	0.09035788	0.1218025	-0.10750559
-0.057802115	-0.0729112	0.06280058	0.031116264	0.05273506	0.093678705	0.07326356	0.08213978	-0.07569416
-0.035836775	-0.06635212	0.034186274	0.0114767095	0.10012213	0.025913479	0.050340123	0.074654266	-0.09358825
-0.04290434	-0.032063536	0.047509395	0.048766993	0.11481174	0.102196574	0.066075616	0.053662624	-0.068307966
-0.06318525	-0.053049825	0.11700754	0.10689367	0.02996444	0.10583216	0.086235695	0.061607517	-0.07142169
-0.014634058	-0.07337018	0.06743181	0.03435385	0.0027816414	0.07726655	0.059292767	0.033472057	-0.056892652
-0.07522165	-0.02382773	0.0087537	0.07066158	0.05685103	0.020602206	0.016012836	0.07842997	-0.06472758
-0.06592041	-0.067727216	0.08525657	0.03205513	0.04172364	0.045085486	0.059831776	0.061471764	-0.015172096
-0.019685667	-0.002292029	0.114075325	0.04383545	0.032474034	0.016237129	0.026937488	0.050127197	-0.039436746
-0.026492495	-0.0788163	0.041732136	0.059617803	0.0684306	0.045581397	0.034703393	0.006186524	-0.062073395
-0.0010963678	-0.05670019	-0.016599992	0.029797649	-0.012400905	0.08730353	0.034230743	0.066998295	-0.053575188
0.010611051	-0.046218507	0.031487748	0.03402235	0.017989058	0.066908635	0.049943943	0.07696204	-0.0636952
-0.057180475	0.003687651	0.0062030153	0.05298699	0.06695094	0.037569035	0.0721221	-0.00885276	0.014792171
-0.07388539	-0.041887127	-0.0007540549	0.0675581	0.015751818	0.07372303	0.020196933	0.028244546	-0.057744488
-0.07148715	-0.04130834	0.020697622	0.095173694	-0.0051920014	0.053417336	0.046380885	0.06559967	-0.06998393
-0.040453948	0.007923972	0.035897207	0.054484785	0.009056911	0.053837996	0.012071482	0.055103943	-0.03432655
-0.07867731	-0.018859511	0.044719577	0.059299223	0.051895708	0.053679965	0.07743423	0.07264415	-0.013910308
-0.021288207	-0.029304639	-0.0011556863	0.05624176	0.041650023	0.003561571	0.09174586	0.019616148	0.003637078
-0.063043304	-0.057726275	0.012248956	0.08199938	0.040828504	0.028376808	-0.0105521865	0.042932026	-0.04746099
-0.033517815	-0.07926348	0.046305712	0.052863594	0.012321884	-0.0052343006	0.0023108574	0.015009353	-0.028129704
-0.0844922	-0.05191427	0.021933367	0.01931881	0.04441364	0.06877341	0.032804027	0.09205866	-0.05498932
-0.023778263	-0.07818988	0.04732851	0.09750882	0.054177564	0.011471177	0.0159101	0.056624625	-0.077563144
-0.023399685	-0.077789195	0.038883656	0.09933867	0.049282767	0.052748986	0.072596624	0.07593663	-0.028207274
-0.0058336975	-0.08034289	0.012245292	-0.0061276355	0.05498987	0.07002775	0.021086147	0.0100386785	-0.04644341
-0.040361553	-0.009025253	0.064688645	0.051000737	0.038966183	0.015676832	0.050022453	0.06296024	-0.04497587
-0.012702447	-0.05048984	0.020561744	0.0358934	0.04637679	0.047805242	0.056017585	0.009642837	-0.043685276
-0.015984707	-0.04585391	0.06873667	0.057614315	0.011125792	0.013910935	0.07924267	0.018632315	-0.047295384
-0.028234918	-0.118581764	0.0055774134	0.06590953	0.025274722	0.084943645	0.031761337	0.065833084	0.007601498
-0.0608402	-0.060903113	0.02638258	0.025725804	0.09259423	0.03577497	0.0123609	0.013169623	-0.042781826
-0.08109012	-0.023893781	0.06396777	0.018475696	-0.0054466026	0.0010109523	0.034575596	0.083603896	-0.08051968
-0.07268631	-0.025031425	0.044038665	0.047833096	0.03205767	0.030277062	0.066143386	0.04941717	-0.108131
-0.031662975	-0.09268695	0.0010356337	0.033456657	0.025037836	0.069070466	0.014269098	0.01098018	-0.05807378
0.010220405	-0.020691277	0.029622907	0.053887904	0.03123405	0.0368501	0.03436692	0.049833503	-0.075862855
-0.057416394	-0.019956058	0.054269176	0.0073964857	0.055710528	0.046645656	0.06810521	0.022435196	-0.051740296
-0.030091569	-0.037677545	0.06842348	0.09593871	0.056945484	0.1030689	0.09788541	0.09094441	-0.0374048
-0.048614617	-0.026748782	0.06542149	0.08710321	0.036100138	0.04032384	0.08491781	0.042668503	-0.09778116
-0.031779837	0.010872833	0.074049845	0.05744155	0.0059016463	0.047588263	0.04519315	0.076534264	0.011385151
-0.09373882	-0.013365144	0.0008386327	0.030656671	0.071970746	0.08009601	0.053177614	0.060347218	-0.018429475
-0.029837549	0.009241358	-0.017117925	0.07334038	0.008646672	0.033975195	0.07626057	0.07158585	-0.026011553
-0.027162744	-0.06647699	0.06463151	0.009628639	0.06697472	0.025702586	0.040463295	0.0124560045	-0.048773713
-0.094654575	-0.043769643	0.09325871	0.06641965	0.103568524	0.106451504	0.099321686	0.10576503	-0.053701356
-0.018556885	-0.10253637	-0.00049759465	0.03882926	0.053161	0.09360559	0.07117925	0.008300993	-0.010861441
-0.10629786	-0.08434257	0.08272574	0.049788795	0.03744248	0.07927174	0.11995302	0.1294508	-0.086544834
-0.030155683	-0.058293927	0.022791853	0.037424378	0.012869627	0.09443716	0.05412912	0.059284598	-0.05137812
-9.5646916e-05	-0.0729269	0.041385587	0.043676693	0.06645025	0.050237004	0.059916392	0.073577315	-0.044060864
-0.08801976	-0.063382305	0.044957466	-0.009201183	0.06271324	0.015617941	0.079231165	0.0841665	0.009281484
-0.040362295	-0.039326888	0.075263366	0.021342982	0.08230847	0.060656015	0.009017615	0.08260452	-0.008608464
-0.019900562	-0.060411662	0.09669437	0.07367455	0.026059957	0.007849594	0.08287987	0.043440875	-0.04505446
-0.024217157	-0.024916604	0.016979331	-0.008248114	0.061530035	0.05538894	0.07051613	0.038270406	-0.07947438
-0.07485929	-0.004037999	0.038332168	0.081681214	0.10270703	0.027708212	0.05946254	0.051474866	-0.012444667
-0.0577724	-0.08919658	0.13004129	0.0629312	0.027925061	0.07461471	0.10599803	0.077259414	-0.06670245
-0.029347865	-0.074402556	0.059886694	0.04179959	0.030707035	0.011608907	0.0071635167	0.050028194	-0.059417203
-0.0135556	0.011541153	0.08904599	0.031973194	0.034331467	0.024373805	0.055988744	0.03307214	-0.056378886
-0.06417348	0.011082468	0.021169504	0.03306666	0.03244076	0.0042521274	0.044229813	0.017824521	-0.048871737
-0.04865053	-0.058911975	0.07359325	0.008589549	0.06337935	0.07228761	0.055136755	0.024896313	-0.084343985
0.004667957	0.00030124976	0.07450975	0.015996978	0.06860545	0.044476867	0.06397346	0.057314463	-0.052538943
0.0059363022	-0.048848208	0.04922559	0.03819718	0.010103698	-0.0153596215	-0.01378497	0.067094766	-0.05278086
-0.041488033	-0.09636601	0.057880644	0.046057746	0.033960655	0.0695401	0.056100335	0.016385872	-0.096646495
-0.02793008	-0.075181425	0.06469796	0.05547317	0.047145355	0.040163755	0.051286183	0.07684056	-0.04249036
-0.076268986	-0.031036183	0.10555702	0.03652312	0.086462304	0.01401088	0.053932134	0.10347327	-0.016632276
-0.06041789	-0.07412714	0.057124116	-0.005046374	0.06521334	0.061706893	0.00938871	0.04148238	-0.078338765
-0.033816926	-0.043809805	0.059925154	0.031000255	0.0040065674	0.026901409	0.014872591	0.049411677	-0.07059476
-0.05999026	-0.103149176	0.011395837	0.06899475	0.09828306	0.039622832	0.045157935	0.022931192	-0.0702967
-0.04832143	-0.036704104	0.03760189	0.09031289	0.0066346666	0.09943742	0.0033158425	0.0073180534	-0.035814412
-0.03717932	-0.10119598	0.047084372	0.033535745	0.072316915	0.018201513	0.037585054	0.121399075	-0.06741414
-0.058460657	-0.03997188	0.062628984	0.05440469	0.049163308	0.0044471156	0.033164147	0.025136612	-0.07058279
-0.07337932	-0.06897281	0.12620887	0.06241574	0.11177791	0.03267119	0.115301	0.115920775	-0.087273836
-0.017540758	-0.03179352	0.004320771	0.06692919	0.07894258	0.038970377	0.04931414	0.056320574	-0.0514149
-0.0867908	-0.02813911	0.04518457	0.10211993	0.030090248	0.051454693	0.051613	0.051176038	-0.0094420705
-0.081021965	-0.0599484	0.11154469	0.1121454	0.117294714	0.07832903	0.13032691	0.049059518	-0.062252697
-0.041810554	-0.026091715	0.088403314	0.026959665	0.022269273	0.028893003	0.03580493	0.007977623	-0.09923953
-0.0732084	-0.011650775	0.01848912	0.059049174	0.024163045	0.02841385	0.055089608	0.054966003	-0.04086688
-0.041087307	-0.03341837	0.016604738	0.05482807	0.010495706	0.06532861	0.0035080716	0.056512266	-0.04546602
-0.08359623	-0.043602698	0.015444505	0.05351947	0.021283986	0.020914892	0.014737471	0.06636099	-0.06552845
-0.074146405	0.0085568465	0.050744455	0.064561255	0.07025321	0.06963201	0.014548829	0.060640283	-0.067899264
-0.04490498	-0.08849652	0.045508027	0.12290695	0.08590945	0.08855158	0.071478136	0.08736458	-0.08118475
-0.05304458	-0.024939476	0.033952575	0.05225809	-0.0064885756	0.05954718	0.05041473	0.0568286	0.01922682
-0.047157288	-0.08004858	0.08245561	0.016589934	0.08114228	0.043313846	0.067071564	0.040367432	0.00046692885
-0.072982505	-0.07086716	0.021979315	0.030473907	0.015375081	0.07673446	0.09877354	0.057005987	-0.0017946684
-0.03320128	-0.066731595	0.029071512	0.08734398	0.03100038	0.0074343043	0.0120884115	0.086141594	-0.04704574
-0.074532405	-0.045500834	0.043520983	0.03625472	0.012449697	0.021453954	0.06988715	0.03583206	-0.064256765
-0.031851362	-0.06767589	-0.00811188	0.058208387	0.05018656	0.07053458	-0.0032347506	0.07214943	-0.026120597
-0.096645266	-0.09718293	0.08049533	0.03399939	0.006182159	0.017364962	0.07772276	0.0964199	-0.08871015
-0.07283115	-0.034565434	0.0458207	0.1318731	0.075022586	0.039616305	0.060768597	0.13482377	-0.11185044
-0.014449721	-0.06419984	0.07070739	0.0718263	-0.006178688	0.013656243	0.06597869	0.06955249	-0.020712119
-0.05588662	-0.08665263	0.07419083	0.010181225	-0.0033950591	0.011043983	0.08285553	0.08095214	-0.07945378
-0.043878425	-0.027965058	0.07143493	0.07833172	0.013181023	0.089975245	0.07660016	0.023186833	-0.035029955
-0.044992488	-0.070437066	0.09659894	0.05679091	0.019653788	0.09400078	0.022566251	0.08183093	-0.08169424
-0.04327504	0.009173668	0.038452283	0.040076304	0.03001275	0.047760356	0.055004973	0.023700831	-0.0031092078
-0.071463734	-0.032296017	0.07455031	0.018730754	0.009227388	0.02192341	0.086238325	0.021447465	-0.043997727
-0.060747	-0.069278635	0.05335495	0.016240282	0.06482687	0.051068023	-0.0008830358	0.041956507	-0.072279274
-0.08657627	-0.07444717	0.036397863	0.06836174	0.007172585	0.09679146	0.030446157	0.020180795	-0.039410997
-0.039391767	-0.07705479	0.04624395	0.053916402	0.053675815	-0.0070158844	0.026178572	0.060402993	-0.04276156
-0.10228792	-0.030518929	0.07273493	0.073541984	0.064358786	0.066673905	0.088064276	0.04858676	-0.028305275
-0.0639659	-0.01211611	0.01467386	0.08216735	0.016663238	0.028181808	0.06288149	0.1012288	-0.049416486
-0.038762335	-0.09209476	0.032892134	0.048414238	0.048354596	0.023167973	0.092178255	0.105882995	-0.029208796
-0.08375498	-0.014539607	0.046089426	0.07899954	0.033767346	0.064888686	0.01210225	0.013542746	-0.028250713
-0.06408159	-0.051683724	0.049554277	0.03532154	0.053074475	0.083588235	0.05978664	0.03060353	-0.08514819
-0.059489775	-0.044178795	-0.011491634	0.045591284	0.032748315	0.050388403	0.025385913	0.048245016	-0.069637276
-0.09505269	-0.014039055	0.050189625	0.07819213	0.052536193	0.0002107702	-0.0073951255	0.0008718394	-0.071365
-0.0611518	-0.043598812	0.050682828	-0.02328413	0.013775019	0.055891704	0.062283907	0.046338532	0.019222183
-0.03366328	-0.04867368	-0.0091974	0.029962597	0.052023206	0.06175328	0.051592186	0.06552156	-0.07445997
-0.04611281	0.018007565	0.043599136	0.041455217	0.07059183	-0.0019957672	0.029709913	0.04713001	-0.07879481
-0.046156045	-0.019708961	0.037056554	0.025494065	0.07737571	0.047179442	0.0832513	0.04567759	-0.036219224
-0.029885337	-0.0073235133	0.08884441	-0.0020614197	0.06648127	0.069121994	-0.007540827	0.037543897	-0.061801314
-0.005450264	-0.03218595	0.03542666	0.0593695	0.037041735	0.022025699	-0.008225186	0.07536188	-0.053997897
-0.016927576	-0.10809079	0.06186013	0.042780094	0.04956671	0.043666694	0.062144987	0.052831374	-0.07736814
-0.016519217	0.0019439918	0.095043175	0.04123851	0.0091386335	0.06466025	0.050722647	0.09282146	-0.011094441
-0.024639765	-0.09288314	0.048313037	0.03704615	0.08162542	0.02327385	0.036226775	0.065113366	-0.023144258
-0.06152598	-0.07897472	0.045752764	0.058746796	0.056168914	0.07403759	0.07497255	0.055734225	-0.10090587
-0.016406162	-0.04736724	0.053362273	0.070078656	0.08594144	0.09659154	0.07789414	0.07205636	-0.06739271
-0.008103867	-0.04393498	0.016442783	0.084244594	0.0800649	0.053334717	0.020030769	0.03721856	-0.059397895
-0.08908332	-0.008168043	0.042260163	0.03064041	0.043380566	0.083552465	0.059561472	0.020684497	-0.08115823
-0.00857359	-0.03883439	0.06856881	0.0709489	0.049636524	0.07958634	0.021607291	-0.0083309235	-0.028833536
-0.021824066	-0.05240988	0.044921223	0.017171878	0.09053305	0.08861972	0.0050478675	0.029290456	-0.040673334
-0.002491075	-0.015103637	-0.011595688	0.08017824	0.049650297	0.027036432	0.06857486	0.04880778	-0.0780842
-0.05692107	-0.088010095	0.05807192	0.029086508	0.049242187	0.07966817	0.09451431	0.077379145	-0.028084189
-0.0225743	-0.036851685	0.015422312	0.022816692	0.07680553	0.07717779	0.037187744	0.09290999	-0.076224744
-0.021909729	-0.076686196	0.07657399	0.087263696	0.0028188138	0.0010167523	0.07541418	0.04200748	-0.0042963037
-0.007817874	-0.008722896	0.10812621	0.036880262	0.08711444	0.088638596	0.016547311	0.0903624	-0.068138614
-0.056436766	-0.011230334	0.075942464	0.067464024	-0.0055929758	0.068006694	0.026467469	0.028692354	-0.012756086
-0.010955565	-0.02027486	0.054764397	0.018347014	0.020400204	0.04879555	0.08837479	0.02724446	-0.046694975
-0.057926886	-0.08658498	0.07572295	0.08795566	0.12367925	0.04532092	0.08406165	0.04486404	-0.046009723
-0.020158006	0.018168539	0.06560147	0.0682584	0.012730651	0.009482667	0.040263508	0.044177283	-0.039887875
-0.03602494	-0.04105016	0.03210543	0.06434528	0.05324975	0.06531302	0.09918421	0.1027464	-0.062116366
-0.039306723	-0.0932552	0.028469363	0.09112679	0.066990845	0.052560795	0.0015393288	0.012574342	-0.018064931
-0.048226986	-0.025347121	0.043207176	0.07998186	0.07709589	0.014308576	0.0019458231	0.070236035	-0.074984804
-0.04788644	-0.05506319	0.062571466	0.072377846	-0.017203849	0.009088647	0.04804848	0.048961956	-0.0656871
-0.041862674	-0.07382794	0.0013757936	0.03819138	0.037376583	0.009982547	0.05322661	0.034628727	-0.059687003
-0.07200526	-0.017227918	0.06737022	0.0009772687	0.017739156	0.043804184	0.061561916	0.07147579	-0.040836416
-0.03483623	-0.055426717	0.07581056	0.036780953	0.06311819	-0.015732244	0.008068245	0.037424706	-0.061376557
-0.0651607	-0.07889169	0.08848445	0.062436573	0.03832789	0.0502502	0.033197068	0.038708095	-0.015442897
-0.021506444	-0.09785056	0.049053553	0.02161799	0.027320243	0.093220785	0.102816455	0.07555552	-0.043692563
-0.043819696	-0.027604159	0.10357574	0.09803777	0.05028193	0.030684138	0.07699832	0.11829506	-0.054656617
-0.08217845	-0.024962047	0.071583696	0.025444048	0.0031841192	0.06971211	0.047974177	0.091330335	-0.08141364
