-0.009387493	-0.0086070895	0.04389601	-0.011367846	0.046041276
-0.016924132	0.023774175	-0.012945465	-0.037761215	0.050473873
-0.0012789639	-0.024430223	-0.011946284	-0.04236319	0.030509349
0.034427315	0.014346036	0.02079607	0.027663495	-0.011161719
-0.023598384	-0.06866411	-0.013631085	0.01842303	0.027764713
0.0056188907	0.025953958	-0.026682058	-0.030644672	0.027979076
0.010795317	-0.099222876	-0.09448903	0.060798544	0.017289428
0.023061056	-0.081741646	-0.057780415	-0.016461104	0.04601003
0.02311864	-0.099541105	-0.10651797	0.0052230135	0.024323346
-0.029988155	-0.011714095	-0.07225974	-0.035642818	-0.0012348234
-0.025632795	0.038625445	-0.008981561	0.032303743	-0.016672708
0.058055617	-0.06856261	-0.051521137	0.03304008	0.034621254
0.046942912	-0.12794438	-0.106261335	-0.016222542	0.038289975
-0.020989684	-0.018867433	0.008187779	0.012737904	0.02715736
-0.016853932	-0.033625223	-0.05652146	-0.017469242	0.048146117
0.014660104	-0.015861087	-0.047488555	-0.018208742	0.017532667
0.048858486	-0.09527707	-0.030472625	0.032148838	-0.024281174
0.0014782726	0.03991427	-0.033350635	0.0128428275	0.0018580476
0.039358355	0.03633027	0.0039814166	0.004799471	0.028209487
-0.035813	-0.026626673	0.008980865	-0.025583122	0.030808657
0.026606005	-0.0055048224	0.019762013	-0.016954057	-0.00016809715
0.006544788	-0.04612926	-0.019551115	-0.009021909	-0.01864478
-0.02173892	-0.03372762	0.0013523916	0.01293066	0.03967676
0.033099327	-0.010872497	0.018929986	0.030370856	-0.031992007
0.004834028	-0.0043981746	0.0133390315	-0.034061916	0.007146499
0.02142779	-0.01945313	0.020078626	0.016952472	0.029855547
0.048865337	-0.011798891	-0.048585363	-0.0352778	-0.01926338
0.015806945	-0.055475406	-0.10807442	0.049718115	0.010322374
0.019965727	0.020487042	0.015670054	0.053265195	0.031471085
-0.018474825	-0.05934382	-0.08513309	0.0008162255	0.03667838
-0.0024121192	-0.012795555	0.033301394	-0.021881783	-0.0166933
0.029182145	-0.010242002	0.01974917	0.071993135	-0.0071316157
0.041619234	-0.042577986	0.030477475	-0.0045036757	-0.01919769
0.034474596	-0.024119208	-0.0068747196	-0.011672388	-0.026209995
0.011462666	-0.101129346	-0.03573621	0.020632202	0.013484498
0.0464795	-0.034678895	-0.0340838	0.046231735	0.01843152
0.011282771	-0.002926658	0.01724274	-0.04158482	0.0046359296
-0.009555566	0.007723588	-0.028116887	0.002862009	-0.02446847
-0.06496225	-0.014935534	0.013997106	-0.041035667	0.034300312
0.028076474	-0.032422315	-0.04328666	0.018797778	0.03622752
0.029054765	-0.11923403	-0.1032895	0.06509522	0.020938046
-0.039293446	0.07543264	0.010721115	0.0263883	0.037242465
0.054480683	-0.12968494	-0.07688058	0.04741518	-0.0023376276
-0.034180116	-0.020806728	0.040660795	0.024217581	0.041440364
0.04510484	-0.03737358	-0.050096113	0.00944585	-0.021062484
-0.023700621	-0.044668354	0.009266818	0.02843093	0.01146379
-0.027652198	-0.0141999265	0.013111633	0.058960862	0.032348104
0.072577626	-0.07131178	-0.038913738	-0.015790792	0.055360112
-0.013232347	-0.0045171734	-0.053431746	-0.03579236	0.017407304
-0.03828189	0.03172678	-0.017733878	-0.017673329	0.034087747
-0.036924206	-0.009779401	0.008383778	0.019315926	-0.033194378
0.054572422	-0.057286907	-0.018244987	0.007611197	-0.048630506
0.009740577	-0.00013012567	-0.032161705	0.019455671	-0.038441774
0.019336535	-0.04925156	0.017158404	-0.030192815	0.041256282
-0.012669745	-0.0122925285	0.06578158	-0.034761913	-0.0139506
-0.013151976	-0.10326555	-0.11223581	-0.008262694	0.044650003
0.020366075	-0.15100372	-0.1103028	0.020757426	-0.00984653
0.027446656	0.017633433	0.035281684	-0.019225055	-0.019349642
0.038544457	-0.03537313	-0.025190605	0.057362907	-0.0014899328
-0.010991573	-0.09874668	-0.06431196	0.01358989	-0.02287929
-0.030857107	0.021529257	-0.0065995287	-0.005538521	0.018503485
0.02759713	-0.032959916	-0.028119927	0.010515272	-0.036959834
0.07926007	-0.011014635	-0.0004568146	0.013806455	0.03291408
0.01855172	-0.0053851455	-0.005675816	-0.038564045	0.018293247
-0.038574617	-0.027590532	-0.05106679	-0.0075369654	0.052269176
-0.045892183	0.007823121	-0.002391885	-0.03463415	-0.02786809
-0.031592283	-0.024326984	-0.0019574375	-0.026931679	0.01619998
0.013567853	-0.005463134	-0.014397426	-0.023884557	-0.011478834
-0.008211498	0.021761037	-0.013315092	0.050439417	0.04716371
0.036743276	-0.023787186	-0.015084469	-0.012511944	0.022009242
0.013540706	-0.041837208	-0.010114595	-0.019122452	0.047670938
-0.029947484	-0.0066631897	-0.046172768	-0.007375349	0.01135652
0.046665106	-0.0112224575	-0.027092049	-0.020892302	-0.00092117785
-0.045833897	-0.037605498	0.006674999	-0.00027643822	0.025117164
0.036878027	0.0076282034	-0.034372047	-0.03599186	0.018638635
0.0696319	-0.07943342	-0.035310794	0.018850587	0.046603836
-0.028755937	-0.019518817	-0.027803203	0.046689436	-0.037767153
-0.014289583	-0.06365703	-0.02326312	0.021084007	-0.041084804
0.016716225	0.025451183	-0.021803476	-0.02280783	0.022477908
0.048196863	-0.053173807	-0.019329647	-0.020804768	-0.030979447
-0.009782801	-0.05627261	0.016077679	0.0044151316	0.008386881
-0.034749113	-0.02249307	0.029305365	0.06618968	0.0030888678
0.005936485	-0.041751377	-0.0494779	-0.036885116	-0.03785464
-0.0050819395	-0.008974619	-0.08829501	-0.03643956	0.010388371
0.07356766	-0.12315369	-0.12173013	0.00901526	-0.02157776
-0.009523902	0.005138509	0.013423167	-0.018291641	0.0062165298
0.020178095	0.0017295344	0.00038159324	0.057629403	-0.009094611
-0.013722953	-0.03544164	-0.015394331	0.037112337	-0.011524267
-0.03870883	-0.042637806	-0.05772055	-0.012181844	0.032396544
-0.0057043144	-0.037192907	-0.003696275	-0.013515589	-0.008807404
0.0044856146	-0.04357461	-0.017182741	0.0013546695	-0.02444873
0.02322199	-0.0029852001	-0.028026894	-0.0012305725	-0.007590217
0.02644542	0.0057149776	-0.012828097	-0.014251943	-0.036840793
-0.010460948	-0.00566956	-0.0058036135	-0.040640306	0.029215677
0.055285178	-0.03624232	-0.0010345071	-0.026017508	0.026993224
0.02284822	-0.030297292	-0.04288907	-0.0017382966	0.007657298
0.012861018	-0.011253553	-0.025346613	1.149856e-05	0.040803958
0.007587116	-0.02517072	-0.027814185	-0.03678478	-0.018633513
0.004480159	-0.004724227	0.014830363	-0.001516937	-0.01644754
0.009215467	0.0046601584	-0.07267823	0.020218795	-0.044416346
0.011053432	-0.0056719473	0.036922645	0.01585423	0.04292911
-0.0052725333	0.009972781	-0.009993353	0.0401639	-0.0046401164
0.034949835	-0.042096518	-0.017766707	0.043094337	0.024210112
0.019872382	0.01693192	0.005842596	-0.027173262	-0.046291806
0.025482023	-0.035908367	-0.013260494	0.0022299308	-0.015131031
0.04146992	-0.0038670267	-0.03740547	-0.012707922	0.02289267
-0.005110361	-0.002984661	-0.00035119144	0.019547408	-0.023831943
0.06824628	-0.08458345	-0.118235536	-0.010674611	-0.03554444
-0.010614307	0.014277706	0.04445485	-0.006460904	-0.045144286
-0.004016417	-0.028364219	-0.061189454	0.019600453	0.029881498
0.022684926	-0.046307053	-0.0074782223	0.04769771	0.04030473
-0.03217001	0.043717816	0.012437307	0.014302272	-0.0042365775
-0.003020776	-0.014853813	-0.051742163	-0.004441214	-0.018304737
0.06296099	-0.09761201	-0.036591344	0.05729517	0.046314504
0.004646675	-0.050511345	-0.075633705	0.008869333	-0.03515244
0.022424009	0.051867723	-0.030765072	-0.0364173	0.01387519
-0.019047197	0.0364092	0.01672551	-0.022120075	0.022097055
-0.033946227	0.0054717013	-0.008963956	-0.057575196	0.001782508
0.050795786	-0.014478059	-0.0047412766	-0.0042814896	0.036385354
0.043553587	-0.07058404	-0.050300162	-0.028516015	0.016239827
0.0045559607	-0.14731006	-0.062462267	0.0015193697	0.016137462
0.04986919	0.023787456	0.0197079	0.04016173	-0.0019361257
0.058572404	-0.10252884	-0.048001826	0.009555295	-0.018653864
-0.008932332	-0.036500014	-0.028872475	0.016918834	0.019233933
-0.021073285	0.032585047	0.007952965	-0.022047395	-0.028553918
-0.0017614628	-0.055869576	-0.016242975	-0.028376296	-0.017831292
0.009097489	-0.0075761424	0.016590074	0.017102147	0.010262987
0.011820565	-0.014032387	-0.002807995	0.028563144	-0.028012615
0.0018809319	0.06651869	-0.018128868	-0.026243227	-0.015728278
0.010323379	-0.09098937	-0.11837416	0.012508401	0.007181872
0.06039803	-0.03248432	-0.0005128602	-0.031039448	0.044627693
-0.0013213218	-0.012947688	-0.052381624	0.0016185648	-0.007279141
0.05489437	0.026355714	-0.008045527	-0.0061448626	0.0029275075
0.05839975	-0.09392455	-0.060789887	0.00025130567	-0.03586077
0.02420181	-0.023517529	-0.0075234743	-0.0125202015	0.017736241
0.04732479	0.03419357	-0.040678807	0.030996747	-0.023911647
0.00311594	0.030885942	0.037420407	-0.0025747244	0.037483048
-0.03510626	-0.043090064	-0.0011794614	0.0058787204	-0.011803901
0.0110928845	0.0026496039	0.004330119	0.026003659	-0.014934812
0.0005387475	0.0019033239	0.011513964	-0.0033423693	0.004671148
-0.03694028	0.05408181	-0.010660757	0.0026611728	-0.0348958
0.00092623173	-0.028496971	0.017653268	-0.0070124143	0.040023163
0.02026065	-0.037056603	0.02983808	-0.034002487	-0.014908189
0.02262154	0.033538457	-0.014345744	0.009746632	0.004974205
0.0019465489	0.02462737	0.0070516984	-0.009380517	0.027865477
-0.0034654636	-0.015042206	0.0013851585	-0.05595732	-0.0025257936
-0.0033007478	-0.026040455	-0.05614052	-0.045176208	-0.008106087
-0.02629314	-0.001221398	0.011386274	0.025373936	0.0127545
-0.010524696	-0.008666278	-0.047414888	0.022693215	0.025273144
0.02064352	0.013686398	0.011734662	0.049958136	-0.009177369
0.029788408	-0.03266173	0.028303547	-0.003510428	-0.01952519
-0.00796709	0.056357812	-0.012467341	-0.03276755	-0.019928906
0.011233945	0.012142461	0.00085980084	-0.03059998	-0.008014973
-0.048851475	-0.006199333	-0.016925951	0.032494403	-0.037508015
-0.030202288	-0.062102232	-0.026093323	-0.042254448	0.035893276
0.03905154	-0.0012530329	0.031105712	0.04222678	0.0050817225
-0.02359891	-0.03373922	-0.0017291718	0.032743637	0.02675037
-0.028082753	0.010223537	-0.00091226446	-0.04785556	0.045516696
0.0062047853	0.024126587	0.014117784	-0.029463466	-0.015901579
0.010480585	0.038464766	-0.010181549	-0.03575042	0.024802245
0.0009918367	0.017697591	-0.030322718	-0.019853584	0.0291309
-0.017653488	-0.023633208	-0.01532015	0.007257194	-0.04098805
-0.004826553	0.010670651	-0.0022156427	0.03108625	-0.02041968
-0.027157545	0.010502563	0.0017339205	0.0023770824	-0.035197284
0.028050724	0.010120696	0.0628326	0.007990959	0.033499204
-0.021965902	-0.017075269	-0.018342182	0.018066665	-0.027331542
0.04026148	0.03360589	-0.010439318	0.0034783268	0.041756615
-0.016880065	-0.03068083	-0.034043606	-0.022262516	0.020029793
0.0025958528	0.0011618077	0.020610865	-0.042745702	-0.039674982
-0.059977993	0.01660073	0.01599496	-0.015935542	-0.008450539
0.0493457	-0.06377903	-0.054782566	-0.0020725746	-0.0293942
0.078807466	-0.0761341	-0.049928393	0.01760722	0.033979703
-0.029586596	0.0105016995	-0.052700244	0.03058614	-0.026658768
-0.019313386	-0.029218912	0.034647517	0.038597304	0.023211705
0.04420867	-0.0695143	-0.12259118	0.015333293	0.011007059
0.04210094	0.016815694	0.029873082	-0.022470932	0.04259199
-0.039087456	0.040679134	-0.023813963	-0.03670295	-0.006247226
0.01687055	-0.072962895	0.0054600406	-0.020788211	-0.014592567
0.014644877	-0.15625562	-0.09768991	0.0014214866	-0.006811346
0.055619538	-0.051805664	0.0041006627	0.007279102	0.020122953
0.007896371	0.0010767308	0.007883516	0.029260911	0.03338449
0.03272232	-0.00878041	-0.08878616	0.022750588	0.0072831935
0.017485663	-0.040201053	-0.01773427	-0.021560462	-0.0013712848
0.025446782	-0.0037141067	0.008688126	-0.02333987	0.01415619
0.033490587	-0.00043159397	-0.0034497387	-0.033626456	-0.0007201816
-0.033552956	0.016596964	-0.00042252717	0.015675247	-0.02571617
-0.04157825	-0.028181184	-0.009728132	0.011636471	-0.0047225584
-0.0017430948	-0.05398256	0.011606792	0.029280236	-0.0153344115
-0.037844285	0.021689178	0.030498797	-0.00088185805	0.0035594243
0.038095254	0.0077948677	-0.016142253	-0.00067890424	-0.019992443
0.023973806	-0.1402148	-0.1561808	0.029421069	0.012288833
0.031714533	-0.008059589	-0.065000884	0.04796132	0.0076656733
-0.009183082	0.0155136995	0.024944477	0.023069916	-0.0116804885
0.016793463	0.026697353	-0.004671288	0.009636728	-0.024155108
-0.024925115	0.023083128	-0.017374331	0.019059839	0.024168937
0.04215654	-0.06075518	-0.120451234	0.026853101	0.029892787
0.032752957	0.012388686	0.003949979	0.045005027	-0.005465933
0.024161004	0.012387125	0.011464436	0.033450022	-0.030245584
0.057938393	-0.05521142	-0.06497562	0.0075653726	0.0059200367
0.07610863	-0.039776	-0.058745295	0.035201713	0.04458803
0.028488377	-0.05664358	-0.017778978	0.008587731	0.022800718
0.008524015	-0.04405203	-0.03860776	0.043413002	0.014308297
0.00025445246	0.010055747	-0.02744829	0.042848926	0.042912714
-0.041048586	-0.028678885	0.028498584	-0.025680112	-0.044105805
0.06518885	-0.088589124	-0.13073288	0.0028098787	0.00050508016
-0.013033654	-0.00494307	-0.0031249148	-0.010010287	0.02300167
0.009120402	0.0034053887	-0.004366801	-0.022775318	0.023385454
0.00979297	-0.0716571	-0.0075628664	-0.004191905	0.016269626
-0.0151778255	-0.021599421	-0.029496584	0.0038104844	0.0160262
0.015913071	-0.050753474	-0.016679263	-0.009527501	-0.03134641
0.013218822	-0.041149233	-0.002903841	0.04646052	0.005778774
0.019026048	-0.027881341	-0.03191781	0.0045920303	0.038405392
-0.029158527	-0.044214055	-0.00055157725	0.044061374	0.014643186
0.048431326	-0.11379187	-0.07505283	0.00048330665	0.06327962
0.029824104	-0.08410378	-0.054713525	-0.01659655	-0.04349643
0.02009206	-0.0141076725	0.007672706	-0.011537907	0.023786796
0.006009277	-0.005390704	-0.03702387	0.04435827	0.023455076
-0.01359923	0.0017255895	-0.039019655	0.03761717	0.006182194
0.045049593	-0.055288382	0.013510035	-0.04647839	0.039715126
0.0027136563	-0.020952888	-0.011281619	-0.012440072	-0.022966908
0.0036287806	0.009114317	-0.033859167	0.02349824	0.04745134
-0.015501659	-0.0388823	-0.034678202	0.018495128	-0.023477616
-0.012542104	0.0033569732	0.036145866	-0.016204448	0.011091373
-0.036120355	0.0012455715	0.03075203	-0.029027548	-0.00034771315
-0.013631273	-0.025888927	-0.08553972	0.036213778	0.055087343
-0.012652956	-0.021508565	-0.015719008	-0.022745386	0.052511066
-0.01006987	-0.023086777	-0.0060421894	0.0003286368	-0.017041141
0.026271876	-0.01366014	-0.07373808	0.05826331	0.044735134
-0.0038914229	-0.101304315	-0.093962006	0.033509668	-0.004176781
0.03190035	-0.025638232	0.00069193955	0.02830929	-0.0027565176
-0.042474065	0.014584154	-0.028952403	0.027108764	-0.0075752256
0.039803296	0.012135145	-0.03812111	-0.04840704	0.05495359
0.043519564	-0.10473442	-0.10112136	0.05032721	0.027073788
0.030919127	-0.023670752	0.010743708	0.028061435	-0.0058770985
-0.014595327	-0.00066054787	-0.054526057	0.06071381	-0.027565686
0.0417727	-0.05532011	0.029438123	-0.02121089	0.049553834
0.026830994	-0.0044270935	0.037170745	0.0287929	0.031811256
-0.02397129	-0.010673402	-0.0387211	0.029642614	0.034353074
-0.026913356	-0.0522178	-0.009087884	0.024488026	-0.027885888
0.036333136	-0.0146650905	-0.0749975	-0.003396251	-0.026235953
0.01591914	-0.034363024	-0.042339906	-0.027529176	0.011727927
-0.0009485755	0.049775157	-0.03974965	0.03257063	-0.0067825676
0.0138951335	-0.008846245	-0.012445136	0.057681546	0.04396339
0.04209159	0.030513298	-0.043953717	-0.0063980613	0.054520525
0.005334183	-0.015537208	-0.022081966	0.0051355907	0.04083895
-0.026980355	-0.026760424	-0.064640485	0.047427524	0.044266578
0.023402955	-0.054453447	-0.09057468	0.051653076	-0.03857208
0.027210081	-0.022602858	-0.0093829995	0.0058366475	-0.028706476
0.029535212	-0.0646773	-0.07139014	0.039779685	0.03487759
0.022028778	-0.009323809	0.006604868	-0.016653646	0.060123406
-0.017209306	-0.014306212	-0.072831534	0.020323036	0.038614888
-0.012297346	0.0077266395	0.016178278	0.022212757	0.04382549
-0.0040273704	-0.019964235	-0.010573915	-0.028694516	0.05909269
0.07237027	-0.0753241	-0.04726558	0.035243563	0.04601134
-0.016502919	0.047958527	0.014773926	0.022683054	0.033706713
-0.005621447	-0.016016351	-0.062246032	-0.011412831	-0.026472319
0.022619817	-0.039090905	-0.0015371675	-0.008955871	0.023045309
0.03643195	-0.07803413	0.0022747284	0.0628208	0.0023514081
0.042082768	-0.044542134	-0.001084113	0.03816954	0.025425322
0.027858457	-0.038784374	-0.06185781	0.01931242	0.03755774
-0.03069239	-0.029086519	-0.027262244	0.029702531	0.0024878716
-0.008134025	-0.050703976	0.020728556	-0.04013477	-0.0061443173
-0.0056597847	-0.10145136	-0.029809007	0.053917624	-0.01988649
0.0005752489	-0.0066273483	-0.021926634	0.053554606	-0.009134477
0.0015336063	-0.032882623	-0.031677496	0.0064393966	0.049924817
-0.037791252	-0.019742943	0.025627762	0.006776939	0.014343951
0.046965558	-0.06831302	-0.06739832	-0.0013810816	0.015627274
0.055067156	-0.08599224	-0.025429413	0.033371255	0.005211767
0.01937771	-0.02125704	-0.0057366	-0.040223986	0.020091977
0.0065060593	0.02989605	-0.008198007	-0.06655325	0.024630303
0.02331838	0.011072249	0.025934707	-0.011932606	-0.03069676
-0.027350556	0.03190256	-0.002787769	0.03377404	0.035969134
-0.006909869	-0.07086126	0.0013458575	-0.0031854007	-0.027278712
-0.024359373	-0.016371408	0.06955857	0.0027939181	-0.0069974293
0.05076076	0.009696936	-0.013631079	-0.042910535	0.0062176753
0.050353255	-0.13938539	-0.057424042	0.0062541286	0.03154361
0.048963524	-0.020277252	0.003562221	0.022027776	-0.024509482
0.027242158	-0.061916623	-0.030870639	0.06512246	-0.0014944823
0.080778025	-0.037954133	-0.08486712	0.03374333	-0.00908843
-0.03617068	0.006303029	0.008120384	-0.040353734	-0.036064293
-0.017349977	-0.053385694	-0.030532504	0.008935245	-0.018012801
0.036289014	-0.06058149	0.013205462	-0.012625933	0.022270896
-0.009330796	-0.05490202	-0.0114886705	-0.017790893	-0.008891796
0.004197502	0.04775212	-0.028716857	-0.017001506	-0.034220062
0.031475402	0.02273496	0.027115695	0.039036233	0.045956656
0.053358197	-0.03564879	-0.018601302	0.021943515	0.02486895
-0.05451681	0.020447215	0.0017109878	-0.008487131	-0.054040764
-0.01617696	-0.018704832	-0.02668563	0.025176365	0.035784997
0.05570464	-0.003651681	0.017103564	-0.009339097	-0.039666764
-0.024130067	-0.042343955	0.04773145	-0.052940138	-0.03533075
-0.015135921	0.023022996	0.059924193	-0.04648483	0.025651004
-0.012118641	-0.027010718	0.044066075	0.050043765	0.038301166
0.045200057	0.01621783	-0.017188095	-0.022271298	-0.038188837
0.018182205	-0.0022621157	0.026371451	0.028936885	0.052531984
-0.021241464	-0.044548977	-0.09978896	0.06531835	-0.05081553
-0.022076566	-0.040175945	-0.047090843	0.03738321	0.022711162
0.059657026	-0.082840726	-0.03320695	0.05260003	-0.029027885
0.049951375	-0.13255106	-0.11338123	0.06563342	-0.012736499
-0.011342015	0.0012400679	-0.06408286	-0.020907238	0.0016643051
-0.060535736	-0.03832372	-0.052502498	-0.017065862	0.046649102
-0.0453373	0.03017658	-0.0071205776	-0.036078677	0.024084352
-0.025508584	-0.041395746	-0.06266727	-0.012678843	0.029134773
0.027199294	0.012174645	-0.010615714	0.01850081	0.026242208
0.021317648	-0.09356062	-0.10439645	0.008088382	-0.014043004
0.021117022	0.031707916	0.011071004	0.033198293	0.021289615
0.04303152	-0.102681264	-0.057832513	0.035933662	0.0016348974
0.04413053	0.009406247	-7.323088e-05	-0.008543456	-0.0017787053
-0.0008755849	0.016402632	-0.042322353	0.010747785	0.014961727
0.064531446	-0.011106706	-0.05140681	0.042397916	0.007444879
-0.014871412	-0.03337145	-0.06476478	0.046496004	0.010818391
0.048741285	-0.10590354	-0.03372681	0.012008576	0.029429797
-0.04217278	0.051933177	0.028272005	0.0047252816	0.020091487
-0.016460573	0.011768984	-0.03948569	0.055058956	-0.01393759
-0.034614123	-0.00072898413	-0.026804883	0.018338904	-0.0021278593
0.018577462	-0.017432446	-0.019031001	0.019283533	0.014173494
-0.019819418	0.002619809	0.0034938722	0.036533978	0.024921382
-0.041461736	-0.03750411	0.02931392	-0.013195437	0.00620169
0.053946637	-0.02763443	-0.008647719	0.028829455	0.05609303
0.023505867	-0.03664584	0.0014015638	-0.011602394	-0.026319709
-0.026011301	-0.021419447	-0.06346142	0.009877351	-0.007847346
0.00851108	0.032981925	0.011080706	0.050147682	0.05499173
0.0018700198	0.00087692344	0.012440931	0.009206106	0.04201332
0.007244811	-0.029335652	-0.012437103	-0.008487305	0.026986837
0.076918826	-0.04035279	-0.027060471	0.0534145	0.050807457
0.0570473	-0.010810219	-0.004678963	0.011623936	0.007028755
0.019696407	-0.112698734	-0.08994466	0.053022865	0.02460907
0.03174656	0.00045245874	-0.053326108	-0.008277916	0.022217728
0.035287514	-0.0005178067	0.029374609	0.016045801	0.006575186
0.011241367	-0.070625216	-0.07036932	0.029579798	-0.017305773
0.040675007	-0.036848977	-0.028962452	0.09666857	-0.034188543
0.03349266	0.01100701	-0.053915318	0.03547949	-0.030789832
-0.0011090136	0.013697567	-0.02575869	0.045980677	-0.04597013
0.044714823	-0.12690736	-0.02901382	-0.010405629	-0.004431885
0.020067986	0.010362265	-0.0005622926	-0.03458297	-0.030663798
-0.00035003386	-0.047962632	0.016418658	-0.029460488	-0.0068321326
-0.0075590108	0.0008450293	-0.05755935	0.01579916	0.03451839
0.03768485	-0.1178707	-0.043351892	-0.0144417295	-0.035062827
0.032221355	-0.055435177	-0.01801716	0.028076302	-0.02366121
-0.008580996	-0.028551493	0.002151561	0.006695804	0.0009863186
-0.0076931794	-0.021416148	-0.088763274	-0.0016993847	-0.012123624
-0.033522833	-0.07344347	-0.051022403	-0.032781906	0.008521144
0.013474002	0.016199268	0.03179036	-0.025992954	0.0337572
-0.021362592	0.012247587	0.0007190249	0.04813285	0.05241324
0.0128015485	-0.009603459	0.006727789	0.023322912	-0.029943079
0.039567307	0.018289836	0.03718008	-0.02001179	-0.009893266
-0.0056313965	-0.06432446	-0.038327157	-0.012056383	0.039733484
-0.030758513	-0.034877285	-0.007027633	-0.028210768	-0.01669433
-0.011272654	-0.024037944	-0.033556268	0.013246343	0.034787744
-0.005878809	0.0015971692	0.036965705	-0.05041065	-0.033175953
-0.075658396	0.012854491	-0.017505027	0.024065062	-0.008333958
0.01882656	-0.09345155	-0.11344872	0.073791854	0.020846328
0.09742487	-0.09960986	-0.058732696	0.013057303	0.010292539
-0.00648119	0.04578183	-0.01346031	0.024751235	-0.042625178
0.060231663	-0.0906093	-0.07718795	-0.007752711	-0.009465175
-0.019728178	0.019297147	-0.015926694	-0.01695	-0.0018960043
0.013897677	0.044652183	0.024255633	-0.029493347	0.013887512
0.04571505	-0.04465264	-0.045991644	0.055021405	0.019184124
0.020009045	-0.038020656	0.0069978577	-0.01285119	-0.015719404
0.051956877	-0.059746623	-0.056143392	-5.1939205e-06	0.02871331
-0.006060639	-0.031718165	0.005086646	0.030918203	-0.0048435074
0.03920901	-0.00766669	0.0054006046	0.045602392	-0.026755784
0.004817428	-0.1174584	-0.07838657	-0.0062083984	-0.0043631336
-0.010240741	-0.049991764	-0.05350344	0.016838156	0.0116804885
0.010603735	-0.008383908	-0.0022796378	-0.007006156	-0.016250331
-0.014289703	-0.008441727	0.046047512	-0.016450543	-0.043375503
-0.014423883	0.01985878	-0.027762055	-0.037228055	0.040289976
0.019370003	-0.015495509	0.02587301	-0.018644921	0.027410489
0.010705799	-0.09381647	-0.0026827233	0.009170253	0.051254198
-0.0168714	-0.024860295	-0.07356037	-0.024948852	0.029289983
-0.011550254	-0.002990048	-0.009644812	0.024468994	0.0110868225
0.018843919	0.0024262648	-0.049867604	-0.013552439	0.03662138
0.018616006	-0.054937225	-0.048167754	0.003107092	0.026119277
0.046491127	-0.025735492	-0.021079663	-0.005966693	-0.00627388
0.00019627932	-0.0027138211	-0.0051534697	0.002906539	-0.03166956
0.0052500083	0.024066877	-0.010623809	-0.027542626	-0.03438229
-0.005800052	-0.08818938	-0.044060316	0.014687923	0.028354142
-0.019427583	-0.03551035	0.0004982747	-0.00870054	0.015092056
-0.0124256695	-0.018509401	0.023578094	-0.035307653	0.0355312
0.01819217	-0.026365506	0.006226683	-0.00028807268	0.03011951
-0.016454255	-0.07042906	-0.06008661	0.0154946605	0.03829438
0.053385228	-0.09194256	-0.03861451	-0.006390554	0.052399293
0.024290608	-0.01839608	-0.06905068	0.017415462	0.0041044494
-0.0271315	-0.015651934	-0.04170216	-0.043860268	0.02047653
0.06443162	-0.11197497	-0.08388203	-0.01722743	-0.012507267
0.054085042	-0.0014433267	-0.015325395	-0.015588559	0.0060187415
0.08846808	-0.11108792	-0.051374607	0.079612106	0.051424727
0.025045019	0.016432714	9.309218e-05	-0.016248923	-0.008949485
0.035401613	-0.17010388	-0.09306706	0.03789219	0.032917447
0.033413958	-0.03506235	-0.032474145	0.015639469	-0.020046992
0.026153218	-0.0018549188	0.0058466946	0.016231539	0.030976653
0.0072200303	-0.014994284	-0.009743039	0.020490367	0.025584988
0.010633728	-0.061813537	-0.0048642866	0.046854537	0.01964709
0.026802892	-0.011716183	-0.04172354	-0.033743113	0.04163381
0.007508223	0.02974802	-0.035220105	0.017104222	-0.027714778
0.0164052	-0.030267209	0.017999126	0.022641273	-0.05130529
0.04618531	-0.023662081	-0.0042882464	0.026394902	0.032952413
0.022884503	0.009907603	-0.04712159	-0.04042059	0.043029178
-0.006956592	-0.03389842	-0.0017365225	0.0014880286	0.016527787
0.025158167	0.023436697	0.002566515	0.0033345772	0.016738933
0.0375637	-0.060717437	-0.07859589	-0.0067535136	-0.013406152
-0.0014667241	-0.004377192	-0.023965934	0.034503903	0.01929155
-0.058188133	0.010905159	0.0147784725	-0.028867545	-0.020449067
0.0149990395	-0.0015807839	0.011501554	-0.029995067	-0.01570577
-0.043301422	0.0006178217	-0.012261227	-0.018481303	-0.014472952
0.01582281	-0.044768296	0.02554313	-0.02078731	-0.021770459
-0.011326967	0.008348248	0.04728231	-0.009618993	-0.0071728234
0.0017549231	0.03501016	0.03385543	0.0052179475	-0.02544707
-0.009237978	-0.003710423	-0.0018662638	0.04881267	0.023026768
0.033910494	0.03161033	-0.05369408	-0.00054859277	0.006817735
0.0010263764	-0.04281902	-0.0011329744	0.047423135	0.008257495
0.03348725	0.0021421583	-0.03759485	-0.02925129	-0.038135972
0.005876779	-0.032726754	-0.056214847	-0.0025582903	-0.0026035074
0.0054602576	-0.036654674	0.05223105	-0.027635062	-0.02041243
0.017325226	-0.025431402	-0.007510387	-0.015900135	-0.016004693
-0.025199085	-0.016615095	0.009308309	-0.039886	0.031165242
-0.024299197	-0.035373047	0.023046529	-0.028128214	-0.009193331
-0.015724981	-0.028598044	-0.024068033	-0.021719357	-0.023633232
0.0217019	0.027747154	-0.028329771	0.024769831	0.021864431
-0.036857042	-0.017809266	-0.00846936	-0.005705459	0.034121264
0.00205349	-0.015740026	-0.039574604	-0.009117009	-0.014622539
0.025110697	-0.062009756	-0.07057814	-0.015088838	-0.025048451
0.028681746	0.03935118	0.025785856	-0.028368507	-0.03740751
0.030637775	-0.08228338	-0.023473324	0.041980002	0.019301843
0.045007847	-0.14062911	-0.11295648	0.025584446	0.027977346
0.04024477	0.053406253	-0.021261495	0.04895513	-0.011095143
0.07979484	-0.06634285	-0.02696507	0.04329219	0.015971497
0.052537084	0.0056419275	-0.05943462	0.036608405	0.0051921015
-0.04105384	-0.037392948	-0.020929016	0.0126732895	0.023568772
-0.0019850298	-0.03888442	-0.017854048	-0.049738526	-0.041756608
0.04695514	0.04301764	-0.025789684	-0.047382873	0.027285878
-0.027244039	0.018045273	0.019605678	0.020037666	0.0141779585
-0.017970761	-0.051940046	-0.06556711	-0.032992825	-0.0032356174
-0.028727043	0.012830451	-0.00081433065	0.014762594	0.0031857155
0.040229723	-0.11217365	-0.024120692	0.039570455	-0.017361574
0.03167555	-0.09034552	-0.108181566	0.04696423	-0.015316526
-0.008588689	-0.017151253	-0.025236934	-0.00067060965	-0.043637954
0.035615407	-0.02844546	0.03279698	0.0039553745	0.029407676
0.0678138	-0.097329915	-0.0669463	0.06146439	-0.022353068
-0.036843255	-0.057720207	0.01648981	-0.022724986	-0.021012003
0.041634433	-0.07723435	-0.010085751	-0.016521303	0.05742447
-0.007181684	-0.045521002	-0.026730407	0.029713059	0.04034496
0.023137081	-0.04099641	-0.013460453	0.043415852	0.027160315
0.036484875	-0.16429868	-0.15605289	0.026893906	0.042672478
-0.008105799	0.0012106806	-0.031754117	-0.014173917	0.030953992
-0.024364375	-0.048247375	0.0153016895	0.030330135	-0.0168322
0.07346725	-0.06467102	-0.056119166	0.048953936	-0.014646123
0.019895328	-0.018559521	-0.07546329	0.05218045	0.03073402
-0.00021505752	-7.037124e-05	-0.014940331	0.036756795	0.0064820694
0.027138941	-0.04352465	-0.0014429304	-0.03177474	-0.016166504
-0.026783312	-0.035128538	0.0023137492	0.03219343	8.350123e-05
-0.022330131	-0.006503195	-0.0055107814	0.009096522	0.034669828
0.022247063	0.036582354	-0.014405376	-0.019717062	-0.0100154085
-0.0035153718	0.0127532715	0.020715173	0.020992419	0.03114723
-0.007205581	0.01009103	0.010444977	-0.050431207	-0.014065554
-0.041914836	0.02793968	-0.03489796	-0.009094651	0.04645251
-0.014082893	-0.00036913407	-0.0073773577	-0.044756677	-0.037561037
-0.036555935	-0.0141145615	0.03371217	0.04861392	-0.030514998
-0.049506396	-0.018888643	-0.013490515	-0.014184624	-0.030106498
0.028605748	0.049681094	-0.02398436	0.036278635	-0.039499365
0.015506842	-0.029039243	-0.029142907	-0.034814987	0.044504028
-0.014125071	-0.031524368	-0.011391853	0.031081503	-0.029223984
0.016841864	0.0072462014	-0.00027849467	0.0061406214	0.043024026
0.02976031	-0.034332603	-0.085001364	0.012602974	-0.004706768
0.02052817	-0.03616586	-0.00118593	-0.058019813	0.001777384
0.010081284	0.036800046	-0.007736452	0.057040595	0.047679238
0.021559067	-0.02614304	-0.014761562	0.014268371	0.026619425
0.024662036	-0.12226629	-0.13773511	0.026866201	-0.016517552
0.015692843	-0.08724173	-0.007859903	-0.004407334	0.014149474
-0.059779346	0.04356638	0.03279746	-0.00085172796	-0.038853195
0.037496638	0.005654881	0.040066257	-0.058920745	-0.016017627
-0.0029482301	0.017202979	-0.057298187	0.04381675	-0.04824367
-0.0067341356	0.052726474	0.017504355	-0.02157701	-0.0009366452
0.0037841068	0.028038487	-0.027614042	0.022132248	0.012660823
0.018832805	0.027513847	0.037780493	-0.040852614	0.020028787
0.051391948	-0.08099015	-0.018247088	-0.034183253	0.029998157
0.070714936	-0.065816104	-0.047144867	0.026042636	0.018613068
-0.019221736	-0.014170807	-0.016989954	0.045307864	0.030802371
0.03696407	-0.020848744	0.0032051953	-0.00042842078	0.03463326
0.058157876	-0.055762347	-0.043569867	-0.026238604	-0.0030993137
0.008994447	0.0009785454	0.030596882	0.051307455	0.04313552
0.07441486	-0.077189825	-0.036276296	0.024283474	-0.018797109
-0.012709413	0.020753833	0.012743052	0.02114198	0.03250014
0.027818855	-0.017442752	0.032146998	-0.03599666	-0.012811237
0.031039966	-0.00089223863	-0.0061016725	-0.002504165	0.033764303
-0.0048584426	-0.0342118	-0.01734436	0.02430007	-0.02054084
0.016890027	0.003066232	-0.022847565	-0.014053427	-0.025378583
0.059675995	-0.0771694	-0.045519	-0.007840339	0.052143373
0.0066844854	0.048292205	-0.034004334	-0.052068584	-0.0044205883
0.031228134	-0.029128378	-0.017094687	-0.03342326	-0.02837906
-0.025357539	-0.03801146	-0.036982976	0.026942294	0.044269383
0.014376491	0.014789804	-0.03256781	-0.044649266	0.020984584
0.0037434278	-0.050225947	-0.054141708	0.030474436	-0.0041402807
-0.013337837	-0.07869107	0.01713119	0.011291862	0.032096166
0.0038891088	0.052027863	0.02431188	-0.021281779	0.023763916
0.043015186	-0.041645706	-0.08032472	0.039311823	0.025289312
0.047554564	-0.023946155	-0.054900818	0.0014529617	-0.024735952
0.041232012	-0.15443696	-0.064744376	0.067825645	-0.018423513
0.04269128	0.017092472	-0.027294086	0.036154944	0.032429166
0.043561023	-0.004555323	-0.019383952	-0.035604708	0.03286007
0.019443715	-0.0891818	-0.024590705	9.78236e-05	0.024611197
0.0008208501	-0.04595769	-0.042688593	0.012941398	-0.010962755
-0.027486023	-0.013456084	0.025936317	-0.027291166	0.029171549
-0.030196875	-0.024458019	-0.032477308	0.04389394	0.007299732
0.045844283	-0.080106154	-0.086298905	0.052084927	-0.016360963
0.015155941	0.00682476	0.028313594	0.017157454	0.03656148
-0.040011507	0.03120098	-0.019110722	0.030074412	0.030319504
-0.05097349	0.018871894	0.034398593	0.020722607	-0.016407942
0.04015717	-0.010866243	-0.008927419	0.036943696	0.009767507
-0.014705818	-0.04423672	-0.048162807	-0.00901792	0.0011860032
-0.046042338	0.038622607	-0.03554911	0.004105499	0.023808524
-0.017917942	-0.01924565	0.030039275	0.012402114	-0.009384271
0.007917317	0.060618684	-0.0038852063	-0.039180677	0.018524334
-0.014977161	-0.061770856	-0.030602615	-0.0016163205	0.029117525
-0.027419321	-0.0031620578	-0.0005897688	0.0049226712	0.014455011
0.047585893	0.021847518	-0.025172567	-0.022771562	0.00974693
-0.0016252754	-0.028480394	0.053211372	-0.037925866	0.02430482
0.027886217	-0.105375245	-0.035359472	0.02713143	-0.0112677235
-0.0010502117	-0.046041682	-0.013558693	-0.016889827	-0.024616694
0.00574823	-0.015097855	-0.059108738	0.039250873	-0.030890003
0.03459698	-0.0029757773	-0.008970109	0.024219116	-0.003681328
0.010170101	-0.015325001	0.059839346	-0.021444106	-0.014234743
0.037090655	-0.014747498	-0.025899582	-0.00013213733	0.021798305
0.03078266	-0.05137167	-0.021794602	0.0007013158	0.055361666
0.010843385	-0.028423062	0.034008797	-0.024564076	0.013594089
0.025590645	-0.002734407	0.008647585	0.0005049437	0.042672582
-0.0215994	-0.055452354	-0.028831493	0.02834616	0.053468674
0.01109786	-0.13494477	-0.06813198	0.054405577	0.015572617
0.012748379	0.023750503	-0.0115322815	0.0122894365	0.028695758
0.04657124	0.022424426	0.044300683	0.0013963828	-0.028258283
-0.005651835	0.011993386	-0.03091468	0.0036783656	0.003988003
-0.050762467	-0.0035322641	0.013467639	0.0027082486	-0.003252084
0.03229621	-0.015605561	-0.011657769	0.007386114	0.0043683997
0.021807913	-0.03580035	-0.009314082	-0.010287817	-0.016770422
0.0017163755	-0.03932051	-0.02586574	0.0115091745	-0.043797716
0.01274751	0.007390061	-0.028709495	0.013645006	0.00019726754
0.0085615665	-0.007781159	-0.0441619	-0.0052990536	-0.04600845
-0.021381918	-0.035187703	-0.04917163	-0.0026459168	-0.009730987
-0.004604919	-0.06342086	-0.017632833	0.05352776	0.02445319
0.015017118	0.009529842	0.046800863	-0.021770634	0.0037708783
-0.029148228	-0.010369871	-0.03259432	-0.0007288352	0.028258981
0.028833948	-0.018327583	-0.008127959	-0.030754313	0.042353336
0.034239724	-0.048978765	-0.04182328	0.012203407	0.055921216
-0.012831354	-0.049141567	-0.032382682	0.0044573992	0.010201222
-0.036262583	-0.053323556	-0.058370803	0.035252497	0.040632356
0.021914534	-0.11837496	-0.07964897	0.062580414	0.024380963
-0.020421077	0.029881129	0.009918186	0.005223449	0.0133665195
-0.006060071	-0.074150495	0.010499973	0.004006334	0.02841095
-0.0026234724	-0.002335092	-0.0066659045	-0.0053383736	-0.019347874
0.026672715	-0.072638154	-0.050341833	0.003030323	-0.0089893
-0.01537131	-0.027315125	0.026940322	0.0038483045	-0.050625063
0.005175744	-0.068949	0.0046547176	-0.0066733956	-0.008064669
0.04125374	-0.12594642	-0.10578838	0.046782717	0.021949984
0.012558339	0.031409036	0.044719383	-0.019930428	2.5240166e-05
-0.0067404723	-0.001943011	-0.054574966	0.0061753443	-0.046518948
-0.01614058	-0.009425316	-0.015159076	-0.034707423	0.030324697
-0.0032128044	-0.08005485	-0.050240714	-0.007438663	-0.025278881
-0.0048732287	0.0753703	-0.0230189	0.03551944	-0.024269424
0.02176501	-0.10289417	-0.054175295	-0.021965709	-0.012274636
0.00586278	-0.016557967	0.022027293	-0.014032022	-0.03955604
0.047434513	-0.07212821	-0.04879389	-0.040802985	-0.015891472
-0.019816432	0.006797034	0.017585283	-0.060659267	0.027687939
0.00060177036	-0.0075806356	-0.08498104	-0.033238668	0.031831644
-0.024896465	-8.495274e-05	0.0052344454	0.043324992	-0.014100926
-0.031486396	-0.015140991	0.0034245772	-0.054002427	-0.018309876
0.013586455	0.033083174	0.01745685	0.01908811	-0.046242844
0.04895329	-0.019510243	0.0015616327	0.0021034998	-0.025223978
-0.048341803	-0.027822804	-0.008398379	0.0349888	0.03200194
0.019672042	0.066693045	0.017101912	-0.02228026	0.024698645
-0.031070659	0.014129952	0.019323468	-0.013873307	-0.018801408
0.052774757	-0.047916878	-0.11546328	0.05125387	-0.038485218
-0.006640886	0.0553479	0.0054341117	-0.007264168	-0.041250076
0.080986515	-0.096103504	-0.13741553	0.054691162	0.019374024
0.011511412	0.050144285	0.0031648327	0.03155242	-0.011333957
0.0063402667	0.041887064	0.00094528106	0.030352611	4.518341e-05
-0.018765323	-0.06380849	0.034335084	-0.03378348	-0.015062144
-0.01978906	0.050000004	-0.027653418	-0.04178233	0.0022500479
-0.002765867	-0.09438615	-0.07759615	0.022378305	-0.023467787
0.019280203	-0.02880204	0.003373503	0.049981333	0.028915783
0.04531136	-0.02504027	0.004036078	0.026425883	-0.009349916
0.008109242	-0.0105930865	-0.019379985	-0.02057058	0.01200896
0.027733887	-0.025094304	0.0045763804	-0.033887878	-0.04784509
0.086042285	-0.105806485	-0.101946704	0.031204725	0.053295914
0.0035743075	0.020081721	-0.055404607	0.006861767	0.035669863
-0.01553443	-0.013112585	0.0040595126	-0.011636264	0.0274333
-0.013684175	-0.048873097	0.0009283232	0.042387303	0.027316548
-0.046980277	0.030525815	-0.023796035	-0.0048762606	0.043142445
0.08160095	0.01623337	0.031127395	-0.003626793	-0.037452318
0.013804105	-0.05036215	-0.007965835	0.002317502	-0.008214085
0.05600906	-0.005876397	0.0058452	-0.03194316	0.00327656
0.01560189	0.009161218	0.032234028	0.04899731	0.03740089
0.017041191	0.010766993	0.009970259	-0.0054126214	0.027472945
0.018176481	0.025590708	-0.0122515485	-0.05368512	0.034139827
0.019083653	-0.011640877	0.038563572	-0.00431156	-0.017343888
0.04169336	-0.058824956	-0.018664248	-0.0033973707	-0.013670787
0.041463822	-0.037507985	-0.0005884632	0.020800589	-0.009853627
0.0116875805	0.018199971	-0.032118328	0.019776488	-0.03716435
0.052367244	-0.026630713	-0.06525889	-0.025741138	-0.032488838
-0.009716184	-0.047705833	0.0029944112	-0.027302153	0.011580051
0.059643995	-0.055603337	-0.089909114	-0.030524641	0.032599136
0.0117222555	-0.034883767	0.0014159307	0.047713883	-0.038891997
-0.027999036	-0.08085517	-0.0037753868	0.03342536	-0.035545014
0.03600245	0.0061176075	-0.044165354	-0.01457477	-0.015308324
0.017612841	-0.109356605	-0.1262078	0.010731658	0.009378015
-0.025309887	0.033847757	0.026012387	-0.04364741	-0.03948861
-0.035312574	-0.05538288	-0.032008443	0.012967706	-0.03550842
0.05013325	-0.089625366	-0.11303736	-0.003625577	-0.036035243
0.0040737395	-0.0045098816	-0.025479844	0.0019251646	-0.015130654
0.04080429	-0.030622452	-0.04575228	0.006944497	-0.025807679
0.0335211	-0.023338478	-0.010376313	0.04200454	-0.008903058
0.011356805	0.029056687	-0.013686536	-0.046624888	0.036692426
0.020109657	-0.042420015	-0.049294185	-0.035149798	-0.006591906
-0.007905307	0.009696521	-0.049303006	-0.05654105	0.015197565
-0.019394407	-0.07655275	-0.019950287	-0.025629448	-0.00083149364
0.0669034	-0.11789573	-0.1069888	0.04277549	0.033318825
-0.031978566	0.0007067705	-0.03227407	0.026167404	-0.015902689
0.022084642	-0.09304461	-0.047881518	-0.010734486	-0.016412025
0.022749567	-0.012964262	-0.043545336	-0.027079878	-0.016451618
0.040788807	-0.08424694	-0.08157904	0.015235136	-0.0025606512
0.033521984	-0.102979064	-0.027758505	0.035049096	0.04511975
0.0005547748	-0.027952662	-0.008043363	-0.019028028	-0.024516394
-0.020207787	0.021656904	0.017935343	0.022836901	-0.043352235
0.029163517	-0.022366049	-0.07308361	0.084593505	0.02349034
0.06772335	-0.06599875	-0.05518847	0.0031500692	0.03146744
0.0337315	-0.033462156	-0.038700256	0.033784367	4.004981e-05
0.040309995	-0.073726185	-0.07570228	0.017476644	-0.02182895
0.015693277	-0.0015315074	-0.012998457	-0.051103942	-0.012718299
0.006927511	0.038716517	-0.004510577	0.0187589	0.046897285
-0.023732388	-0.014708002	-0.022552654	-0.009672359	0.022469956
0.024581641	0.010479444	-0.046584494	-0.009778206	-0.014176375
0.06580333	-0.04722242	-0.064142674	0.06876616	-0.03465102
0.02876512	-0.03219428	-0.03297434	-0.034619704	0.04489578
-0.029362084	0.0034960653	0.021524386	0.026472941	-0.031162485
-0.0008452149	-0.061717268	0.008799761	0.03204991	0.04600447
-0.019206572	-0.029152814	-0.029744418	0.0582726	-0.028888518
0.000415532	-0.006234716	0.028880572	0.0035691538	-0.040621415
-0.007265894	-0.04115876	-0.084295735	-0.013602877	0.025344918
-0.013587446	0.02570173	-0.015291754	-0.020499185	-0.035459325
0.0040376596	-0.035356704	0.0096571045	0.030194402	0.02574182
0.033311505	-0.024578022	-0.013648531	0.023089772	0.026189746
0.08320934	-0.05197749	-0.06360364	-0.01651719	0.052812077
0.018267235	0.006891217	-0.017030608	0.021905543	-0.015720708
-0.012566801	-0.033640236	0.018453209	-0.008685251	0.0040542283
0.016791752	-0.03921629	-0.053194005	0.015564481	-0.03814604
-0.029527348	-0.019333676	-0.03162177	0.058101486	0.045578416
-0.009653943	-0.009740956	0.030933332	-0.05626674	-0.019426428
-0.030824374	0.028924812	-0.016011985	0.035948437	-0.018868415
0.034712143	-0.04620028	0.031221816	0.021817302	-0.031923506
-0.012826759	-0.012015283	-0.017014932	-0.015640952	-0.0050034635
0.057312045	-0.1475284	-0.097991794	-0.016703133	-0.009906646
-0.01601569	0.026266534	-0.004579749	0.004925887	-0.037380252
0.026120976	-0.13343759	-0.07330149	0.024382032	0.012767164
-0.023149785	-0.010320699	-0.012261188	-0.03057924	0.031422433
0.02998477	0.03164828	-0.019187618	-0.028780265	-0.020571345
0.039740045	-0.102045305	-0.09716175	-0.023565417	-0.0004249467
0.029676449	0.05098104	0.057699922	-0.019625342	-0.05041653
0.05903979	-0.069612056	-0.031722005	0.010396771	-0.002462159
0.023586849	-0.0052508796	0.0107457945	0.01568641	-0.01887739
0.020119423	-0.037390728	0.011590565	-0.028543945	-0.020309076
0.08950534	-0.10614894	-0.0467678	0.07651169	-0.0331064
-0.0025962107	-0.051190607	-0.04617493	-0.026887894	0.032006517
0.02616164	-0.04322718	0.011255803	-0.041128907	-0.004665957
0.015847256	-0.07636966	0.0039120996	0.015306752	0.0121674985
-0.0548315	0.011830477	0.029800422	0.03673025	0.036119334
0.018791562	-0.014422776	0.009579524	0.033457514	-0.00930078
-0.010137923	0.009745249	-0.02147276	-0.034461167	0.038543362
0.05736334	-0.07143276	-0.04003017	0.043049	0.045640856
0.05557326	-0.05716025	-0.0018004873	0.08474013	-0.05810204
0.040736467	-0.06467814	-0.012105474	-0.03474958	0.0011457838
0.04459772	-0.026815344	0.009600175	-0.02000415	-0.028758403
0.00022423867	-0.08281194	-0.1303364	0.015049771	-0.016842304
-0.029435204	-0.04928903	-0.02442505	7.608489e-05	-0.0048887185
-0.017765297	-0.045522436	-0.05620953	0.005525334	0.017240671
0.017311504	-0.12562487	-0.05677173	0.048474927	0.02531649
-0.03083917	0.010828953	-0.022505764	-0.02822367	-0.037932165
0.010441077	-0.06410116	-0.024995415	0.02237013	-0.0030602615
0.029842082	-0.10455756	-0.081924565	-0.008604947	0.03615918
0.03644059	-0.048467234	-0.057902865	-0.028057363	-0.032000285
0.0564806	-0.033773806	-0.04782139	0.0015660151	-0.027492313
0.030599464	-0.03730726	-0.03462703	0.03240045	0.0052076983
-0.00019980354	-0.059920426	-0.030565888	0.02527395	0.03446861
0.02426826	0.015611788	-0.03799399	0.00052264356	-0.03488362
0.036010366	-0.03236681	0.034697305	-0.019353477	-0.00030073707
0.029101651	0.003937158	-0.025071515	-0.0514744	0.0014967036
-0.010808084	0.016620668	0.047577813	0.042735953	-0.024944635
-0.037910283	-0.0063811564	0.01920962	0.019027675	-0.004158693
0.037215788	0.014737284	0.033373933	0.0673688	0.04324447
0.006100462	0.021963747	-0.02645431	-0.004934375	-0.002219487
0.05189615	-0.017501498	-0.06376058	-0.029096082	0.011269257
0.0034716597	-0.021455474	-0.01564073	0.043319806	-0.022374617
0.0037566184	-0.058435105	-0.010112514	0.021741405	-0.014338341
-0.02995754	0.028203327	0.050750226	-0.0033632475	-0.029999785
0.06484955	-0.09319971	-0.033769384	0.027582072	0.048926838
0.029526822	-0.055314478	0.036353517	0.028754156	0.037507128
0.018190924	0.006150994	0.022020508	-0.032075915	0.036385495
0.020216098	-0.022327142	-0.04021747	-0.011574067	0.011606988
0.044780806	0.025248287	-0.01539597	0.006516432	0.023737894
0.08306066	-0.046976697	-0.09173262	0.029948648	0.04531417
0.00013007497	-0.04796546	0.020761155	-0.014151912	0.029252907
-0.044727076	-0.005405435	0.005863363	-0.036094896	-0.03321848
0.010762064	-0.030198054	0.018159617	0.015121824	0.022728952
-0.013624201	-0.0043382817	0.015469615	0.019894842	0.011218649
-0.030074213	0.005061312	-0.013037106	-0.020145474	0.047291912
0.009138785	-0.09069682	-0.015687598	0.04212006	-0.021547958
-0.061358336	0.009502345	0.031531066	-0.03836993	0.0383824
0.049694046	-0.05080902	-0.10166659	-0.024344586	-0.028270938
-0.0044158143	0.003986208	0.019202907	0.01773863	0.05731939
0.0057958793	0.0055931075	-0.036514986	-0.045203153	-0.01776715
0.028056651	0.009322699	-0.025865573	-0.023919461	-0.04437502
0.012892755	-0.001453149	-0.014795121	-0.022911347	0.047192927
0.021014161	-0.005129061	-0.017492866	0.04244283	-0.034592804
-0.011149993	0.0030852873	0.044213243	0.021014664	0.03619728
-0.030059652	0.007836991	0.0019240244	-0.022739729	0.023511387
0.009893113	0.02964439	-0.0021351213	-0.047041822	-0.03260755
0.017467877	-0.053588733	-0.0210623	0.0025419102	-0.02770174
-0.028519029	0.036742214	-0.02836658	0.02686449	0.03375711
0.035975233	-0.037352357	-0.041299194	-0.027775653	0.023083739
-0.025643453	-0.016996542	-0.007196852	-0.036011748	-0.04172168
0.033546317	-0.010549155	-0.026138335	0.023219949	0.007487479
-0.0012360534	0.014870291	0.0027714446	-0.016704427	-0.0382186
-0.023328586	-0.02686456	0.03206041	0.0051973243	0.038084414
0.038013887	0.028151566	-0.028692434	-0.018564928	-0.0018053374
-0.00075628795	0.023159416	0.035387285	0.031688046	-0.024218513
0.06115118	-0.034153692	-0.015865512	0.031357594	0.05755117
-0.06310371	-0.022933256	0.01668178	0.0076544746	0.017023612
0.012742002	-0.06511135	-0.063137256	0.0075380323	0.02924132
0.00997182	0.016918952	-0.01834257	-0.031257834	-0.0007376997
0.033831984	-0.08611314	-0.04243152	0.042542916	0.02564185
0.0036973446	0.032213233	-0.00920678	0.024871072	0.026174085
0.026433345	-0.055362403	-0.019174624	0.051243804	-0.03605127
0.0028463644	0.009165264	-0.0013982881	0.049470216	-0.0063466406
-0.013206786	-0.09247435	-0.08823974	-0.019181166	0.0362309
0.051537156	0.017327612	-0.034700625	-0.0103244	-0.022769405
-0.012150733	-0.013540391	0.0112278685	-0.052428044	-0.001273489
0.007151822	-0.008990432	-0.065357745	0.0365237	-0.0007518175
0.034632422	-0.07372468	-0.04265258	0.04637608	0.0040738457
0.06047347	0.053846527	0.003379027	0.023871481	0.012196194
-0.033995815	-0.040167067	-0.049146984	-0.02291314	-0.02188985
-0.027496655	0.09175361	-0.017615968	0.040664088	0.0006682409
0.033252206	-0.07460086	-0.023108644	0.015752882	-0.020674378
-0.04287194	-6.5361426e-05	0.063544035	-0.037212517	-0.00097215554
-0.029746788	-0.025030214	-0.024326928	-0.02422895	0.03557168
0.010106142	-0.03675217	-0.040260434	0.020399343	0.021221466
-0.013468144	0.019448651	-0.0161323	0.03361348	-0.027741687
0.011534995	-0.013031904	0.0055443314	-0.025767611	0.025942888
0.024734208	-0.018826246	-0.032212187	-0.0313572	0.0310108
-0.0007923147	-0.069648884	-0.02244085	-0.013657845	-0.03153606
0.009164325	-0.10049033	-0.12609565	0.0550003	0.0017364084
0.059105374	-0.067412086	-0.06825911	0.003555111	-0.020572491
0.028939016	-0.024513233	-0.059745803	0.031951252	-0.026838964
0.019684343	-0.04561157	-0.09086859	-0.017240923	-0.02147728
0.020707702	-0.12838928	-0.13080251	0.0563382	0.044192925
0.061483327	-0.016781187	0.024497345	0.0011758263	0.029541535
-0.007963815	-0.022875413	-0.019596752	0.014562106	-0.024321971
0.081356935	-0.035296846	-0.024542969	-0.007369701	0.034259573
0.037641972	-0.011640181	-0.0025914945	-0.043840975	0.00010514176
0.01965693	-0.050177008	-0.028089216	-0.03508914	-0.042685002
-0.02570152	0.013892888	0.011736241	0.015218206	0.030416615
-0.0019598163	-0.042517003	-0.015748749	-0.027135344	-0.04472427
-0.026250303	-0.030960541	0.011396463	0.025580924	0.037033595
-0.0023641833	-0.042719156	-0.071092844	0.010712625	-0.03695339
0.016471075	-0.0025918814	-0.025332874	0.03926288	0.008743609
-0.029322743	0.05677652	0.012263989	-0.022553943	0.027752025
0.00039368146	-0.01728703	0.0025528702	-0.035714254	0.04113665
-0.012130916	0.027257461	-0.0021998598	-0.017944135	-0.011363246
-0.0049283155	-0.012394731	-0.039792728	0.041709665	0.037327405
0.010209608	-0.05478711	-0.049873766	0.032048184	0.0035546809
0.019461855	-0.07016529	-0.04833631	0.039014794	0.029379662
0.017767759	0.011873625	0.04758715	0.0006169762	-0.019362528
-0.03815508	-0.050986726	-0.022302737	-0.0037167228	-0.01826714
-0.04377418	0.001964011	0.013543744	0.014542289	0.0111204
-0.010377509	0.006497897	0.03142182	0.027280683	-0.03718742
0.038219575	0.009364369	-0.04941027	-0.022784004	0.039699517
0.03820104	-0.04179213	0.04042166	-0.03858315	0.026751487
-0.0058831694	-0.042671345	0.0076189386	0.011264379	0.045073602
0.023568247	-0.015868735	-0.081882454	-0.013992113	-0.035697557
0.032197285	0.032096125	-0.014162	0.019226523	-0.003195849
0.024496745	0.053544562	-0.010978138	-0.060821503	-0.045149926
0.0024048488	0.02207162	-0.027635522	0.0016440062	0.030452173
0.06628314	-0.08191973	-0.064888634	0.02051047	0.044750333
0.06784185	-0.08532574	-0.044928	0.056470983	0.0134674795
0.027658686	0.0016541178	0.03491605	0.028225502	-0.021586766
0.01055211	0.01374309	0.0009958332	-0.03967841	-0.046990834
0.027548453	0.0019595607	0.06033427	-0.011560764	-0.011413299
0.0815835	-0.10373972	-0.08346382	0.052488234	-0.01390876
0.029933644	-0.038471434	-0.0010133028	-0.040239338	-0.008153309
0.084194526	-0.079505146	-0.097382635	0.021304872	0.013172865
-0.0021404282	-0.010535898	-0.0424423	0.057363614	0.0115751205
0.052641626	-0.02483356	-0.03468324	-0.04927198	-0.026300257
0.012210614	-0.06508868	-0.0077549806	0.007420124	-0.005696516
-0.024095587	-0.0605498	-0.067530654	0.053611934	-0.031587858
0.014814804	-0.014501394	0.02839129	-0.052763373	0.017899998
0.019386478	-0.020380406	-0.000918847	-0.043657936	-0.0021440084
0.013295605	-0.14489475	-0.09294975	0.04922131	-0.006580719
0.019393066	-0.039540946	-0.003911511	-0.032814983	-0.03074225
-0.02895273	0.03701167	0.0025775367	0.0052741733	0.01655535
-0.021380823	0.06041961	0.014028562	0.029307935	-0.033185005
-0.052613996	0.0122183785	-0.045774177	0.050124295	0.038281467
0.0061302963	-0.012049342	0.0152723305	0.013288416	-0.03555326
0.01639915	0.04420811	0.016893854	-0.052715767	0.024057588
0.017547809	-0.04983469	-0.02952217	0.048595052	0.036286227
0.009322029	-0.061871044	-0.08430752	0.009306469	-0.012302125
0.022492489	-0.041295785	-0.057980556	0.0179744	-0.031947784
0.038233694	0.011033777	-0.036933586	0.048303608	0.0083872
-0.012524195	0.038838822	-0.038542114	0.03184312	-0.025446257
-0.012253675	0.04091436	0.015956605	0.00066654687	0.028795432
0.0112113785	-0.017871661	0.010356153	0.027704518	-0.004056534
0.036787372	-0.09685993	-0.036264405	-0.010900928	0.033054236
-0.035438072	-0.0038856775	-0.03762168	0.0133807715	0.021674907
0.07574703	-0.13334584	-0.17214896	-0.0030582387	0.04692621
0.016725775	0.0084775835	-0.044321556	-0.048384164	0.00073762954
0.03783404	-0.052134	-0.009685019	0.011240011	0.034395777
0.07198589	-0.1638999	-0.16657881	0.03020562	-0.002711966
0.01796534	0.00037223494	-0.0014728886	-0.027727507	0.021583999
0.059022844	-0.0015430562	0.036353275	-0.015857289	0.0363258
-0.05104688	0.02875343	-0.02252293	0.03273146	0.03290588
0.0154481325	-0.026385507	-0.008284289	-0.043955598	-0.0073804483
0.023007011	-0.036394406	-0.030936755	-0.023428785	0.023246527
-0.00078939094	0.07290883	-0.0005739784	-0.004465861	-0.030865945
0.037984367	-0.10022172	-0.07734259	-0.02644109	0.05084914
0.047271613	-0.010553251	0.050574288	0.045740876	-0.026614184
-0.004052132	-0.018802362	-0.0644629	-0.032234974	0.04595152
-0.012418409	-0.042022128	-0.043593008	-0.018739412	-0.045550704
0.03861863	0.021148024	-0.052533016	-0.0068112267	-0.018650448
0.00027811143	-0.0052152127	-0.013155238	0.025870053	0.01362221
-0.014936826	-0.009952168	-0.014645236	-0.019016689	0.0499262
0.053842314	-0.08481841	-0.07845511	0.024933299	0.047074545
0.08519752	-0.10581025	-0.0833887	0.024926057	0.0021309608
0.016169881	-0.039767787	-0.010723448	-0.011147759	-0.024961947
0.034427613	-0.012693397	-0.05628734	-0.04432773	0.0407796
0.0037264633	-0.03248135	-0.050723568	0.010976756	0.022784943
-0.007177031	-0.06442557	-0.09070497	-0.006404047	0.04052323
-0.031287823	0.026480868	0.017636735	-0.022209847	-0.037553266
-0.0061042258	-0.023787083	-0.027235044	0.01484551	0.009407051
0.023250997	-0.015591751	-0.038120102	0.022267641	0.040303722
0.073000275	-0.00719267	0.015113771	-0.022703122	-0.03532737
0.003154261	-0.06811514	-0.04695403	0.046309844	0.031679846
-0.016067417	-0.0032094014	-0.013093337	-0.01684704	-0.051132053
0.018535824	-0.03323655	-0.098773696	0.029775439	-0.035127893
0.00885777	-0.046099894	0.026952202	-0.026189651	0.027547635
0.021486582	-0.07129358	-0.019012472	0.034120288	0.025177699
0.044963032	0.021368846	0.027890272	0.011501953	-0.0026646182
-0.009369769	0.014243523	-0.025277708	-0.03499938	0.03230151
0.025603341	0.09615407	-0.009610156	-0.016526198	0.024680622
-0.021200847	0.013589905	-0.03858468	-0.007345891	0.002744387
-0.0021638323	0.024776606	-0.017578319	-0.00062638335	-0.0077860146
-0.00025190224	-0.0017295624	0.008014668	0.025480026	-0.043101903
-0.029731736	0.013424361	-0.02929899	-0.013962291	0.035403337
0.037092354	0.027818266	0.02229911	0.019293739	0.008043152
-0.011441592	-0.09336021	-0.069807574	0.027634613	-0.013452319
0.046537008	-0.0007138674	-0.025713228	0.037650708	-0.0007750727
0.044108685	-0.0214084	-0.027000308	-0.0015363606	0.035740655
0.037728656	-0.1264976	-0.019233694	-0.0087105865	0.029257214
0.06350209	-0.08555897	-0.08833564	-0.004825843	-0.011719519
-0.0319989	-0.050740555	-0.050116625	-0.036815554	0.014810504
0.063332334	0.014176634	-0.028317021	-0.01607273	0.030231018
0.019271508	-0.018196603	-0.0016053346	0.0048513478	0.004527009
0.0031268757	0.00748864	-0.031291887	-0.018590754	-0.027572043
0.020429676	-0.06893245	-0.075247504	0.020635195	0.054074273
0.001424992	-0.04320787	-0.05399147	-0.0390158	0.04255257
0.0016403215	-0.05017441	-0.018605376	0.021757334	0.03658034
0.03582003	0.022915237	-0.010333573	0.017419586	0.031902865
0.0020383867	0.03438786	-0.011084732	0.046568777	0.032891154
0.024484923	-0.10180374	-0.091584116	-0.0094953505	0.033457726
0.038007073	0.032310333	-0.04906391	-0.04225778	-0.02269656
0.057024054	-0.057352684	-0.06259847	-0.0070913183	-0.028972836
-0.030667348	-0.037083495	-0.039637398	-0.020514026	-0.03510849
0.014550552	-0.038745128	0.01959929	-0.0074961255	0.015626952
-0.035731096	-0.03394672	-0.0015327845	0.033829074	-0.00607588
0.0071486137	0.0021282062	0.014421845	-0.010176721	0.022908827
0.015496751	0.0011528535	-0.0030828954	0.029572088	0.038681768
0.05002786	0.005636526	-0.034063216	-0.026914101	0.036288407
0.07053589	-0.03170175	-0.047970206	-0.009653888	0.04523337
-0.012647922	-0.08750437	-0.09293432	-0.03606696	-0.0037383751
0.049772657	-0.09709937	-0.08256352	-0.0068387417	-0.04131505
-0.0059178956	-0.07912796	-0.029060492	-0.024256298	-0.034859672
0.009414783	0.038685184	-0.014122198	-0.03972392	-0.009021777
-0.053399675	0.04376348	0.03274243	-0.0062424624	0.034981918
-0.01248612	-0.020290637	-0.023641068	0.02038318	0.032885797
0.05197463	-0.077392995	-0.10715033	-0.017299993	-0.041898947
0.041350063	-0.020614082	-0.085305095	-0.004594791	0.030630514
-0.011589783	-0.035937943	-0.07361316	0.008477729	0.025762571
0.018700091	-0.029822264	-0.0136209335	0.019891549	0.026067074
0.023868144	0.012134655	0.022988264	-0.014583758	0.014403714
0.022690035	-0.10782269	-0.043215	0.01578835	-0.025548868
-0.011549339	0.03762031	-0.007095891	0.0010112877	-0.014474111
-0.023908176	0.03721459	-0.002397033	-0.013678835	-0.031207055
0.016786996	0.0037674052	0.033358756	-0.020232234	0.007519454
0.0023467331	-0.042341124	-0.015349588	0.04592128	0.04513336
0.04481137	-0.018275727	-0.029954806	-0.023052366	-0.020336682
-0.026912345	-0.0134174265	-0.041290395	0.038532034	0.020660289
-0.0068850685	-0.033063404	-0.004894824	0.026709476	-0.029748438
0.014985685	-0.06168241	-0.11488208	0.010950716	0.016756348
-0.009102116	-0.031489268	-0.0068410556	0.018993389	0.042222396
0.047563184	-0.08164419	-0.115928665	0.015885942	-0.02614218
0.05061962	-0.068150885	-0.06616649	0.049482647	-0.031275712
0.01340248	0.00016296879	0.0015673921	-0.022306757	-0.019272251
0.042715516	-0.031430762	-0.032520887	-6.350932e-05	-0.031313222
0.03302066	-0.019413523	0.010777466	0.0134926075	0.051139303
0.0025020477	-0.0146967955	-0.037499342	0.0027191762	-0.011420591
-0.0009847961	-0.007532269	-0.018765619	-0.008229292	-0.021563197
0.05145204	-0.05948321	-0.046816707	0.030130723	0.03320959
-0.01787208	-0.024999753	0.03081382	0.05205639	-0.024618577
0.024668831	0.046170667	-0.013443915	0.022577252	-0.02856491
0.024706883	-0.07986413	-0.09952571	0.032233667	0.027475769
0.038589627	-0.04957473	0.034864195	0.0031946248	-0.046191026
0.012378596	0.0023389505	0.04332054	0.005127984	-0.041604087
0.0022791764	0.01751381	0.009835223	-0.023166217	-0.024703477
0.020342426	-0.052114416	-0.079947196	-0.015399325	0.037452288
0.026818277	-0.01758418	0.041509856	-0.014785493	-0.024965236
0.02150239	-0.0705368	-0.09591734	0.009866807	-0.041392725
-0.02282034	-0.06497697	-0.09521272	0.03299538	0.0069676735
0.021433128	0.048227634	-0.019987768	-0.015618384	-0.012326089
-0.017444046	-0.034350045	0.043956064	-0.0414009	0.0138743585
0.03639024	-0.0855896	-0.13079536	-0.0051574665	0.011500855
0.009141825	-0.08345552	-0.030912317	0.018288782	-0.038718052
0.04778956	-0.042093027	0.011309335	-0.040333085	0.035738155
0.037667222	-0.010291401	0.005564307	0.031084448	-0.012128746
0.070206076	-0.07033227	-0.061569877	0.059023213	0.03294658
0.017320134	-0.030629588	0.0041810847	0.0020126787	-0.030566152
-0.035843585	0.031495858	0.011871923	-0.031382155	-0.01206215
0.0016274037	-0.0012776308	-0.01632484	0.016715653	0.03066027
0.020835273	-0.0032993304	0.023386544	0.028868351	-0.015426993
-0.03366743	-0.0033247871	-0.031775367	-0.047211263	0.038875256
0.029823735	-0.11331507	-0.033167515	-0.026090443	-0.0018111625
-0.031326182	-0.010141037	-0.012750141	-0.020445334	0.008983171
-0.03748695	-0.038680553	0.027267097	0.026700284	0.0024405578
0.056148276	-0.063683435	-0.063165806	0.043346163	0.014293142
-0.012685028	-0.0022443214	0.0336687	0.009888239	0.004940063
-0.010748713	-0.021223513	-0.038310476	0.026033293	-0.03650273
0.027537186	-0.044775195	-0.07689693	0.0074140523	-0.005284795
0.061819825	-0.022313554	-0.09829548	0.016294248	0.014590426
0.074276	-0.13343166	-0.1264825	-0.030888088	0.025145475
0.03445011	-0.005834747	0.044520475	0.018365286	-0.029865671
-0.013474789	0.03479283	0.0103818625	-0.033663362	0.015891915
-0.045809425	-0.0055401237	-0.023575513	0.035545584	-0.021139508
0.08740365	-0.059831094	-0.027144382	0.023274006	0.025066175
-0.01837735	-0.04016099	0.033111084	0.022385353	0.010529591
0.016003499	-0.011056692	0.010411414	-0.022363996	-0.0009919485
0.059621967	-0.019213408	-0.024507765	-0.0033338626	0.016007053
0.016772967	-0.009445817	-0.036700603	-0.004809173	-0.016190212
0.016522067	-0.0022786106	-0.04871203	-0.017395595	-0.0056694034
0.03930253	-0.024715526	0.033134427	-0.05185352	-0.00986237
0.066006914	-0.05484477	0.008236279	0.028557573	0.020464893
0.037014302	-0.086508386	-0.043783046	8.081078e-05	0.015536585
0.07714192	-0.055538524	-0.017241336	0.022328919	0.032345925
0.06766999	-0.06324509	-0.09592152	-0.028237384	0.030926453
0.04616255	0.023228198	0.0024395287	0.052146804	0.026130673
0.0035991115	-0.07508527	-0.032400057	-0.009636001	-0.04200429
0.03495946	-0.023085538	0.020032343	-0.036277242	0.05332588
0.031387914	-0.007323222	0.055073775	0.0049118735	0.007827749
-0.052538343	0.004049348	-0.027965747	0.012540225	0.030472578
-0.011578496	-0.016836053	0.056170512	-0.033862874	0.0236923
0.027330503	-0.03043172	0.02057736	0.0039209956	-0.033050694
-0.012692024	0.030150985	0.031468634	-0.02442937	-0.004237622
0.034862414	-0.0028597435	0.018132841	0.04524757	0.05039205
0.016546834	-0.1336437	-0.06874153	0.019119952	-0.016314507
0.041600097	-0.01439808	0.033753585	-0.004583353	0.008645804
-0.023406211	-0.034323882	-0.0025966119	0.018107517	0.04407905
0.052022696	-0.025682416	-0.0030102895	0.0007329323	0.03832054
-0.012731584	-0.054957576	-0.01937442	-0.0408959	0.02643121
-0.051159464	0.05796662	-0.015618097	0.009980946	0.030397441
0.020907395	-0.073677875	-0.06658497	0.021937853	-0.013615616
-0.010893292	0.05716715	-0.020830171	0.04278752	0.01751017
0.010288435	0.023808422	0.03218945	-0.015679182	-0.031143803
-0.0430943	-0.017518707	0.0051566907	-0.0317147	-0.008839575
-0.009166869	-0.033178452	0.0015833417	-0.04243232	0.039202295
0.050279308	-0.019205036	-0.017308645	-0.010187053	0.018125078
-0.008380877	0.008100171	-0.0010757333	-0.0056990343	-0.011709661
0.0062675225	-0.0199322	0.005782094	0.035512898	0.026507696
-0.023506744	0.008558768	0.026599575	0.035127554	-0.027966075
0.024248457	-0.026788313	-0.062072206	-0.009171792	-0.01806109
0.016533865	-0.004394374	-0.03200823	-0.026494028	-0.016286941
0.041925397	-0.10072888	-0.07720385	0.0566661	0.029517645
0.047232892	0.004680909	-0.026819943	-0.0063263294	0.0034658096
-0.01873533	0.0004223934	0.01390704	-0.009250512	0.029796148
0.0428184	-0.049087055	-0.0029249578	-0.027777594	-0.04195266
-0.030253181	0.0016273216	0.008305399	-0.03550578	-0.016010368
0.0048596514	-0.03430574	0.0068361047	-0.031112159	-0.029256573
0.016755622	0.0033262076	0.002514933	0.029854016	0.0022413912
0.034191493	-0.0044777757	0.025309237	0.00054331846	-0.012064697
0.02622869	0.046939213	0.019940369	-0.04365584	0.027590692
-0.043344572	-0.019821282	-0.02321604	0.0022437824	0.052857395
-0.016149245	-0.013704493	-0.007879864	-0.038568344	-0.023862364
0.0052218027	0.054150775	-0.018073987	0.015107355	0.021041218
0.035595894	-0.019008726	0.0023593775	0.04643321	-0.03174639
0.003899717	0.039601505	0.02579326	-0.009021668	0.015445068
0.004909111	-0.06042767	0.0035303938	0.049767885	-0.014879703
0.022318752	-0.0038748786	0.0024445355	-0.03550301	0.0008990182
-0.003771254	-0.016972268	0.041199077	-0.031300727	0.009743126
-0.010384884	0.007246759	0.028739145	0.00024901977	0.013413393
0.039885376	-0.023431638	-0.0011981725	0.0055843852	-0.017985245
-0.014732335	0.010607059	0.021837214	0.02523325	-0.030239152
0.040268663	0.030466836	0.05498889	0.015462921	-0.030528039
-0.020104265	-0.017983785	0.033085577	0.031769864	0.012767006
-0.018343309	0.022266457	0.01960569	-0.017220292	-0.037235577
-0.020329384	0.0061054835	-0.032961477	-0.021149652	-0.0029175933
0.021331636	0.03216642	-0.010440851	0.04222956	-0.045328096
-0.025232736	-0.03762225	0.004168938	-0.00047809992	0.040807977
0.018059455	-0.039262407	-0.0012388907	0.019785045	-0.03211939
0.05245774	-0.053942837	0.029127723	-0.017771933	0.016331332
0.00076982577	-0.022783428	-0.07468128	0.022570886	0.022855688
-0.01546134	0.029311381	-0.03167945	0.02327767	0.014919513
-0.021607628	-0.06999492	-0.07183133	0.028917614	0.015080286
0.012221666	-0.046367653	-0.0960199	-0.0086514065	0.024220921
0.04438311	-0.013194883	-0.057532605	-0.03183297	-0.036082473
0.028264208	0.006884068	0.011370517	0.01927194	0.037346993
0.0018534322	-0.054143894	-0.03598389	-0.01083598	0.023606371
0.028907282	0.055150054	-0.00049424806	0.040876113	0.03872988
-0.03772232	0.01365173	-0.046731118	-0.0029704361	-0.028103085
-0.03273213	0.00089626666	0.015723439	0.057396844	-0.0021916013
0.05334103	-0.06461928	-0.08637158	-0.018281095	-0.014802724
-0.0015999341	-0.053120054	-7.080603e-05	-0.011362589	0.025306897
0.004913378	-0.07944286	-0.12587686	0.052775756	0.018800817
0.087944314	-0.061799575	-0.07664265	0.035979215	0.03881403
-0.0013029568	-0.022959972	-0.06092439	0.005862094	-0.04114158
0.033189684	-0.046395957	-0.019513832	0.068113826	0.052146357
0.03257416	-0.036723446	-0.02630224	0.039044406	-0.004398293
0.029626617	-0.055700105	-0.048684657	0.020323832	-0.038402926
0.026140383	-0.025058957	0.009349917	0.019573323	-0.033212654
-0.019618964	-0.07580331	-0.04803018	0.025233565	0.00197475
0.015089586	-0.03770927	0.033027187	-0.03267822	0.01710655
0.036114078	-0.036463566	0.034572735	-0.04951655	0.012910277
0.028781874	-0.027586414	-0.0007627156	-0.039741196	0.02389702
-0.005596734	-0.0031513595	-0.016315809	0.020389212	-0.05779261
0.034495186	-0.14729132	-0.09435323	0.024412474	0.04170427
0.048707258	-0.0429973	-0.003791399	0.02438694	-0.026005557
-0.012824146	-0.019928785	0.013436933	0.038311012	0.029278507
-0.0074413125	-0.011242185	-0.014938392	-0.025071321	0.017822305
0.016948128	-0.03659676	0.02687425	0.027066918	0.039484404
0.04065076	-0.030423718	-0.0061453395	-0.02774439	0.019809982
0.085227475	-0.04982788	-0.0358228	0.008445804	0.05179864
-0.056500595	0.031099692	0.0009882086	-0.00762137	0.04049177
0.03268816	-0.03566339	-0.07496509	0.040240426	-0.044478927
0.030195726	-0.021692967	-0.039099816	-0.033118073	-0.019114677
0.004024195	-0.0066606593	-0.03712421	0.037906185	0.022564208
0.042752005	-0.037933927	-0.027318683	-0.006104836	-0.016663702
0.030724471	-0.025216458	-0.017934904	0.027896525	-0.01700198
-0.025927946	-0.0015425959	0.03916128	-0.023329092	-0.016553361
-0.032339722	-0.06027735	-0.0053482503	0.012442027	0.041151993
-0.024650183	-0.0077013774	-0.000638978	-0.002437221	-0.0041068685
0.039315503	-0.054802917	-0.034888443	0.034582708	0.0010254942
-0.008449354	0.004564539	0.041411355	0.004402265	-0.0056386315
0.03226957	0.04249714	0.013238584	-0.03571154	-0.03568604
0.013843507	0.017246528	-0.0036424948	0.008917972	-0.022308463
0.018682865	0.052255478	-0.033735294	-0.02270302	0.0030746188
-0.029573653	0.05882925	0.010485248	-0.0034028362	0.027391203
-0.015443346	-0.043300223	-0.04541185	-0.014241549	0.01582532
-0.03262506	0.006117127	-0.0043611666	-0.010636578	-0.02768758
0.034881324	-0.021237684	0.0074565774	-0.034938827	0.030983869
0.04052784	-0.015352617	-0.03945871	-0.016623024	-0.013499371
0.016196238	-0.023814034	-0.06861705	0.016039701	-0.036642604
0.047805145	0.03832399	0.029576251	-0.0233853	0.019628068
0.024705976	-0.008128143	-0.011468443	-0.025336197	-0.03955937
0.07218314	-0.093557864	-0.13293898	0.06523233	0.04104184
-0.037216295	-0.022810861	-0.007555408	-0.01237196	0.0145485345
0.013684075	0.013088239	0.0060124	0.0061232713	0.034229506
0.014131981	-0.009862396	-0.015435611	0.018351784	-0.038454138
0.019761153	-0.047741298	-0.01661763	0.012974254	-0.008016245
0.049767043	-0.045515455	-0.016467646	-0.013195054	-0.019001542
0.08019718	-0.101447985	-0.100599736	0.0038097866	0.017811079
0.055658415	-0.009724544	-0.010109822	-0.008514724	0.012104415
-0.024234721	0.026435575	-0.0084374575	-0.008805103	0.009316637
0.002164932	-0.056071773	-0.05408909	0.029037979	-0.016921353
-0.0018651744	0.026015755	-0.007524154	-0.0036312942	0.03712916
-0.011791066	-0.048483837	-0.047127582	-0.01962016	0.0123338215
-0.028233152	0.013444403	0.0031777401	-0.012575643	0.008805392
0.06317962	-0.062999934	-0.09357211	0.08898121	-0.011375505
0.027814392	-0.019474033	0.029507479	-0.03435439	0.018514121
-0.007912149	0.034076784	0.045010034	0.044503514	0.01915439
0.019936785	-0.023689462	-0.008981571	-0.02300758	-0.027031409
0.013009509	0.0146618765	0.031219525	0.027039392	0.021404587
-0.01682245	-0.052431084	-0.0065327934	0.006761605	0.01931118
0.022538425	-0.052946582	-0.029207526	0.023373634	0.0020883293
0.024599306	0.0062611112	0.01457787	-0.0006939296	-0.015352276
0.016670315	-0.029260598	-0.011907796	-0.017698025	0.015900515
0.06479798	-0.029222235	-0.04766544	0.03087369	-0.03967534
-0.012185454	0.03284663	-0.04199128	0.022689918	-0.00460217
0.04736501	-0.04634434	0.018681476	-0.009332308	0.01833619
-0.046672266	0.0066121663	-0.0046504014	-0.027244914	-0.010317789
-0.015351306	0.022544619	-8.634789e-05	0.023549404	-0.033947732
0.0071758493	-0.10381963	-0.032988273	0.029245874	0.00354327
0.039853074	-0.08578203	-0.032062713	0.03758993	0.018874701
0.049223665	-0.0074520945	-0.058998723	-0.039775997	0.044624392
-0.038961582	-0.013566371	-0.046866182	-0.018124247	-0.0041990024
-0.05506614	0.018486347	-0.025667671	-0.007896795	0.03550132
-0.007861357	-0.0012485893	-0.039719667	0.008683045	0.04245187
0.022279726	-0.10169225	-0.035625193	-0.0068991636	-0.031633478
-0.012173204	-0.09254125	-0.06409643	0.040540196	0.010972923
-0.0028484908	-0.01940606	-0.038574483	0.031965643	-0.0065252143
-0.019521957	-0.047873903	-0.033330888	-0.030553462	-0.031100301
0.036769103	-0.024247922	-0.025203487	0.039807435	0.054714866
0.06138988	-0.017713161	-0.07941061	-0.008024626	-0.0487844
0.064333454	-0.0034221115	-0.01711386	0.015712015	0.019370502
-0.032979146	-0.017223895	-0.02394082	-0.036037274	-0.007889946
0.009651522	-0.02677043	0.060286973	-0.021690775	0.01881692
-0.013260791	-0.033165865	0.01863982	-0.022903923	0.04092863
-0.009838853	-0.0051496876	0.021184845	0.030724283	0.017892303
0.07389766	-0.073715724	-0.044777226	0.041546155	-0.0028087914
0.03056343	0.017035585	0.010033239	0.006820547	-0.03850022
-0.0059016133	0.032834355	0.0006922421	-0.011373252	0.039463222
0.0022263906	0.052405003	0.0038880939	-0.027032403	-0.012763279
0.06411969	0.012065737	0.0023564128	-0.026032543	0.031922463
-0.032358777	0.01058776	-0.040031023	0.014620264	0.03387356
0.028059306	-0.017980188	0.022124339	0.0046559665	0.041006435
-0.009520497	-0.051859543	-0.050955463	-0.029776404	0.044326197
-0.03460968	-0.0013833968	0.0012379399	0.016350469	-0.008962137
0.013139926	-0.04051065	-0.07408097	0.011225511	-0.009174418
0.027098391	-0.038566142	0.009272472	0.007174189	0.027865596
0.07436528	-0.10486481	-0.11913174	0.025136705	-0.011512106
0.054336134	-0.019380666	0.04254738	-0.028648026	-0.022932881
-0.04672672	0.0045241974	0.05082927	0.02602146	-0.004608988
-0.0024823577	-0.03388986	-0.01772292	0.018321944	-0.009896908
-0.008264266	-0.08854099	0.004562825	0.07204344	0.04433275
0.0029396908	-0.05482843	-0.04622298	0.013453496	0.03628801
0.022399167	-0.036340553	-0.031227931	-0.010937828	-0.043408882
-0.021105966	-0.03500727	-0.07149531	-0.043435536	-0.0010908869
0.05075234	0.040342275	-0.035889428	-0.032588724	-0.028691309
-0.02317214	-0.011443501	0.05870534	0.03293948	-0.009409395
0.04873334	-0.04252785	-0.07554293	0.011812072	0.03291452
0.018046262	-0.006373663	-0.01325831	-0.0036062775	0.023258775
0.014446761	0.00032702996	-0.023418752	-0.032192554	-0.016655546
0.04475154	-0.08654433	-0.07010914	-0.02011663	-0.034669142
0.048196666	-0.011788154	0.020384269	0.041821517	0.001649309
0.022941468	-0.05389352	0.025042681	-0.05180562	-0.03880612
0.020536603	-0.031755727	-0.09728748	0.04102748	0.010739916
0.046428878	-0.024913946	-0.0038589821	0.01351562	-0.030127125
0.0025056223	-0.011274186	0.0062829205	-0.028121965	0.028398642
-0.026760947	-0.0158482	0.066160426	-0.034464635	0.024705902
-0.035498545	-0.011799553	-0.011414177	-0.02235056	0.02230714
-0.032247547	-0.0339534	0.038485747	0.017257292	0.03413403
0.051909033	-0.049806792	-0.0155246295	-0.0016059706	0.04267724
0.048876185	0.0073447106	-0.075249285	0.030887153	0.035331838
0.01512593	-0.06721057	0.02463225	0.030488862	-0.036676526
0.054193687	-0.07548343	-0.023271551	-0.028716946	-0.009194948
0.048065204	-0.033616222	0.007433477	0.02649684	-0.02583131
0.016513575	-0.03839527	-0.041819535	0.058340024	-0.014807155
-0.053446777	-0.013336903	-0.0077585373	-0.024410086	0.036099326
0.052353952	-0.050667066	0.013380864	0.030092997	-0.002612708
0.050779473	-0.06086848	-0.05898906	-0.023709197	0.007286153
0.0030415806	-0.025230162	0.0078038517	0.019591514	0.052052554
0.0059470506	0.00595202	-0.00014769268	0.04396861	0.052110374
-0.008366498	0.0051647774	0.033600535	0.02167571	0.019449718
-0.026793554	-0.04637605	-0.056504384	0.0027421573	0.020394936
0.08601952	-0.08950166	-0.06670151	-0.026504653	0.03657076
-0.006696364	-0.06562502	-0.046905104	-0.012999686	0.0081981635
-0.03141231	0.08515742	0.015830133	-0.029002191	0.03788195
-0.018952873	0.011770882	-0.056599233	-0.01894402	-0.014160107
0.02084255	-0.12765348	-0.028210685	0.028421804	-0.01341354
0.004093825	0.012277888	-0.0017285139	-0.0146343475	0.002149607
0.0064331824	-0.04425206	-0.009690994	-0.033103246	-0.025472376
0.023226302	-0.0281842	-0.025518369	-0.013116711	0.02186051
0.047129836	-0.049170718	0.016451377	0.04095533	0.010207645
-0.0030546512	-0.03462026	-0.05817859	-0.0060279267	-0.024893202
0.06874833	-0.07976385	-0.058740806	0.04633486	-0.03555196
0.006333972	0.026399616	0.035418827	0.033488575	0.02755084
0.04387565	-0.032637544	-0.057082344	-0.038869545	0.02788383
-0.044149507	-0.0013171715	-0.02757771	0.006731331	0.0485201
0.0031834044	-0.024412569	0.0043820394	-0.041191038	0.021755094
-0.036990855	0.035722367	0.047877517	-0.008663032	0.018836405
0.0142392	0.0019887867	0.057270814	0.03916803	0.029447775
0.04911856	-0.04555989	0.005400498	-0.008962059	0.015583943
-0.040404044	-0.009199933	-0.018992508	-0.007861985	-0.03225043
0.040307228	-0.10027084	-0.07486448	0.009529571	-0.041035
-0.018210752	0.00050970225	-0.03247584	0.009190083	-0.024376793
0.014515681	0.021229539	0.049050093	-0.012090075	-0.016277578
0.06568797	-0.045800555	-0.08772265	0.038433958	0.02069706
0.056451965	-0.070122354	-0.07308188	0.009415113	0.003649108
0.03451239	0.02444772	-0.06889069	-0.028128702	0.022725753
0.0038939638	-0.026660498	-0.020872314	0.0025963404	0.008758584
0.044277523	0.022213003	-0.0069529708	0.02579849	-0.03508356
-0.014457114	-0.021978738	-0.058490388	-0.021019973	-0.02509548
-0.04414091	0.027724419	0.0043795467	0.03031154	0.043487962
0.017293584	0.01046476	0.020092102	-0.0069489577	-0.03230954
0.049323965	-0.11294383	-0.040330864	0.016804347	-0.007630221
0.04559471	-0.06706934	-0.043799743	0.02320281	0.026365884
0.0028620167	0.04450895	0.02758053	0.040730238	0.04690812
-0.03916234	-0.039408453	-0.028790157	-0.028356643	-0.010389629
0.01945856	-0.016839823	0.022811022	-0.030521523	-0.032978073
-0.04441568	0.005367104	0.032638587	0.030069036	-0.013767236
-0.004792556	0.03474821	0.039894395	-0.04112384	-0.020833662
-0.038900487	0.0065099793	0.0035421038	-0.0119439885	-0.00026951794
0.019107457	-0.090948	-0.078718185	0.0041159107	0.017544858
-0.00778729	0.0012668438	-0.0053928895	-0.014554356	0.04756594
-0.0116131995	-0.06401016	-0.014190256	-0.010008229	-0.03347334
-0.024961859	-0.014077759	0.009599824	-0.042584803	-0.023596477
-0.017527131	-0.043970875	0.0054206005	-0.020550398	-0.00066567014
0.0013601078	0.019058013	0.007215372	0.041594416	-0.019044375
-0.03227667	-0.045028873	-0.0060020974	0.028677506	-0.018919736
0.026893787	0.016948909	-0.035190675	0.009514579	-0.0062086503
0.06396109	-0.05446078	-0.0149703	0.067484565	0.014777261
-0.014200624	-0.022099968	0.01682411	-0.013138838	0.032534827
0.048528638	0.0057996004	0.020681815	-0.007535653	0.022359412
0.048734657	-0.038550705	-0.03615855	-0.0015060265	0.025683723
-0.030724129	0.02199603	0.0049713887	-0.050740816	0.033229724
-0.00028821523	-0.057157613	-0.044778746	-0.0216787	-0.005983399
0.021491457	0.04978232	-0.02609714	0.00049343874	0.0313064
0.0125082955	0.04211267	-0.0068464107	0.009632519	-0.02667992
0.060057666	0.020718323	0.034112915	0.027339341	-0.02592052
0.011893408	-0.036635455	-0.03676015	0.053334463	0.004915065
0.07827659	-0.061350375	-0.013011806	0.042268325	0.023273347
0.0089131	-0.050882623	0.0038227194	0.04085919	0.01302581
0.022309396	0.06771983	0.011526747	-0.018326603	-0.008810276
0.009185876	0.004758894	0.00015477714	0.01923165	0.023368241
0.023302278	0.007156981	-0.031949654	0.0134172775	-0.028281372
0.009139385	-0.056168754	-0.027508738	-0.023714738	0.042393014
0.041613363	-0.002757319	0.0062169563	-0.030931128	-0.043500397
0.04301916	0.007590495	0.009302238	0.033366565	0.030858297
-0.0010080496	-0.0422857	-0.05003012	0.049194325	0.02778439
-0.017234193	0.020215979	-0.023375357	-0.008262315	-0.010551521
-6.731422e-05	-0.029578716	-0.004289248	0.04934384	-0.030054057
0.0049739573	-0.037069943	-0.053825725	0.0095952535	-0.017268404
-0.017164415	-0.008584149	-0.033052336	0.0043087266	-0.013344124
-0.033011764	0.046121318	-0.03385584	-0.024424952	-0.024020262
-0.04439017	-0.024651464	-0.035604753	0.021894056	-0.037085734
-0.037689645	0.0008170905	0.048705075	-0.024340246	-0.034403555
0.0006575782	-0.035039503	0.021494666	0.02498746	0.037339482
-0.037056375	-0.060153298	0.016018089	0.025452621	0.018574148
0.017718568	-0.034333277	0.0119496705	-0.025183976	0.036158863
0.007861655	0.01868669	-0.015045601	0.019073471	0.000115929564
0.04897358	-0.050343525	-0.0551157	-0.03234847	0.051293887
-0.010025772	0.0023824659	-0.018636033	-0.01540919	0.020990131
0.023363013	-0.030303326	0.03887092	0.027015816	-0.02122563
-0.0006236634	0.016352745	0.0060576755	-0.034023784	-0.008254044
0.009056838	-0.034971096	0.02203655	0.0058408985	-0.022442859
-0.017603999	-0.04512847	0.037098862	-0.032713957	-0.014366659
0.015723268	-0.03779084	-0.086496025	0.029414086	-0.04227999
0.05131451	0.013194221	-0.033527687	0.003528195	0.016285807
0.030671773	-0.017001621	-0.024386724	-0.047123864	-0.008806772
-0.049168177	-0.045456335	-0.002715242	-0.016339825	-0.019594867
0.004189928	-0.037891485	0.0011759121	-0.06752289	-0.0126704825
0.03393936	-0.033605043	-0.036089532	-0.0019871278	0.01112748
-0.014663316	0.008839166	-0.011569074	-0.047931988	0.0018628724
-0.015913611	-0.042939667	0.036876384	0.02769847	-0.025080657
0.028022122	0.050343245	-0.035814542	-0.0016618369	0.02429979
0.020266041	0.026336832	-0.018765189	0.03494092	0.034752443
-0.018003322	-0.025818817	0.021072835	0.043942638	-0.013120917
0.003599177	0.0013867606	-0.0051716324	0.0023949537	-0.008302308
0.014896568	-0.03803989	0.030446442	-0.024780553	-0.05012721
0.004838339	-0.073636614	-0.043814708	0.007640582	0.02628298
-0.012645708	0.030338716	0.0060074423	-0.029179396	-0.0076677063
-0.041322578	-0.0060899714	-0.051885985	-0.010515532	0.004337549
0.019661838	-0.04702673	-0.051800832	0.03989814	-0.020752978
-0.01245698	0.010814412	-0.05600385	-0.019879336	0.036153678
0.014140332	-0.040695257	-0.004299277	0.023866648	0.02719622
0.019420333	0.05350232	-0.029826563	-0.037495393	0.0028658723
-0.030251788	-0.054030474	-0.012043951	0.0069624176	0.048050597
-0.03185918	-0.027220711	-0.005214776	-0.022262948	0.038278744
0.032504354	-0.025446918	-0.02260331	-0.02121852	-0.017127613
-0.01660257	-0.037987836	0.008686493	0.008845829	0.04233886
0.025683118	-0.041772306	-0.00066743453	0.01026051	0.019551327
-4.701263e-05	0.0029935862	-0.019291623	0.00019185843	-0.01060249
-0.028142357	-0.017684206	-0.016611118	0.0041142385	-0.030460782
0.06190237	-0.0586371	-0.047945842	-0.025107982	0.014679547
0.01572206	-0.020672845	-0.09220967	-0.024904458	0.0013683083
0.041406006	0.009152627	0.007057172	0.006813172	0.040867086
0.0039289095	-0.040773217	-0.05190425	0.00832952	0.031767897
0.030245693	-0.018021869	0.020194603	-0.03267971	0.048359465
0.016130075	0.0044980505	0.03065485	-0.011775158	0.0027799313
-0.0053062374	-0.039531063	-0.09043425	-0.002454183	0.0011306265
0.015395246	-0.018709311	0.0031376502	0.0071912394	-0.004808835
0.021028055	-0.02930899	0.022828488	-0.021893084	0.032925643
0.01710643	-0.03973709	-0.07570794	-0.021508822	0.023532374
-0.036567934	0.025656791	0.012701728	0.03228277	0.007201519
-0.036233615	-0.031121876	-0.03378687	0.031796016	0.050175905
0.04154719	-0.009337125	0.018965725	0.0031678693	-0.0071278457
0.0131471455	-0.038369816	-0.04012369	0.023180045	0.0076223793
-0.011422182	0.0057496666	0.007900386	0.052671168	0.016028102
-0.008569853	-0.061654456	-0.06137603	0.032619398	-0.03350602
0.027133835	0.0090687545	0.050050635	0.047274496	-0.01809252
0.04341118	-0.03500578	-0.09010748	0.0070117456	-0.0033924757
0.021001564	-0.020893402	0.054277584	0.013231549	-0.035857953
0.014055604	-0.029960446	-0.040988907	0.009377955	-0.029992001
-0.053592864	-0.014513793	-0.020114692	-0.011433808	0.011549459
0.0366232	0.0079738395	-0.007481604	-0.025525592	-0.011660365
-0.024036473	-0.012137039	-0.027145786	0.0061638434	0.036359508
-0.02201197	-0.016152456	-0.06426201	0.023849117	-0.028779369
0.02242536	0.0046723615	0.014950951	0.061551213	0.043525275
0.036149338	-0.0853676	0.009413268	-0.017715834	-0.028709047
-0.05392332	-0.029038228	0.05741457	0.03271499	0.0334221
0.03333873	-0.023715803	-0.088169344	-0.026761081	-0.0074468213
0.0030442534	0.012667534	-0.051346324	-0.02004625	0.03682026
-0.04827256	-0.008362642	-0.013409812	0.017151529	-0.0014851869
-0.025538916	-0.047061834	-0.034832608	-0.037127696	-0.001669483
0.04163736	-0.019436723	-0.03698732	-0.034217212	0.023220468
0.04819194	-0.052809764	0.023888623	0.040610876	0.046933386
0.032809015	-0.018737104	0.006980639	-0.014346827	0.0118456725
-0.03087731	-0.03364094	-0.028983593	0.011554898	0.011075352
0.058749188	-0.05007892	-0.03770796	0.049331225	0.012580488
0.03838996	0.030279279	-0.051870823	0.0066460916	0.008677605
-0.010799674	-0.09296935	-0.042787272	-0.031475175	-0.030949466
0.052002493	-0.07140908	-0.022224193	-0.01632554	0.06376107
0.00243974	0.025315719	-0.03572538	0.06107989	0.00041967415
-0.034699246	-0.012758328	0.07435654	-0.019879045	-0.044021934
-0.0045694597	-0.0063686767	-0.012487566	0.011773613	0.025585739
0.027302442	-0.06302272	0.020731239	-0.016153848	0.057733033
0.003983441	0.0025408282	-0.021252876	-0.0060249786	-0.004292079
-0.010624048	-0.041218344	-0.01525795	0.039600044	0.025620783
0.024750138	-0.067313425	-0.046341795	-0.012952682	0.03616904
0.012228072	-0.023204371	-0.026742125	0.037274826	-0.008785551
0.052942086	-0.032139625	-0.05199855	-0.011982873	0.0063807033
0.015706928	0.02010833	-0.0013262704	-0.050142866	-0.019625632
0.012432422	-0.030269131	0.010058112	-0.031648107	0.0042718695
0.037265677	-0.018817233	-0.001185603	0.011882974	-0.015138174
0.0033322838	-0.021068817	-0.024530396	-0.04232494	-0.016745826
0.060879253	-0.01786527	0.027068684	0.040404186	0.041530028
-0.01998987	-0.006889914	-0.043682627	0.015546239	0.058769993
-0.014030646	-0.036355995	0.00567686	0.057100914	0.00086188724
-0.0082481485	-0.033719208	0.013813248	0.011945911	0.02339193
-0.028419515	-0.021917425	0.022439102	0.043310754	-0.040739223
-0.025671761	-0.021747483	-0.03888325	0.019433914	-0.016743815
-0.024724852	-0.0190915	-0.01242936	0.03450686	-0.033582624
0.010073878	-0.039672844	0.018567426	-0.015945977	0.035442244
-0.049860764	0.044886418	-0.0067414045	0.0048950403	0.023892846
-0.022246934	-0.008237387	-0.05229457	0.019284446	0.02217063
-0.024383808	-0.03975184	0.00090379576	0.0030486926	-0.0027552757
0.020418417	0.02050752	-0.028273502	0.032948453	-0.021737687
-0.033542115	-0.046850875	-0.03049298	0.012314838	0.010265527
0.027395567	-0.05473557	-0.0066797775	0.021380244	0.04271176
0.07844973	0.002445098	-0.0035939196	-0.027037812	0.014101569
0.05880676	0.030608756	0.015995754	0.024497733	-0.01957594
-0.04006873	0.008372411	-0.0430994	-0.038985513	0.041345604
0.01887755	0.018194912	-0.019833764	-0.012580953	0.035316885
0.0073859724	-0.050292026	-0.013554027	-0.00021810108	-0.024119858
0.047905054	-0.01229182	0.010560399	0.044256676	0.028928405
-0.020682013	-0.037140682	0.0113629	0.028862609	-0.01177101
0.020871997	0.0024588066	-0.02149906	0.02048729	-0.027871862
0.020327903	-0.06926436	-0.011563802	0.031563263	-0.004006169
-0.028346376	0.0049770013	-0.022549791	0.0076966756	0.033536315
0.039532725	-0.046012912	-0.004288311	0.04529076	0.032568414
0.043147095	-0.007657635	-0.049023148	-0.038544927	-0.02767166
0.02066944	-0.052805055	-0.008141991	-0.013591571	0.03166496
0.0028299892	-0.0034930191	-0.023816368	0.033419833	0.0022549569
0.036428686	-0.011490645	0.0063629695	-0.0026768968	-0.00161482
-0.03395977	0.018762315	0.006178261	0.004545647	-0.009360772
0.026161484	0.023513634	-0.054608937	-0.01900468	0.03643661
-0.041232787	0.022801297	-0.042918503	-0.012465784	-0.014179197
0.034460418	-0.03395244	-0.01883799	0.019077169	-0.027040148
-0.0062667485	0.013147789	-0.019317003	0.01711712	0.035195377
-0.011954873	-0.057248626	-0.0569185	-0.0063124835	-0.021637317
0.017751303	0.0032835482	-0.042987954	-0.04759537	0.027516043
0.011585471	-0.046847906	-0.04663328	-0.029827392	-0.02995629
-0.01335175	-0.022444885	-0.06783571	-0.033468023	-0.0233896
0.061551493	-0.008236357	-0.04522956	-0.008184179	-0.0015394157
0.011227134	-0.049303	0.010730753	0.004076843	0.04485285
0.016517494	-0.046453398	-0.034300074	0.0028637901	-0.010113997
-0.012273242	-0.026609432	0.010662195	0.0043531246	-0.009643817
0.051897664	-0.031993292	-0.05804534	0.031179393	0.006497123
0.019530613	0.029170245	0.009319519	0.04494255	-0.0053131683
0.013118373	-0.062438462	-0.01876806	0.044884842	-0.0015189252
0.028263325	0.07735925	-0.028401569	0.030235976	0.0032370104
0.0061722286	-0.012343404	-0.034430668	-0.0024317626	0.0061715264
0.038583674	0.037859857	-0.004146635	0.034125555	-0.027117595
0.013786509	-0.03818608	-0.069534875	0.053014882	0.02762577
-0.022846	-0.030528137	-0.061683558	0.042272512	-0.015336284
0.008377718	0.005969529	-0.043026373	-0.0014156483	-0.008750705
0.018088026	-0.0079228245	0.043980356	0.021287696	-0.032579448
0.058014963	-0.056005713	-0.023107065	-0.034019183	-0.0015321755
0.04956696	0.038137913	0.028016247	0.011037375	0.006373823
0.025661329	-0.028618004	0.021001734	-0.0032858863	-0.041470405
0.04125219	-0.02638384	0.025384007	-0.028479803	-0.004459021
-0.0017533968	-0.072155274	-0.04874291	0.030001743	0.032115187
-0.005787253	-0.0081773745	-0.02522405	0.034772903	-0.023455963
-0.028213719	-0.08046875	-0.05152983	0.04670266	-0.055006973
0.0073145474	-0.00738214	0.029640548	-0.02458224	-0.027881658
0.019017212	0.0087647075	-0.054721873	-0.010111439	0.043812543
0.03684414	-0.022796689	0.026712997	0.0015080129	0.041958194
0.033537876	0.042301577	0.024842978	0.02487331	0.032813955
0.026691372	0.027092643	-0.025807874	-0.0020039086	0.005826381
0.028779043	-0.051083997	-0.0926155	-0.013820265	0.0036257424
0.06074083	-0.034142837	-0.0063751377	0.0009211944	0.053555787
0.016453188	0.014954906	-0.040753387	-0.024103772	-0.005354359
0.032114286	-0.023670271	-0.016489016	0.039238192	0.04252394
0.006912843	-0.026462331	0.008418419	-0.015777927	0.02164876
0.044963527	-0.05924927	-0.04095187	0.039100867	-0.0029791042
0.047525536	0.0068382067	-0.015613012	-0.044636287	-0.05014427
0.011679103	-0.050173473	-0.024102814	0.00345287	-0.0047534234
0.03416626	-0.012574598	-0.04139779	0.017438628	0.003557066
0.020829756	-0.039368458	-0.013466398	0.048237655	-0.025626028
-0.006632579	-0.009290197	0.05448144	0.029065693	0.027864888
0.0035370982	-0.029121421	-0.03258054	0.025138093	0.024429575
-0.0025731476	-0.092082135	-0.044898625	0.061345354	-0.03036937
-0.02283771	0.013478723	-0.011060739	0.0024029813	-0.02728701
0.042098366	-0.013829232	-0.0630533	-0.0007280589	0.0029685874
-0.0028113786	-0.011341709	-0.008336359	-0.032439623	-0.004275163
0.050555926	-0.021909758	-0.025299124	0.05386258	0.050982762
0.009346572	0.015953286	0.01867687	-0.04806623	-0.012269621
0.0047606803	-0.030295908	0.028266823	-0.03942486	0.008446277
0.027668368	-0.039739598	0.03453304	-0.034608018	0.030646829
0.013816471	0.014189164	0.05773283	-0.0014807669	-0.018196996
0.0028103997	-0.054712366	-0.049492788	0.00037554436	-0.009203656
0.05424683	-0.0093191955	0.009885858	-0.0015493754	-0.0019679766
0.009040871	-0.052423254	-0.06132306	0.02786246	0.021845315
0.00953276	-0.018578958	-0.020231288	-0.02488704	-0.00466183
0.019723313	0.034053195	-0.0396978	-0.018327415	0.0047049075
-0.011034379	-0.0228095	-0.00232212	-0.041442208	-0.02921693
-0.0061980863	-0.020127067	-0.012151042	0.037339404	0.014412742
-0.0128564695	0.004963027	-0.011616329	0.037358407	-0.012775847
-0.018120585	-0.008798245	-0.054967966	0.063484415	-0.004702598
0.028666	-0.016762275	-0.042664185	-0.020753216	-0.036845237
0.042123362	-0.027042389	0.024237769	0.010324245	0.04545844
0.044597965	-0.024729343	-0.027851425	-0.012481505	0.009894058
0.008462466	-0.040918715	0.002778304	0.007635794	0.0048477855
0.0104118595	-0.084524296	-0.03817032	0.025770739	-0.0041395673
0.026218925	0.0247558	-0.04206681	0.017695291	-0.008884166
0.008824719	-0.048584964	-0.022139052	-0.016726669	-0.021715356
-0.028551273	0.0071335863	0.023841498	0.018687546	-0.039558217
0.01638669	0.017148914	-0.010286112	-0.02672567	-0.054671843
-0.0015506914	-0.00701454	-0.057558786	0.006213318	-0.028604204
0.026601052	0.021133471	-0.054144695	0.06402949	-0.00015162579
0.0052841855	-0.004826923	0.007827603	0.03137938	0.03801912
0.03204876	-0.030085497	0.011441702	0.03793565	-0.025349421
-0.01890735	-0.052255176	0.0012355305	-0.0030218372	0.048843693
-0.049215954	0.011707427	-0.0064195795	-0.026011825	-0.010626662
-0.005451042	-0.05216298	-0.103286505	0.0022329255	0.018740498
-0.011176993	-0.01844292	-0.010056987	-0.008644172	0.0043699774
0.004005677	-0.023862194	-0.017085863	-0.034856483	-0.008584972
-0.0373121	-0.010630298	-0.010471196	0.004824203	0.0019211299
0.060168177	-0.028402617	-0.07741744	-0.023537833	0.027374728
-0.013393122	-0.026241414	-0.042684704	0.03229115	-0.004585051
0.07264708	-0.018879583	0.011758412	-0.023180544	-0.013535533
0.017417302	0.013320796	-0.03553906	-0.034334496	0.011041477
0.025722107	0.019327307	0.001390741	0.02338643	-0.015358245
0.049782995	-0.012823987	0.005869617	0.03957241	0.009221075
0.025188446	-0.015466757	0.0076933247	0.014731268	-0.007696463
0.0026886074	-0.0153144	0.020792203	-0.018605256	-0.043499593
-0.00644856	-0.022410331	0.012945638	0.015385322	0.018692873
-0.015659843	-0.0064949724	-0.021904308	-0.03656371	0.0068584867
-0.022555307	-0.050883528	-0.014690471	0.03216914	0.037407335
0.022878135	-0.01261751	-0.066704996	0.0010683842	-0.0069952286
0.017390374	-0.07338326	-0.045605227	-0.014765551	-0.016122153
-0.003761088	-0.031993095	0.012689386	-0.010582089	0.05450277
-0.025723865	-0.044563767	-0.036857124	0.026816273	-0.03350087
0.0364905	-0.006391994	0.011818441	-0.03407503	-0.030690134
-0.032888588	0.02037399	0.0035607927	0.0275174	0.029919898
-0.0020089874	-0.009942476	-0.025902858	0.021742517	0.0010364461
0.037810262	0.010507498	-0.010325555	0.0312688	0.023977868
0.040556043	0.023710085	-0.054327607	0.006914547	0.018466359
0.031515677	-0.030942695	-0.055910267	-0.0059628817	0.039480165
-0.039022014	0.024339823	0.020378977	0.031699117	-0.01886871
-0.008920256	-0.005557199	-0.027850555	-0.01178352	0.012666874
-0.010451867	-0.0023127329	-0.045933288	0.03324957	0.03135085
0.04886244	-0.067372724	0.037299752	0.010028891	-0.040955182
0.022596503	-0.019861443	0.006847639	-0.057437956	-0.021283388
-0.012292496	-0.049868785	-0.08797067	0.021729743	0.01014796
0.02280514	-0.06068374	-0.029432805	0.050128262	0.033355687
0.01154802	-0.07526666	0.002437272	0.036321077	-0.017758258
0.02579214	-0.08843128	-0.0065920735	-0.022017471	0.030913332
0.041652523	-0.049437355	-0.032737505	-0.0036957911	0.05018284
0.019835128	-0.030502887	0.025685066	-0.058691643	-0.003198011
0.035317354	0.004050941	0.056975767	0.011123993	-0.043875176
0.09003262	-0.03571177	-0.024132513	-0.013216151	0.0035532317
0.03785494	-0.022672152	-0.025070926	0.037585422	0.014156914
0.048883516	0.012851684	-0.023366168	-0.046548195	0.04129515
0.031686693	0.039237622	-0.022560835	-0.006618372	0.0018243006
-0.020432888	-0.026034495	-0.043089073	0.015639784	-0.007692129
0.0454887	-0.04811437	-0.0032616763	-0.035925377	-0.02490529
-0.026280964	-0.08237801	-0.0334387	-0.013715603	-0.008654253
-0.011538812	-0.02995549	-0.017088844	0.050044365	0.039929792
0.055672113	0.010836384	-0.03272148	0.007340086	0.032385316
0.022166302	-0.012388384	0.043673046	0.0019686646	-0.012429086
-0.04277948	-0.00072340237	-0.02511866	-0.024037493	0.018244324
-0.012626885	-0.0122012235	0.038471673	0.03172391	0.050114885
0.024618687	-0.08968896	-0.06509272	-0.033344746	0.019385062
0.03983087	-0.0149061885	-0.0043289224	-0.0211494	0.005228741
0.052960485	-0.003008292	0.006222772	0.046917096	0.042045366
-0.021193473	0.012754712	-0.01776964	-0.010018154	-0.032613266
0.015001513	-0.022808047	0.018437114	-0.03278777	-0.035962123
0.00875719	-0.037708767	0.0036845356	-0.0045429314	0.036199532
-0.0024087215	0.030038046	0.03688709	-0.056376714	-0.04204662
-0.012452219	-0.033032395	-0.073287785	0.057281576	0.042024046
0.04501181	-0.030710688	0.006588036	0.040210526	-0.0025621955
0.0233055	-0.02443387	-0.0013751762	0.03255216	0.024161506
-0.024535457	-0.025267567	-0.0010238898	0.0014071483	-0.0042953445
-0.025634818	-0.06327834	-0.00024726425	0.007504923	-0.02261066
-0.022911958	-0.003393375	-0.07662759	0.008332821	-0.017242657
0.06524879	0.025283163	-0.009499587	-0.027293703	0.049524914
0.036629092	-0.0022945197	-0.006963741	-0.041072804	-0.019314898
0.022129076	-0.013138238	0.016765183	0.03555034	-0.017341333
0.036069013	-0.015235535	-0.019724328	-0.0274954	-0.032624606
0.05590546	0.01511163	-0.033286605	-0.024111517	-0.023828367
-0.026796969	-0.017330889	-0.0005820914	0.049028594	0.0265321
-0.0387883	-0.04967805	-0.046256524	0.0356532	-0.014074439
0.016100902	0.015569624	-0.05757645	0.048721336	0.0022024424
-0.017248616	0.010063226	0.02063891	0.019036911	0.037630692
-0.03936639	0.007996428	-0.019960681	-0.009474167	0.031736143
0.0043881796	-0.020073438	-0.025226029	0.00048296514	-0.022594316
0.04849967	-0.08103541	-0.010327161	0.056685682	0.01791212
0.026684333	-0.020915825	-0.018884525	-0.036414094	-0.022262901
0.027212936	0.035474792	0.027243773	0.035602197	0.036911532
-0.015244064	-0.081413664	-0.040712535	0.04379443	0.025844652
0.009898148	-0.013631821	-0.0047592763	-0.02132526	-0.012965819
0.012760791	-0.043175813	-0.062256053	0.05300087	0.013579179
0.06794671	0.0028402477	0.010395653	0.004162954	0.004217968
0.053324595	-0.037201453	0.0067979777	0.028441677	0.048570722
0.044982582	-0.073436506	0.016141798	0.00486018	0.00926234
0.026128706	0.0035249898	-0.004803353	0.04901354	-0.054410703
-0.01703186	0.013447032	0.004331955	-0.009658274	0.039468266
0.041346915	-0.030204216	-0.02160228	0.0026312228	0.024751002
0.038255308	-0.007851106	-0.014777625	-0.023991788	-0.003334809
0.025798269	0.039662942	0.0053226226	0.034203008	0.036913082
0.007054621	-0.026558187	0.042327214	-0.042169813	-0.033180404
0.025161367	0.031445738	0.0024190913	-0.014298553	-0.033693682
0.023432972	-0.04558431	0.043096114	0.045989957	0.01893684
0.019285847	-0.046129692	-0.034371506	-0.016732955	-0.033831045
0.012024016	0.012164352	0.0019733857	-0.0014744725	-0.034138095
-0.03083516	-0.027507616	0.022079408	0.032439962	0.027052186
0.012424001	-0.009279441	-0.025328033	0.014574752	0.008566129
0.021253828	-0.0040075155	-0.029518308	0.029993182	-0.038148873
0.053851496	0.01303436	-0.03699099	-0.033929955	-0.0028606362
0.021786455	-0.023975099	0.042072244	-0.011963599	0.004106076
-0.007827531	0.025919	0.023725906	-0.014531182	0.031134766
-0.032689296	-0.03923761	0.02739094	-0.023705633	-0.0028252096
-0.031732284	0.007578278	0.014233519	0.0072005363	0.02041493
0.049390912	-0.03430161	-0.0074756965	-0.031813517	0.057230186
0.0119083505	-0.04485008	0.0058469763	0.018659625	0.027451484
0.031614475	-0.0043801516	0.010236579	0.07966177	-0.025827825
0.030244276	0.00987596	-0.016125226	0.017335046	0.018930556
-0.042205386	-0.0045230323	0.00338229	0.0051011406	0.03525087
0.033458948	-0.025536537	-0.018943485	-0.031936027	0.047168516
0.0031121017	-0.0140608465	0.01723384	-0.012538074	0.00434938
0.041691385	0.012352474	0.057019453	0.014359187	0.030272646
0.045357093	-0.05817376	-0.0089381	-0.021606974	-0.00453055
-0.013705649	-0.030941756	-0.005184308	0.026004117	-0.038953084
-0.017822072	-0.028690211	0.024063066	-0.038588587	-0.03941686
-0.020216659	0.02190174	-0.035120916	-0.025885776	0.032549113
0.010186827	0.006622549	0.009998654	-0.06110556	0.011637582
0.038263265	-0.033855084	0.0036896714	0.007715982	-0.03946678
-0.0029606307	-0.030883875	-0.02871651	-0.008241187	-0.05285153
0.017449789	0.001979684	-0.016414195	-0.028381178	-0.017914323
-0.02915121	-0.053391807	0.03924702	-0.00022926435	0.009743048
-0.003168482	-0.042474996	-0.057390414	-0.0015457749	-0.002869571
-0.044696003	-0.021069653	0.01249918	0.031528234	0.0450165
0.000993196	-0.056898303	-0.05186717	0.0004313441	0.02797444
0.029643573	-0.051568512	0.035879083	0.003982863	0.042105205
0.010729588	-0.022334337	-0.018807871	0.0090998	-0.026850233
0.042520802	0.024277968	-0.054886162	-0.03073568	-0.0190538
0.03231592	-0.0056093237	0.0027384416	-0.004192428	0.03041657
0.020722974	-0.0055120317	-0.01982379	-0.030466147	0.045188628
0.047374886	0.025018394	-0.04819441	-0.0077023925	0.018496966
0.03480083	0.019698113	-0.014499228	0.042747773	0.03186851
0.046953168	-0.020910438	-0.03299643	0.07259795	-0.022163942
-0.028371219	-0.042997815	-0.06912231	0.043485418	-0.035176847
-0.00083730253	-0.024077494	-0.041932452	0.02305147	-0.032812666
0.0136212865	-0.008708864	-0.016589561	-0.027140208	-0.008113494
0.022107137	-0.04807966	-0.010191286	0.0005566519	0.03380218
0.028737646	-0.014225786	-0.060520563	0.014004169	0.009896795
0.0005378224	-0.017689366	0.045851428	-0.014278231	0.0056036157
0.027708052	-0.012211034	0.039963413	0.028199341	0.004400335
0.011980678	-0.060889915	-0.08666776	-0.001395669	0.03851156
-0.041450497	-0.02831488	-0.023101913	-0.004435226	0.04279298
-0.024470188	-0.06986284	-0.062911354	0.03972948	-0.017160997
-0.030738344	-0.016446525	0.012029019	0.01731846	-0.011540616
0.0044984454	-0.01842042	-0.0138090905	-0.0009399512	-0.03866706
0.058908485	-0.08913367	-0.01726804	-0.025634581	-0.025987484
0.03348366	-0.06442173	-0.011859385	-0.009321328	0.033178564
-0.007878053	0.02164023	-0.007496555	-0.01884395	0.009041682
0.06601271	0.0007613731	-0.008643106	0.029183893	-0.005932886
0.023839356	-0.08799578	-0.022969482	-0.014766932	-0.0420961
0.026605466	0.004085807	-0.019311624	-0.03973155	-0.0047254176
0.0074690855	-0.040559974	0.0078072594	0.05160979	0.01015437
-0.0019961519	-0.054227613	-0.059989307	-0.020276688	0.011031851
0.009414351	-0.022621559	0.01928189	-0.019262593	0.046158254
0.032284662	-0.09034713	-0.010845861	0.011575605	0.039302554
0.025966974	-0.034983102	-0.03531788	-0.0050738235	0.0045033214
0.039006848	-0.0057282755	-0.015182159	-0.026304655	-0.0027278303
0.025193809	-0.04997575	0.009524697	0.015126482	0.032670233
0.02946755	0.018922227	0.012717712	-0.021466838	-0.0095149465
-0.020889675	-0.048398525	-0.003009769	0.0030678345	-0.014474233
0.053669356	-0.008632129	0.017380519	-0.033200987	-0.03488385
0.061657507	0.03572651	0.009122451	0.034380686	0.049892038
0.024869723	0.010017525	-0.026020823	-0.026934493	0.035333317
0.037284184	0.019139053	0.029528173	0.03690983	0.043323617
0.011496988	-0.038461518	-0.00066447846	-0.045806795	0.036392096
0.03390082	-0.06377753	-0.04876342	0.027403206	-0.03304334
0.031202663	-0.0029644528	-0.04311633	-0.02067101	0.015228649
0.017753083	-0.038046647	-0.060199015	0.009381986	0.025075732
0.013363481	-0.03783668	-0.010602211	0.042063277	0.011025519
0.0027221178	0.07138859	-0.00579179	-0.0002934267	0.027964437
0.009181585	-0.030566031	-0.028176697	0.001021167	0.030545687
0.0058994493	-0.006593474	0.037667435	0.04224438	0.03414575
0.051312856	-0.013059067	0.016578943	-0.02612753	0.038103413
0.0261822	-0.01898135	0.019990895	-0.00067588553	0.04188794
0.043269236	0.022220738	0.0014589058	0.01714623	-0.005216515
0.01469837	-0.05457994	-0.031850677	-0.0028197374	0.04121457
-0.011125987	-0.011269838	0.006948212	-0.0017750442	0.04334602
0.039954104	-0.0036857792	0.037956227	-0.01845143	0.01546912
0.023092788	0.008274055	0.0184381	-0.049374223	-0.015401772
0.029469024	-0.044953782	-0.009570175	0.0057684407	-0.004209224
-0.013828738	-0.08361848	-0.039329678	0.0016925886	-0.008503221
0.032375854	-0.055969488	4.5664914e-05	0.05617596	-0.009941623
0.041592907	-0.037339974	-0.014975174	-0.025783412	0.0030393526
0.015952967	0.023028892	0.019157033	-0.0025259147	-0.034515608
-0.0002990862	-0.08631086	-0.040455	-0.002840578	-0.018340003
0.019270414	-0.021203652	0.0042949286	-0.035427637	0.061533477
0.02370808	-0.0018416285	-0.030185731	-0.0114347795	0.043382395
0.077847734	-0.018294401	0.007263367	0.018557772	0.021467026
0.041432537	0.041607875	0.00022665971	0.04728585	0.050708912
-0.016281083	-0.0066685686	0.009609916	0.008071598	0.034609564
0.006528311	0.019557873	-0.035723414	-0.050599705	0.023845041
-0.006647896	0.029038342	-0.0037997866	0.054358263	-0.040157095
-0.0030647346	-0.003919657	-0.039128784	-0.029134598	-0.0030441293
-0.009901023	-0.030987753	-0.030470626	-0.027580347	-0.002578878
-0.0058463817	-0.031077627	0.012299724	-0.03662527	-0.019172085
0.060847152	-0.048224643	-0.028672246	-0.032960545	0.035289805
1.6508973e-05	0.007959922	-0.04147503	0.028510721	0.010455372
-0.020067085	-0.02635693	-0.060923457	0.001981601	0.017216273
0.0694963	-0.03298716	0.00048779108	-0.005636514	-0.013487716
0.03553631	-0.058327325	0.02308785	0.024881609	-0.0072042067
0.012830848	-0.029429648	-0.055379447	-0.010217471	0.0070175924
-0.018763456	-0.03446915	0.04393504	-0.027722526	0.046329483
-0.013347629	0.05701205	0.048964083	-0.018215591	-0.0048926384
0.024316225	-0.03358994	-0.09421653	-0.027706815	-0.017081404
