0.0	0.0	0.0	0.0	0.0	0.0	0.0	0.0	0.0
-0.029365798	0.049193356	-0.012857088	-0.04123524	0.008304181	-0.03007796	0.056396097	-0.018430652	0.05120367
0.053834334	0.07802497	0.013271389	-0.074953675	0.012651812	-0.016667672	0.024826055	-0.08894454	0.031853303
0.02444881	0.08974503	-0.023841085	-0.010277594	-0.041510537	-0.023375742	0.013630654	-0.022858484	0.07592211
0.030285843	0.016815847	-0.07729132	-0.014988356	-0.04584137	-0.0624758	0.030832369	-0.074923836	0.0860392
0.028938185	0.03920506	-0.0387087	-0.044588037	-0.026906945	-0.02661799	0.07237268	-0.048738588	0.049777813
0.08320608	0.017904375	-0.084104344	-0.06786174	-0.07976715	-0.10717543	0.027654218	-0.047142472	0.06804275
0.054808665	0.054694917	-0.017532712	-0.059354633	-0.07728395	-0.047122773	0.023499863	-0.06006607	0.095961384
0.07563081	0.02177612	-0.0896835	-0.06511429	-0.07142994	-0.04516402	0.06935814	-0.095104165	0.088847116
0.053697955	0.05217362	-0.061247945	-0.027988577	-0.014842203	-0.032803584	0.040201064	-0.100459374	0.023992362
0.08654269	0.023021093	-0.009668508	-0.036384612	-0.0044657863	-0.026615212	0.03039519	-0.051276833	0.013356351
0.08943785	0.07745408	-0.07266398	-0.058550112	-0.123832464	-0.051394537	0.050047915	-0.066532195	0.09788299
0.08748732	0.022232493	-0.019204704	-0.08858871	-0.05339772	-0.07779912	0.078226484	-0.06845703	0.07327017
0.023133036	0.07535108	-0.03675321	-0.07592579	0.0007348691	-0.07346471	0.039180268	0.00018916806	0.057201393
0.06348535	0.081046835	0.0036982156	-0.035933953	-0.05981717	-0.056605093	0.057590872	0.011003015	0.07716379
0.08607545	0.046488788	-0.05479828	-0.08953448	0.0033972804	-0.027846165	0.02252826	-0.0597816	0.0043881093
0.03117089	0.08562714	-0.10044315	-0.03694129	-0.04548837	-0.0463354	0.07114901	-0.08298186	0.022313133
0.032108407	0.0051159314	-0.053429577	-0.031620957	0.0019369549	-0.023848971	0.059685204	-0.01815171	0.092516765
0.0027348679	0.08987972	0.00813383	-0.00850472	-0.061838422	-0.022994084	0.019769829	-0.06567872	0.032025058
0.094179265	0.05186158	-0.05126397	-0.012320497	-0.008235199	-0.07666627	0.02625436	-0.054437574	0.029793749
-0.01616355	0.030753687	-0.0062078224	-0.04391106	-0.03941336	-0.05740809	0.027307358	-0.07555861	0.069267996
0.09488394	0.021357212	-0.063814014	-0.034847543	-0.029830925	-0.030287448	0.059922326	-0.028943935	0.029141126
0.07696227	0.0679702	-0.03078195	-0.06818388	-0.029699942	-0.021463275	0.00859688	-0.008440391	0.06327937
0.06067205	0.0104682455	-0.06749759	-0.047746804	-0.0548697	-0.05483572	0.034883477	-0.022979302	0.004337273
0.0056195436	0.034988265	-0.02823274	-0.06080662	-0.07502215	-0.09296106	-0.0027257958	-0.036363736	0.0012692044
0.05539034	-0.024605485	-0.058813874	-0.056454174	0.0007690914	-0.0015870305	0.028348116	-0.0581284	0.06265558
0.016773429	0.041111402	-0.051128574	-0.017462999	-0.06880365	-0.101045854	0.047210228	-0.023907483	0.022178799
0.030197825	0.044200864	-0.07646598	-0.08522876	-0.024520168	-0.012204454	0.05013796	-0.007876901	0.060887914
0.031358533	0.095927596	-0.0640382	-0.10674296	-0.026457023	-0.079960905	0.002482675	-0.083922915	0.021217177
0.07799798	0.007880438	-0.029721275	-0.073111534	-0.022942714	-0.005209763	0.04541939	-0.0067005395	0.059229687
0.061113212	0.07681649	-0.060835354	-0.06570679	-0.031206924	-0.086405426	0.034082536	-0.042765692	0.024850752
0.021357175	0.059370838	-0.013986904	-0.028165556	-0.087033555	-0.010493825	0.025715606	-0.011761603	0.06355603
0.0616872	0.04201693	-0.05608902	-0.011333226	-0.06296876	-0.021646263	-0.022006363	-0.024774723	0.025295526
0.039347198	0.04776914	-0.06540497	-0.04729093	0.0042644846	-0.0522408	0.05537845	-0.028574398	0.063061066
0.013887093	0.04952758	0.0033997155	-0.03667949	-0.0718517	-0.012766582	0.06029438	-0.060960434	-0.025204534
0.035907555	0.028086876	0.015695173	-0.061468817	-0.04141334	-0.06705293	0.016221987	-0.035552625	0.038434703
0.0044650617	0.0017450035	-0.03231136	-0.0494046	-0.032368556	-0.05948001	0.033808637	-0.08248757	0.03031209
0.053883273	0.05017496	-0.092284605	-0.086033724	-0.10242785	-0.017224357	0.07841552	-0.02036236	0.051130332
0.020166382	0.054833118	-0.051923566	-0.07192895	-0.042676263	-0.017024249	0.048221756	-0.04967279	-0.010778553
0.0073266104	0.01743184	-0.06428508	0.0019513051	-0.011244411	-0.048669957	0.05431844	-0.04941085	0.08133488
0.046140004	0.014405131	0.001978017	-0.06820404	-0.06989074	-0.023120062	0.07206646	-0.034580886	0.061658766
0.046788868	0.043679133	-0.057353523	-0.0041657574	-0.056216743	0.01814978	0.0040297173	-0.033222623	0.06734003
0.10612925	0.018299276	-0.10535539	-0.03557227	-0.07961869	-0.0207601	0.018490594	-0.026465548	0.043465216
0.113665275	0.105721004	-0.042145304	-0.09529126	-0.10272975	-0.05145912	0.017910266	-0.038808484	0.052292563
0.072192945	0.07636029	-0.025375303	-0.0970584	-0.044991232	-0.10937362	0.031808853	-0.09711945	0.03157383
-0.0036752182	0.0812614	-0.09415412	-0.007627343	-0.079463854	-0.060417704	0.001653448	-0.004636778	0.036256664
0.046218153	0.06766166	0.017032612	-0.062299237	0.0031793448	-0.042150844	0.07763264	-0.07971853	0.07368846
0.028664043	0.04923808	-0.0054929727	-0.058828086	-0.0102729155	-0.029322004	0.07607996	-0.07278577	0.032404818
0.007816765	0.011909742	-0.006870437	-0.06553606	-0.006057182	-0.08610989	0.07097935	-0.027266527	0.067863606
0.055241026	0.021609789	-0.038872737	-0.10111838	-0.044712555	-0.08301358	0.06326367	-0.08925272	0.030706348
0.018613562	0.026149912	-0.036563594	-0.01696452	-0.0852662	-0.060946215	0.007821806	-0.020490643	0.05762222
0.041940957	0.046243835	-0.006624139	-0.04065127	-0.0644103	-0.05113465	-0.015155588	-0.0017599865	-0.0058104247
0.09157065	0.004010436	-0.0063808756	-0.03117574	-0.0031998118	-0.08116816	0.0437175	-0.0016407158	0.071424596
0.031296924	0.026562013	-0.02633882	-0.09092369	-0.04592773	-0.021329422	0.07228572	-0.058413655	0.05782673
0.04096772	0.017631559	-0.058205992	-0.046651945	-0.0432507	0.021285212	0.014844033	-0.065142825	0.06284518
0.029176923	0.08348791	0.0060077384	-0.033813663	-0.04054295	-0.067516394	0.05654398	-0.021817582	0.023087492
0.04702449	0.046106335	-0.02714661	-0.020458898	-0.056461066	-0.018541345	0.035380825	-0.012742935	0.018601427
0.06096159	0.025441939	-0.032262616	-0.023691626	-0.003142437	-0.04306563	-0.002576246	-0.013715897	0.06407341
0.117790714	0.045831453	-0.035691295	-0.051320624	-0.036703493	-0.060454644	0.07348405	-0.034878097	0.08245777
0.13968265	0.04614816	-0.07352031	-0.07240745	-0.08253778	-0.07547112	0.057727613	-0.08146338	0.14233303
0.026342642	0.07484746	-0.051336084	-0.048624463	-0.06981319	-0.03850349	0.014528382	0.0027208603	0.037081573
0.05395661	0.03188968	-0.035896294	-0.055999458	-0.017149383	-0.07062229	0.061592657	-0.014189804	0.080303326
0.083738215	0.06449012	-0.038203347	-0.03828258	-0.04881582	-0.07635146	0.04847302	-0.075002335	0.02912496
0.022002509	-0.0024166855	-0.07541088	-0.06735989	-0.010189161	-0.061640833	-0.004592562	-0.003926419	0.06250098
0.05394503	0.0427892	-0.04783143	-0.07523034	-0.03130444	-0.012864644	0.034207646	-0.07548809	0.046820275
0.017028298	0.08750106	-0.03476813	-0.01544099	-0.0944424	-0.08896628	0.016418217	-0.027750257	0.009309588
0.091772206	0.06739966	-0.03784263	-0.037836667	-0.014676867	-0.027710961	0.07247318	-0.0021805153	0.029001836
0.07269532	0.010728818	-0.015481885	-0.03964678	-0.06766491	-0.096647374	0.049955416	-0.051233936	0.011675364
0.04777849	0.049482	-0.009147031	-0.004457843	-0.0294308	-0.068890356	0.04943566	-0.014744244	0.03426933
-0.008514914	-0.007280238	-0.08164901	-0.08111803	-0.081135325	0.0041949325	0.027679408	-0.027160196	0.04468306
0.037633713	0.009702819	-0.025483625	-0.081902064	-0.03773703	-0.062943205	-0.011128847	-0.06720308	0.003749363
0.014261709	0.07543678	-0.003761702	-0.048539307	-0.07275085	-0.047901604	-0.01694915	0.004793353	0.06998048
0.05027182	-0.004597159	-0.040599667	-0.06903438	-0.028804123	-0.004579729	0.06862579	-0.04074353	0.0018813314
0.03574176	0.059993654	-0.07246754	-0.03984271	-0.02384298	-0.029544342	0.03812091	-0.018894203	0.07298242
0.026528481	0.02102425	-0.047389418	-0.043651193	-0.07027988	-0.024208823	0.054311827	-0.07870659	0.019583229
0.09138375	0.05208932	0.0018270367	-0.029999925	-0.05757391	-0.005597506	0.068470076	-0.02899125	0.013118676
0.032821383	0.0837378	-0.011332258	-0.03281858	-0.08270536	-0.005139664	0.060212214	-0.06886783	-0.007136003
0.035514798	0.006641375	-0.082850285	-0.024425583	-0.059780385	-0.07443242	0.01514947	-0.09977504	-0.0014504131
0.07089687	0.050971165	0.0051319716	-0.028649433	-0.046510477	-0.051804174	0.04273681	-0.025508553	0.016878886
0.008282177	0.0803487	-0.007744887	-0.06342968	-0.09014613	-0.0282117	0.08631229	-0.023981063	0.07808363
0.02471685	0.058901034	-0.0034784407	-0.040873095	-0.052751165	-0.076662764	0.0073343082	-0.07347998	0.01640706
0.03429619	0.044056077	-0.07051583	0.0045158807	-0.016252505	-0.0107116075	0.041738536	-0.07161636	0.05745524
0.005890607	0.09836744	-0.020399906	-0.052546293	-0.042369936	-0.07996674	0.044248454	-0.02523347	0.00012219255
0.057877943	-0.00033758377	0.011787797	-0.080320805	-0.0564841	-0.022518246	0.045625467	-0.044380035	0.021418292
0.01775042	0.057651997	-0.06132629	-0.07351711	-0.010921452	-0.04238996	0.062973775	0.009672635	0.0041741645
0.023449553	0.07174445	0.0023729953	-0.03860613	-0.06793425	-0.052527163	0.069630794	-0.06270187	0.042328272
0.031713046	0.071422346	-0.00048470477	-0.054435883	-0.062125873	-0.02325238	0.026439762	-0.04918315	0.06618099
0.07237052	0.0784806	-0.063012324	-0.04280335	9.14706e-05	-0.00046624482	-0.005928766	-0.006858989	0.08029543
0.079879105	0.06643495	-0.024660137	-0.024494406	-0.045452747	0.0032304383	0.020697027	-0.011963449	0.076900825
0.03877307	0.031894013	-0.054763127	-0.06922982	-0.029344896	-0.024583645	0.079180375	-0.071193375	0.06251929
0.1065348	0.06834684	-0.07029424	-0.05968262	-0.11667668	-0.028049354	0.08302769	-0.020129208	0.099179015
0.040422108	0.073519126	-0.02661031	-0.06288435	-0.010701707	0.004824957	0.049855582	-0.0052872673	0.05237148
0.06149027	0.030306922	-0.04666206	-0.059703987	-0.03178427	-0.043616544	0.030841798	0.00018285173	0.054351874
0.08371773	0.008544198	-0.098822646	-0.044246208	-0.055370245	-0.04078354	0.049419966	-0.0107905585	0.010374364
0.058913685	0.047808833	-0.07733392	-0.0131461555	-0.024482887	-0.017799344	0.06337784	-0.062194526	0.04474476
0.056935236	0.06324215	-0.076512724	-0.018220317	-0.034788247	-0.039331883	-0.016799632	-0.06005506	0.00732543
0.043359984	-0.002137261	-0.062665306	-0.03437638	-0.064071216	-0.08255319	0.0249223	-0.008514391	0.06797975
0.01174614	-0.00097025913	-0.05212578	-0.053138256	-0.086472034	-0.052114476	0.029913928	-0.022174155	0.054876443
0.0016916074	0.066194765	-0.020416299	-0.08046269	-0.024650782	-0.0034045698	0.021232214	-0.02459659	0.08166602
0.060580406	0.051436648	-0.028900418	-0.020856535	-0.054202493	-0.010314817	0.078888156	-0.039973598	0.033567436
0.073010735	0.077628575	-0.07808282	-0.059433516	-0.018654643	0.01616005	0.05826417	-0.07372008	-0.01457942
0.07759172	0.071483195	-0.027733328	-0.055345073	-0.005895185	-0.064717874	0.011781774	-0.001068353	0.050309245
0.07769983	0.018333193	-0.028605562	-0.07776627	0.0049402397	-0.07195173	0.023201574	0.00068971724	0.050359584
0.07128993	0.06955977	-0.020524051	-0.062352512	-0.004982379	-0.048481118	0.07424781	-0.040112443	0.009192346
0.03073613	0.05091936	-0.021537354	-0.02050999	-0.02198729	-0.03356736	0.009616906	-0.09054596	0.026472334
0.09327313	0.0120749865	-0.028791348	-0.05317525	-0.06446325	-0.045257863	0.010973712	-0.053342845	0.03432703
0.053541485	0.07030895	-0.0182741	-0.0023293027	-0.040981386	-0.05619185	0.02196705	-0.041227285	0.045113172
0.020008724	0.07389876	-0.03328353	-0.069260746	-0.015693104	-0.039673	0.03891217	0.009280604	0.013911817
0.05843819	0.071170814	-0.030775579	-0.0841028	-0.031323563	-0.045133118	0.07954775	-0.006546928	0.020242754
0.006744182	0.058619957	0.011683151	-0.040023107	-0.061874926	-0.0610458	0.036132727	-0.032949977	0.050262008
0.016850818	0.08488221	-0.10441663	-0.0424012	-0.0536737	-0.014529417	0.078078255	-0.013743474	0.045249745
0.056417137	0.02731559	-0.0866305	0.005688853	-0.019162025	-0.08055637	0.052428883	0.0091098165	0.033705387
-0.0094576115	0.03897116	-0.014266003	-0.06602145	-0.06651844	-0.063611634	0.029116424	0.004586697	0.07067155
0.06574905	0.08347931	-0.026457148	-0.08075405	-0.08564295	-0.057886116	0.07328932	-0.023855066	0.083283946
0.021848314	0.002174193	-0.0015030316	-0.05579126	-0.073639415	-0.08665562	0.030000487	-0.018776681	0.019828403
0.05929791	0.026216598	-0.01966085	-0.03432036	-0.031444024	-0.05724898	0.0736339	-0.051285274	0.067947544
0.08020804	0.068561345	-0.055220068	-0.04046629	-0.037412196	-0.030525455	0.035041057	0.0044799135	0.03975618
-0.014287592	0.037214845	0.007906741	-0.024175722	0.0024722428	-0.0516134	0.05117189	-0.069829926	0.02077599
0.043665133	0.026746515	-0.05182955	-0.029781593	-0.076904856	-0.0434734	0.039941117	-0.04934501	0.0018387367
0.056919392	0.09611961	-0.07547463	-0.03481479	-0.04270828	-0.08304361	0.017836163	-0.08785811	0.0615651
0.07464969	0.016586391	-0.07527116	-0.03913947	-0.08463171	-0.021738183	0.01763451	-0.038794458	0.07718443
0.0054959394	0.059819076	-0.061470635	-0.033841982	-0.05178699	-0.07606192	0.04052422	-0.03149161	-0.006559684
0.040654268	0.038265776	-0.015902182	-0.025498923	-0.05763877	-0.032400563	0.059342273	0.0014550667	0.04048948
0.016570304	0.02315957	-0.053834558	-0.019270357	-0.081529625	-0.018755788	0.07921389	-0.012483472	-0.012428857
0.053975936	0.003024069	0.015966568	-0.02224359	-0.043381236	-0.058632527	0.0326248	-0.023251718	0.051857997
0.048148192	0.017964186	0.001703085	-0.057312503	-0.07534858	-0.062837936	0.0757037	-0.006547758	0.028041897
0.0584921	0.09560579	-0.012815947	-0.01323503	-0.011368177	-0.07925196	0.09780909	-0.09828097	0.019454299
0.033027202	0.0952793	-0.07848704	-0.040704094	-0.10827186	-0.08173773	0.060460925	-0.061298553	0.035748743
0.007531124	0.069844484	-0.012371074	-0.036135912	-0.0886633	-0.001967135	0.009315137	-0.054238886	0.02497997
0.07218217	0.018979266	-0.07695895	-0.035870828	-0.07263099	-0.012319019	0.074330464	-0.08204987	0.072454564
0.025324555	0.04620623	-0.029220475	-0.068448685	-0.050525006	-0.060079914	0.04450954	-0.05198663	0.021842424
-0.0007573459	0.014036466	-0.012460565	4.178549e-05	-0.069093056	-0.05277973	0.0028179977	-0.010150074	0.060657695
0.078354925	0.053190865	-0.0923568	-0.053072896	-0.024500184	-0.047538187	0.022886066	-0.026638413	0.0046851356
-0.0068492885	-0.005809924	0.0052434234	-0.0644102	-0.084098086	-0.010603242	0.059881393	-0.01701497	0.09149382
0.018466754	0.051297132	-0.076295175	-0.0071979747	-0.06799505	-0.050312106	0.025118135	-0.005714435	0.08256911
0.042982336	-0.005050769	-0.0018883335	-0.048533507	-0.019100985	-0.055893518	0.023906263	-0.048448175	0.030956328
-0.0010310258	-0.017618086	-0.01032693	-0.016320538	-0.057968494	-0.05848584	0.04828528	-0.06276529	0.030931242
0.06100575	0.09876107	-0.039901905	-0.14053527	-0.043088317	-0.09824036	0.09112867	-0.059071634	0.043127906
0.005909451	0.020038933	-0.036033176	-0.062591	-0.09521107	-0.0960752	0.06724169	-0.03828924	0.045636218
0.028818483	0.10717705	-0.059090618	-0.025145916	-0.016037654	-0.037433214	0.036704306	-0.079355344	0.022338664
0.03739615	0.100591324	-0.042190902	-0.012270585	-0.067662776	-0.0013038001	0.057590425	-0.017909689	0.010327379
0.0076710633	0.11076516	-0.006613188	-0.09095669	-0.08579394	-0.07274126	0.07183742	-0.03222307	0.0019975975
0.05719201	0.0432451	0.0033159375	-0.04602609	-0.06580055	-0.07166785	0.016208094	-0.016992413	0.08809755
0.08000475	0.029793821	-0.06168947	0.0053998944	-0.06828747	-0.0061190906	0.0011657315	-0.044704136	0.04503995
-0.017021796	0.07542526	0.011126457	-0.06346517	-0.073307104	-0.01889297	-0.0009899492	-0.07083775	0.0071862554
0.059549633	0.014431939	-0.034290828	-0.018181698	-0.04470267	-0.036907136	0.092047535	-0.004603934	0.08493137
0.036809124	0.027043998	-0.060308434	-0.014909812	-0.044234738	-0.019833544	0.08905749	0.0031400518	0.05237778
0.03600502	0.04776787	-0.033630475	0.00057816046	-0.08394058	0.0010395925	0.017009694	-0.046212155	0.018811507
-0.002226593	0.036706373	-0.02959357	0.009836551	-0.020790966	-0.064997934	0.05121277	-0.031774327	0.007377632
0.018173331	-0.0053574387	-0.013264613	0.00395212	-0.0037209205	-0.071891375	0.05542789	-0.07870071	0.08343265
0.04159273	0.055171322	0.00067306473	-0.0033009397	-0.05684563	-0.055423662	0.012833273	-0.051974732	0.052807648
0.059191197	0.019206498	-0.07954116	-0.06302995	-0.018491307	0.014859445	-0.0038939565	-0.029627273	0.056007326
-0.018515542	0.021815412	-0.013601718	-0.05731448	-0.018744776	-0.05082688	0.02484012	-0.042842623	0.028160054
0.015259556	0.047477234	-0.021922903	-0.005992247	-0.038833972	-0.09723728	0.06312225	-0.032475986	0.062473897
0.071947806	-0.02131536	-0.03988905	-0.0328641	-0.073747866	-0.07306726	0.06272331	-0.05158062	0.03889843
0.05448898	0.041847024	-0.056381445	-0.06827463	-0.063694306	0.019701155	0.0026678115	-0.06896881	0.0072138193
0.03595001	0.04263379	-0.05083423	-0.02378147	-0.013411226	-0.08358249	0.03955653	-0.020487338	0.04863487
0.06253607	-0.018807823	-0.034371957	-0.029401548	-0.036631394	-0.074803405	0.0049814885	-0.049895495	0.06125294
0.076502636	-0.0051655313	-0.008386579	0.003467758	-0.05104821	-0.0721394	-0.0029761337	-0.021591714	0.05988007
0.024446484	0.004248981	0.008266718	-0.06619216	-0.005721265	-0.029429326	0.030569578	-0.07494469	0.025965456
0.017155442	0.07137627	-0.032540686	-0.08884391	-0.014875119	-0.0042587346	0.03896461	-0.09220521	0.010307036
0.02433731	0.05571584	-0.037350792	-0.067180194	-0.07571281	-0.024007197	0.061442368	0.0052525876	0.028172774
0.06633833	0.08418644	-0.020467967	-0.07277015	-0.034791294	-0.002756013	0.020795299	-0.060830224	-0.0036525058
0.071903765	0.051898994	-0.013546287	-0.03919414	-0.05996029	-0.069227114	0.06252693	-0.076590456	0.011312142
0.00074706844	0.021575594	-0.055900272	-0.038499013	-0.009225153	-0.08986888	0.03862319	-0.094468474	0.0074999537
-0.009674887	0.078470565	-0.014248062	0.01744223	-0.0075227395	-0.067549825	0.089345336	-0.08364466	0.020315189
0.04444897	0.060492832	-0.031781543	-0.017671471	-0.05795848	0.03025448	0.003181574	-0.05024941	0.020034976
-0.019145485	0.014546282	-0.048688706	-0.015784731	-0.058874346	-0.046448886	0.030514313	-0.06717031	0.036099426
0.015651481	0.076552406	-0.05343329	-0.067290395	-0.08331901	-0.04656009	-0.014577396	-0.069986954	-0.013542645
0.01976262	0.042688426	-0.004336676	-0.07517362	-0.02133499	-0.055824596	0.0677348	-0.040042862	0.014114905
0.05595781	0.0021887692	-0.015255987	-0.012998637	-0.018598586	-0.055255137	0.036572084	-0.08465849	0.06854703
0.030891547	0.06648496	-0.02588419	-0.008690638	-0.027414355	-0.021689797	0.008952134	-0.0019655065	0.06913271
0.054169305	0.035143577	-0.030835455	-0.013412854	-0.05350641	-0.015955651	0.06884476	-0.042693168	0.0034507066
0.04261989	0.057416826	-0.032803185	-0.0840054	-0.09247884	-0.059125092	-0.007190295	-0.008549932	0.03671398
0.07535934	0.07783587	-0.030544763	-0.074186906	-0.010977825	-0.04963978	0.04856707	-0.024605837	-0.011466382
0.07616557	0.07120235	-0.042173598	-0.060707923	0.00283493	0.004698746	0.07904749	0.00897124	0.08021593
0.01842947	-0.001992562	-0.025001919	-0.06711575	-0.06491487	-0.059925273	0.024225092	-0.0131418435	0.082967095
0.026007509	0.061918993	-0.008714145	-0.042463485	0.008708121	-0.02921198	0.06738341	-0.06477163	0.070863
0.058522016	0.043995835	-0.041725997	-0.04974109	-0.055248413	-0.005083775	0.042820133	-0.0025766934	0.033649974
0.05435366	-0.001082058	-0.038147356	-0.050852314	-0.06957405	-0.022255322	0.053663347	-0.05231135	-0.007855105
0.059168696	0.085909046	-0.07334346	-0.0380798	-0.06755443	-0.04945614	0.045320906	-0.03511781	0.04819596
0.038241766	0.044171285	-0.048823576	-0.03447752	-0.08168244	-0.09417306	0.016733099	-0.083745256	0.042707022
0.045418605	0.030391607	-0.029700764	-0.040450774	-0.031149728	-0.043584	0.049890097	-0.027740788	0.029608503
0.003235839	0.07179803	-0.019395413	-0.019042972	-0.07945159	-0.04972247	0.052061334	-0.046615083	0.016619062
0.0024911438	0.07313476	-0.03713731	-0.07233223	-0.07794194	-0.013455806	-0.0057402994	-0.06436222	0.03400438
0.043152284	0.03750583	-0.05723023	-0.049632307	-0.08240796	-0.07451422	0.06206806	-0.09008028	0.044793487
0.028604114	-0.004100173	-0.017451702	-0.032707077	-0.042103726	-0.080545515	0.06935615	-0.08521641	0.039183125
-0.014405345	-0.008436475	-0.034296762	0.014301114	-0.06391116	-0.06283239	0.0748696	-0.0617348	0.011305342
0.01497886	0.005941867	-0.07807382	-0.095990665	-0.054739565	0.001962341	0.024952807	-0.0540597	0.09458339
0.029148357	0.11008151	-0.09938746	-0.026881404	-0.09649003	-0.08067498	0.039035846	-0.101812415	0.07574548
0.035574835	0.08766271	-0.06531644	-0.0359145	-0.009338406	-0.047947012	0.026276814	-0.05761946	0.051560365
8.09991e-05	0.003983975	-0.08109151	-0.07296783	-0.078493744	-0.091683045	0.056978524	-0.07358098	0.06518346
0.046527043	0.038209304	-0.033821	-0.08635319	0.010828688	-0.05295103	-0.0043239966	-0.049318124	0.047886312
0.040906236	0.058650453	-0.003887076	-0.053037867	-0.049138892	-0.030484358	0.0672546	-0.018766697	0.039580483
0.018456945	0.05661513	0.009484883	-0.03118042	-0.0710365	-0.040514965	0.07224714	-0.025627038	0.07440056
0.016068386	0.014838396	-0.04602619	-0.07128187	0.0034070406	-0.030080033	0.009213884	-0.047842704	0.0117574
0.009277576	0.10920709	-0.010656548	-0.04739408	-0.028123608	-0.038511682	0.092649534	-0.026315598	0.017372664
0.051285706	0.06501012	-0.05243935	-0.06825913	-0.05290411	-0.03533563	-0.00719499	-0.036896516	0.0041011795
0.032102678	0.063886605	0.01725603	-0.040109392	-0.0231034	-0.0062822276	0.039748054	-0.04838881	0.011745432
0.021911599	0.06613813	-0.025751313	-0.07130791	-0.06440551	0.011777206	0.0029591531	-0.09078009	0.0039935806
0.046985645	0.09248424	-0.10388097	-0.059308596	-0.10794449	-0.1171516	0.097286984	-0.112907894	0.07288665
0.08376367	0.03255467	-0.019894477	-0.02128777	-0.08231654	-0.043108273	0.07386668	-0.068359114	0.04747792
0.033781547	0.08212395	0.00016385909	-0.054544628	-0.02082136	-0.011907837	0.053584065	-0.025270643	0.02618773
-0.004412024	0.0005837134	-0.02980832	-0.041386392	-0.05962067	-0.08454037	0.065	-0.0009475719	0.058731694
0.05386267	0.023896484	0.00769076	-0.030035399	-0.062399097	-0.029173698	0.020726977	-0.019031104	0.06531358
0.1008046	0.061937634	-0.06853361	-0.035523172	-0.011030409	-0.03554908	0.04387872	-0.102276936	0.048196018
0.07459763	0.052792296	-0.011011867	-0.004702341	-0.035575647	-0.05844874	-0.018977014	-0.023757773	0.08244808
0.058506977	0.020101821	-0.0115746735	-0.03328492	-0.031317048	-0.04274653	0.052112237	-0.023866916	0.023470897
0.06890681	0.10433234	-0.10206382	-0.07569624	-0.017958276	-0.04156409	0.004105671	-0.063100226	0.05312872
0.03166417	0.10833593	-0.07984052	-0.028247692	-0.07641208	-0.024105975	0.09768359	-0.07547338	0.030730335
0.01872078	0.10434346	-0.06878224	-0.049670644	-0.022674663	-0.070177965	0.08301971	-0.092936516	0.029358609
0.014811474	0.06937412	0.012935149	-0.074711524	0.014630956	-0.080385186	0.036088917	-0.0543388	0.04960923
0.028190004	0.07488958	-0.06968685	-0.035790678	-0.060994342	-0.004688114	0.02085596	-0.04585508	0.05171388
0.018847791	0.08500751	-0.05046406	-0.009304662	-0.02748206	-0.009859167	0.024025023	-0.034681614	0.040109806
0.11124768	0.1197979	-0.024361534	-0.07904559	-0.11813072	-0.020923892	0.06607026	-0.07610595	0.10191164
0.06537999	0.043345332	-0.0057878937	-0.020464588	-0.016139807	-0.04431583	0.010772826	-0.07724592	0.01653067
0.04255223	0.05344324	-0.006599133	-0.054978546	-0.06990512	-0.042855058	-0.02282769	-0.042161316	0.009851332
0.062146805	0.05241367	-0.032862373	0.008359282	-0.04079792	-0.06122038	0.04844578	-0.06824568	0.04180814
0.08136374	0.012274206	-0.036788736	-0.07292177	-0.017622426	-0.09264622	-1.8900686e-05	-0.009426871	0.05398569
0.079511315	0.09245683	-0.013426828	-0.03369177	-0.10257065	-0.025537523	0.06896716	-0.0069137122	0.059901536
0.077390976	0.017039033	-0.028463244	-0.08114569	-0.046299823	-0.08217336	0.016290609	-0.028301403	0.04211482
0.065376766	0.04076133	-0.060565192	-0.023173237	-0.073638804	-0.0817772	0.060417365	-0.026375333	0.019108344
0.033970013	0.10821413	-0.044253226	-0.005058022	-0.016432106	-0.0022730737	0.097603425	-0.096312	0.015435204
0.09923856	0.10789281	-0.026663987	-0.06866868	-0.082465164	-0.056560565	0.113539726	-0.10151925	0.08855682
0.08892881	0.07470292	-0.035979073	-0.045908794	-0.05879689	-0.10161242	-0.008791292	-0.058582194	0.018889405
0.07328225	0.009209842	-0.023882186	-0.057543	-0.006664901	-0.0034721522	0.049075395	-0.0706383	0.04772168
0.08241979	0.057837497	-0.064478	-0.043850094	-0.05223863	-0.020703234	-0.0052458737	0.007278895	0.07485471
0.01853861	0.096091785	0.024654295	-0.062831126	-0.021381376	-0.042507667	0.048288643	-0.03633289	0.04179145
0.075499505	0.09183549	-0.039094117	-0.045529027	-0.045972366	0.0018939644	0.04255561	-0.05305776	-0.00262951
0.06174166	0.090512075	0.0057581184	-0.052501746	0.012434456	-0.07465549	0.010864318	-0.0706993	0.06918862
0.074925706	0.07332103	-0.053417183	0.0019849017	-0.00102837	0.016142553	0.04353303	-0.055093873	0.042755086
0.046546478	0.05807982	-0.049796153	-0.021207307	-0.0624928	0.014176589	0.011496522	-0.057849903	0.056079745
0.023784906	0.06049978	-0.052121565	-0.0012731338	0.011450182	-0.026715437	0.05585426	-0.04296138	0.041464783
0.023366993	0.019593354	-0.014815779	-0.06987907	-0.033517007	-0.073252685	0.030720629	-0.02555522	0.022954462
0.022426678	0.050369773	-0.03179843	-0.053369325	-0.054903798	-0.051824596	0.035779122	-0.058870494	0.107614756
0.028466318	0.10979611	-0.057750463	-0.01850733	-0.039355196	-0.026438026	-0.005983828	-0.03683041	0.05124614
-0.001964017	0.031902596	-0.018525261	-0.062247824	0.0019211472	-0.063241065	0.041613374	-0.051617917	0.074167065
0.06356579	0.022609513	-0.069621004	-0.077351175	-0.026405778	-0.08627357	-0.013281658	-0.020737853	0.08672172
0.02742245	0.03630984	-0.017897705	-0.09492877	-0.07752856	-0.07150648	0.08236704	-0.08879443	0.07421468
0.057383303	0.08521855	-0.029454822	-0.085786216	-0.0017416402	-0.042266745	0.042618796	-0.03194927	0.055593945
0.0179108	0.025663877	-0.026911503	-0.026268782	-0.067305826	-0.0322181	0.031191638	-0.06323363	0.037944384
0.065403536	0.04487573	-0.03210067	-0.09910966	-0.0063610184	-0.009706945	0.06651828	-0.06267925	0.025746282
0.08222186	0.027156714	-0.08989716	-0.0108960755	-0.06526798	-0.062002473	0.08431193	-0.09849698	0.06253358
0.06265055	0.08182299	-0.0220138	-0.057792503	-0.04485945	-0.008150728	0.059567392	-0.026374396	-0.00166056
0.051724132	0.06731303	-0.09572157	-0.005324323	-0.027591715	-0.030495886	0.008495894	-0.031037297	0.05797431
-0.005691456	0.020111375	-0.07459631	-0.041654967	-0.04699967	-0.03812361	0.039976906	-0.043106258	0.07841908
0.019758776	0.0045178807	-0.021556323	-0.06332257	-0.014979535	-0.0804517	0.026125258	-0.044423968	0.030002603
0.0056425193	0.036877796	-0.004968065	-0.054971173	-0.03828841	-0.01437604	0.03321086	-0.057452343	0.03298695
0.043759745	0.048149962	0.022955954	-0.03914788	-0.029066868	-0.03728972	0.05857257	-0.05704644	0.061482858
0.061290335	0.06998136	-0.01738119	-0.049949083	0.012101215	0.013716746	0.038463205	-0.057472687	0.050491024
-0.00088507537	0.0026558698	-0.03546431	-0.092750825	-0.06766674	-0.071979284	0.028865762	-0.026875587	0.074423596
0.06659366	0.047324933	-0.026646055	-0.04175614	-0.08729415	-0.08091438	0.098910004	-0.07960555	0.052138504
0.018389763	0.09683002	-0.019912325	-0.08457531	-0.056994267	-0.02134381	0.0070535457	-0.016689513	0.010471089
0.06654952	0.06238971	-0.010315926	-0.07892195	-0.06202598	0.0019827127	0.0076733683	-0.06721904	0.03471005
0.063395865	0.02944052	-0.021591661	-0.0034095012	-0.03449706	-0.09726029	-0.0021974961	-0.005656145	0.07025377
0.018644938	0.023128724	-0.0744522	-0.066007204	0.0047380906	-0.043435786	0.07377213	-0.08036763	0.00066382345
0.014221283	0.050441075	-0.041300233	-0.03305959	-0.041313477	-0.045170296	0.009117773	-0.09376751	0.101977155
0.10028659	0.017687201	-0.05776445	-0.07096746	-0.029001337	-0.038803082	0.09561024	-0.033598434	0.07162128
0.050088048	0.0813398	-0.06418205	-0.0007399456	-0.057642583	-0.06769847	-0.040814415	-0.038005818	0.05036992
0.020246712	0.07516706	-0.082236186	-0.06754598	-0.05959387	-0.06862766	0.0010497769	-0.0012551529	0.087397344
0.068165295	0.037119888	-0.018066758	-0.015753081	-0.03281363	-0.019346105	0.010196744	-0.063293986	0.06830172
0.041272957	0.10139782	-0.017330907	-0.09048644	-0.08566329	-0.038165037	-0.015830984	0.005271144	0.026639221
0.0017799361	0.059588853	-0.07361785	-0.06232836	0.0068930825	-0.03689898	0.038584363	-0.038242232	0.036547933
0.010025729	0.043795332	-0.097639374	-0.019863438	-0.052856643	-0.015217937	0.036474396	-0.060537577	0.06623637
0.07198477	0.09361519	-0.04455675	-0.069873795	-0.11235326	-0.03298701	0.02141556	-0.02704735	0.041863617
0.045345426	0.047227364	-0.030122126	0.0101057645	-0.024071574	-0.060235452	-0.021310393	0.002962723	0.080934785
0.03005839	0.0750926	-0.03400425	-0.06389	-0.01577715	-0.017693978	-0.008779033	-0.02019178	0.078872226
0.04678865	0.03486783	-0.013825799	-0.020471273	-0.012070469	-0.070852675	0.00035771608	-0.04461392	0.044033766
0.045221288	0.07331006	-0.020613749	-0.056973897	-0.056694414	-0.055228323	0.046427473	-0.029609727	0.025849398
0.02018845	0.10394348	-0.05528189	-0.08154486	-0.043649405	-0.017205393	0.061467383	-0.015791113	0.09637689
0.007817625	0.082253896	-0.02682844	-0.07263687	-0.081820615	-0.008967837	0.07238378	-0.056659564	0.021338379
0.07443164	0.068008654	-0.0023189047	-0.016800838	-0.09127513	-0.02138808	0.038983557	-0.08481473	0.056066968
0.02868096	0.07699533	0.0018909547	-0.08948902	-0.02582391	-0.05838023	0.07682508	-0.034495115	0.0073770313
0.024921093	0.059121646	-0.029086027	-0.028785583	-0.010594356	-0.05301891	0.050688494	-0.050693505	0.056626383
0.0773404	0.021303102	-0.081284665	-0.061890565	-0.021465281	-0.037259184	0.10000957	-0.031176256	0.08432621
0.02510036	0.026480855	-0.019974897	-0.08109812	-0.022124376	-0.08031584	0.016486945	-0.083932996	0.02092651
0.06389	0.014061634	-0.055922225	-0.09112794	-0.002398378	-0.045934185	0.025734106	-0.0039862916	-0.0020724682
0.0019269953	0.042057097	-0.045566626	-0.06482653	-0.024397608	-0.04104581	0.06550601	-0.015299997	0.08680416
0.09444669	0.005881431	-0.016805386	-0.05648131	-0.024661168	-0.08789542	0.025816798	-0.077322744	0.0009776201
0.08902572	0.025633907	-0.016806368	-0.051494062	-0.010727986	-0.002086356	-0.0010290379	-0.055429842	0.023839315
0.065661654	0.0335132	0.0051794974	0.026834175	-0.08147121	0.0080274865	0.043640226	-0.03110791	0.08394517
0.067258485	0.048323806	-0.085610695	-0.06797193	-0.11292094	-0.05213272	0.020937998	-0.038246218	0.035526797
0.008045426	0.041848015	-0.08666298	-0.0754664	-0.082949355	-0.06965204	0.07310809	-0.05495564	0.06222627
-0.01120863	-0.0085270945	-0.08383348	-0.07016884	-0.047130767	-0.078794636	0.04884994	-0.053980645	0.029728716
0.07138924	0.013070701	-0.043805595	-0.016866123	-0.012989226	-0.047768258	0.012021898	-0.005181319	0.043193597
0.006649081	0.011475673	-0.017985413	-0.041430138	-0.064463146	-0.06105068	0.04422531	0.0025439986	0.062019374
0.053253334	0.063622095	-0.019127544	-0.007345803	-0.0002826108	-0.052035067	0.013091278	-0.08023002	-0.008846404
0.0812706	0.04080145	-0.018280616	-0.08681866	-0.050957575	-0.07099559	0.014044924	-0.022476569	0.021297175
0.02186132	0.015517397	-0.075411595	-0.038281254	-0.072125144	-0.061631653	0.08150056	0.014466322	-0.023767315
0.07650696	0.03742571	-0.05969805	-0.0028394042	-0.021758813	-0.019957425	0.03993683	-0.06887253	0.025052836
0.050006013	0.07516714	-0.058735613	-0.08414166	-0.026089622	-0.063785285	0.038339783	-0.09148942	0.060445316
0.03350703	0.08579519	-0.06172615	0.00837814	-0.008289866	-0.037253503	0.027299229	-0.0680624	0.068263404
0.058045242	0.07349039	-0.038847484	-0.06637096	-0.010951238	-0.037983432	0.060199827	-0.055610694	0.058536295
0.009312438	0.08928988	-0.025583228	-0.09411022	-0.024672963	-0.0862263	0.046138037	-0.027248822	0.089449026
-0.0042574313	0.069632776	-0.08018618	-0.040656645	-0.031931102	-0.013716284	0.058865104	0.004335431	0.015187377
0.047369868	-0.0025701835	-0.07250131	-0.03556321	-0.095764436	-0.041868266	0.026320813	-0.04518111	0.022661025
0.08901043	0.06073917	-0.056865234	-0.041922297	-0.081590645	-0.016921757	0.03750678	-0.049305014	0.014094213
0.031210037	0.09216053	-0.019294202	-0.044281926	-0.048722707	-0.060339883	0.036984947	-0.04837873	0.010270263
0.0151541075	0.018744038	-0.05491136	-0.028448517	-0.06395628	-0.07040484	0.07891971	-0.01764377	0.0054291068
0.056971274	0.04383073	-0.028611071	-0.02447503	0.008753027	-0.055991046	0.014535559	-0.02163092	0.04456908
0.085987516	0.03207374	-0.07712019	-0.02841601	-0.094706126	-0.083360806	0.013644965	-0.0057516317	0.026206711
-0.0034554747	0.04356972	-0.052812874	0.003834249	0.008450642	-0.039651114	0.03658282	-0.031750094	0.05212093
-0.0113185225	0.06603029	-0.06149682	0.015728148	-0.050361335	-0.062850736	0.008126636	0.01017422	0.056075927
0.03964578	0.051920306	-0.008950987	-0.0028708638	-0.077138364	-0.03568981	0.03152395	-0.08832791	0.045699585
0.08279761	0.049843714	-0.034172982	-0.05451427	-0.043078266	-0.001313486	0.022215474	-0.046282366	0.069088906
0.04363533	-0.0020729713	0.0026239757	0.00782125	-0.05780188	-0.0476659	0.07527969	-0.056941528	0.041610356
0.05873397	0.039187405	-0.027624227	0.026555026	-0.0031204363	-0.06743846	0.03076523	-0.015170704	0.009736217
0.064260416	0.04584294	-0.074962385	-0.022687605	-0.016523529	-0.033193655	-0.0009437232	0.0012723755	0.04376524
0.06331226	0.07667946	0.0021703115	0.00032446798	-0.054264393	-0.07927469	0.005232829	0.0014876551	-0.005988884
0.04775127	0.017707791	-0.04352062	-0.07593659	0.0006789122	0.0169722	0.07369619	-0.02638201	0.06875734
0.02893838	0.03188059	-0.096539296	-0.09669546	-0.06324911	0.010085006	-0.023357322	-0.06617654	0.05756035
0.07222233	0.07089898	0.009376171	-0.008542157	-0.061740305	-0.0644259	0.08064244	-0.08170999	0.014230156
0.10885819	0.026438564	-0.048042428	-0.04893999	-0.09318633	-0.036923386	0.03543852	-0.08428936	0.04013349
0.116136774	0.045968268	-0.07727364	-0.11687738	-0.09280406	-0.062880844	0.016525045	-0.040007476	0.06685036
0.0402213	0.066376545	-0.042427335	-0.06897387	-0.027235055	-0.0749696	-0.005882212	0.009784803	0.06956271
0.009435943	0.05807224	-0.049027268	-0.02411536	-0.036463782	-0.09568486	0.08017174	-0.037647728	0.055373162
0.053163078	0.034974493	-0.060631882	-0.018016376	-0.028720032	-0.04859115	0.0113752745	-0.05701324	0.017981865
0.069093354	0.018220512	-0.041663278	0.0111109605	-0.0783554	-0.06365194	0.038746916	-0.0788798	0.018468935
0.07504523	0.031878952	-0.023979912	-0.006164097	-0.07729581	-0.060661517	0.013300785	-0.037811685	0.001095744
0.08739239	0.03369034	-0.09980224	-0.03617405	-0.03469033	-0.055254262	0.07957638	-0.05765468	0.095236935
0.0073932335	0.05308591	-0.056890536	-0.024879007	-0.061781827	-0.013122925	0.06184629	0.01779213	0.05084872
0.052749354	0.13719226	-0.077687226	-0.050657883	-0.12947826	-0.07320474	0.10343637	-0.039213512	0.036911048
0.07278809	0.012458659	-0.028573385	-0.015084851	-0.007905074	-0.026911814	0.038311213	-0.02513874	0.10173789
0.0061534294	0.02738532	-0.060955904	-0.047480684	-0.094863065	-0.031488124	0.06974862	-0.015428695	0.065467626
0.05831507	0.06654338	-0.06941705	-0.025944294	-0.03190197	-0.021453042	0.036780477	-0.04015343	0.08603149
0.08709994	0.04034954	-0.052470483	-0.07813205	-0.06737832	-0.04122928	0.048052724	-0.007273786	0.015354586
0.107132025	0.01774205	-0.046067316	-0.039720826	-0.024448227	-0.064318635	0.0481723	-0.10201446	0.063517466
0.050294142	0.014455192	0.028350318	-0.04657401	-0.016552469	-0.033388413	0.059849028	-0.05975744	0.047281574
-0.008655962	0.039230026	-0.019377818	-0.047125936	-0.053448845	-0.025623383	0.057239443	-0.0019120898	0.032086097
0.030082509	-0.0021353918	-0.008002179	-0.06377382	-0.02973064	-0.0750311	0.046877254	-0.06386964	0.04774233
0.0061710496	0.051953554	0.026704792	-0.07173303	-0.06081145	-0.058862083	0.07955057	-0.04684665	0.004266409
0.061382703	0.047428615	-0.004406372	0.011647335	-0.07581547	-0.057996716	0.02142213	-0.05320099	-0.001961262
0.037739757	0.059547786	-0.05278169	-0.0037163228	-0.060973387	-0.06969594	0.049427032	0.00548354	0.061417114
0.0691061	0.028485583	-0.0039141155	-0.044762503	-0.001272443	-0.054743845	0.057567358	-0.055379692	0.007606718
0.037888467	0.023070851	-0.053881183	-0.071281865	-0.070700124	-0.071351506	-0.02076909	-0.07414768	-0.014958829
0.010241397	0.0012841077	-0.084166706	-0.06764922	-0.031450752	-0.035364334	0.04887325	-0.03228388	0.081952535
0.025290577	0.030375984	-0.015987849	-0.082343854	-0.041910663	-0.045021165	0.10701975	-0.022879867	0.030202854
0.025841236	0.05173652	-0.013554467	-0.019912316	-0.00082989933	-0.013928807	-0.0009415875	-0.075465955	0.07878037
-0.009893588	0.0533214	-0.076469794	-0.012308795	-0.06617657	-0.06763504	0.07093233	-0.044862058	0.026261702
0.084272385	0.033276904	-0.04684428	-0.07840416	0.013686327	-0.015730776	0.057470996	-0.00761321	0.030599754
0.07056623	0.061324112	-0.071249515	-0.09456916	-0.07240937	-0.081617236	0.052598275	-0.02945007	0.027576996
0.029147658	0.06921434	-0.055303294	-0.025469009	-0.0033102648	-0.02030252	0.04698893	0.0004466722	0.092030145
0.10702279	0.0599138	-0.10357628	-0.064699255	-0.08505216	-0.09447973	0.06227508	-0.08297874	0.10226876
0.066135086	0.049429115	-0.08838789	-0.038647633	-0.045381043	-0.06457077	0.00022511373	-0.021177426	0.0067004543
0.047362585	0.085311115	0.006504293	-0.06204409	-0.062387627	0.0016468331	0.046460032	-0.017237289	0.023997307
0.06992945	0.06185347	-0.028191365	-0.026138972	-0.058776442	-0.015691074	0.07091831	-0.102105275	0.08714993
0.06210829	0.0747536	-0.07778827	-0.07707891	-0.04163748	-0.0140564665	0.032773245	0.008210632	0.07002965
0.055127267	0.10344086	-0.023886284	-0.018776624	-0.013499615	-0.028654912	0.01772771	-0.032997243	0.0500398
0.0070827007	0.06820898	-0.008062713	-0.07878767	-0.05453702	-0.052473854	0.026355866	-0.09383095	0.00790128
0.0650253	0.06532354	-0.042766813	-0.082672425	-0.059354335	-0.06648773	0.03712657	-0.0699334	0.031528972
-0.01202223	0.041875802	-0.06536261	-0.05364052	-0.035469446	-0.0010424462	0.052353457	-0.044426553	0.02906654
0.04742093	0.085083745	-0.06004684	-0.049063474	0.0050965985	-0.053496744	0.030830478	0.007876713	0.055009972
0.040683102	0.058694374	-0.02683704	-0.036753178	-0.043440282	-0.060976915	0.06452574	-0.014915721	0.04399915
0.02061708	0.08244331	-0.051819555	-0.049655072	-0.044745624	-0.042985108	0.08508628	-0.031059537	0.07906106
0.087423	0.041874696	-0.10085163	-0.06823939	-0.036875144	-0.032060113	0.062668994	-0.035802446	0.022041718
0.043005135	-0.00052776345	-0.02032601	-0.042754754	-0.02156465	-0.047201168	0.04870906	-0.08782343	0.02262563
0.030683843	0.046860766	-0.011224561	-0.07312929	-0.024095543	-0.0016862755	0.041614164	-0.08940751	0.08864882
0.07888551	0.044138048	-0.08655633	-0.0389495	-0.021749869	-0.017615143	0.030512411	-0.039308503	0.06090123
0.049132794	0.029853985	-0.0055424566	-0.06954083	-0.06462855	-0.05873685	0.015263087	-0.09179081	0.06263459
0.055576246	0.021097092	-0.0014447906	-0.02172565	-0.04048268	-0.010134681	0.07590925	-0.032692857	0.050252352
0.061339382	0.03560891	-0.026903521	0.0137882335	-0.05733222	-0.080970265	0.06129434	-0.0057413355	-0.004146422
0.038154036	-0.00645987	-0.072457805	-0.051797383	0.0082011465	-0.029641792	0.032468453	-0.056256413	0.069211334
0.05812612	0.012716428	-0.056612596	-0.052818105	-0.022093557	-0.022198807	0.06641286	-0.008104947	0.01820311
0.044974804	0.009713895	-0.014491069	-0.06328569	-0.057489038	-0.052962884	0.059535272	-0.07451346	0.090711206
0.060266774	0.073187396	-0.013271218	-0.008821056	-0.027472528	-0.024902524	0.043369066	-0.04879737	0.0407421
0.053898603	0.0721631	-0.018846612	-0.013911909	-0.091185085	-0.007315115	0.04591134	-0.10129648	0.013624841
0.04614447	0.059054684	-0.062003836	-0.028503548	-0.052120585	-0.054514643	0.0484808	-0.006905703	0.0037545576
0.015537328	0.02716806	-0.036348395	-0.06763685	-0.0032405017	-0.032063246	-0.0001920397	-0.07475498	0.048291255
0.13601884	0.11164866	-0.034854583	-0.07669563	-0.088814266	-0.065123886	0.067220844	-0.08503035	0.02771926
0.07737578	0.054665424	-0.069778055	-0.11771658	-0.10665523	-0.08691272	0.05836433	-0.104525134	0.11772218
0.023645893	0.025841765	-0.016233372	-0.043719597	-0.050003942	-0.004916896	0.059995048	-0.037021533	0.060488217
0.10655942	0.122956984	-0.0825408	-0.03173307	-0.05915866	-0.060473364	0.03778761	-0.06519573	0.11860565
0.073358595	-0.024532823	-0.075909205	-0.022966065	-0.04405317	0.0017872872	0.07084873	0.0035428586	0.061136905
0.040872283	-0.006077316	-0.015890323	-0.03842018	-0.07359797	-0.06274645	0.009026283	-0.027721213	-0.00979087
0.0344267	0.0463589	-0.09368745	-0.035761163	-0.06860206	-0.06114797	0.05716661	-0.02931888	0.04765242
0.08787853	0.010774223	-0.0035202028	-0.033995673	-0.062532954	-0.09175739	0.053796776	-0.060215507	0.011188294
0.09506939	0.03780679	-0.04210441	-0.08638612	-0.07083164	-0.019829368	0.018138362	-0.030042397	0.09834036
0.019889198	0.03458742	-0.055669583	-0.04837026	-0.025228515	-0.068041235	0.063500315	-0.00084908126	0.07768286
0.06352264	0.083440885	-0.012262079	-0.049686864	-0.035663035	-0.029120704	-0.043407857	-0.061506517	0.055442117
0.0047733835	0.05220405	-0.062063225	-0.032380484	-0.05946859	-0.06698773	0.07230741	-0.006766735	0.061896503
0.10051382	0.032699727	-0.03760568	-0.051553253	-0.027159095	-0.08104723	0.09079127	-0.09064315	0.075339526
0.038367607	0.041142352	-0.007966815	-0.020028444	-0.06254204	-0.057827935	0.090092145	-0.104062565	0.016166946
0.047162976	0.027583025	-0.07982516	-0.0017821351	-0.02252819	-0.09093734	0.012012846	-0.042071167	0.045860372
0.03502667	0.066611275	-0.03579426	-0.016913522	0.01430957	-0.06421905	0.013180155	-0.026787214	0.03286657
0.06801145	0.011801626	-0.032813203	-0.040788274	-0.02032579	-0.033155072	0.06834712	-0.02518052	0.02684731
0.056700565	0.019045549	-0.04687151	0.004243183	-0.046821386	-0.05362607	0.061987147	-0.071746044	0.0024036479
0.086210944	0.06535792	-0.044044357	-0.04541145	-0.018432446	-0.0850462	0.0760063	-0.013023186	0.06912325
0.021146111	0.033331085	-0.0047898116	-0.05339208	-0.08217346	-0.060077537	0.07134184	-0.08362446	0.060589343
0.055082977	0.0014500371	-0.04383531	-0.054737452	-0.048226386	-0.021618964	0.029888358	-0.08138026	0.07008447
0.05205839	0.045121856	-0.08047347	-0.019609498	-0.008353678	-0.085454844	-0.0074626254	-0.026297558	0.07729713
0.029425444	0.0045480076	-0.048319988	-0.040044237	-0.01384597	-0.06132072	0.08753842	-0.018101284	0.093457356
0.011799637	0.07033912	-0.03381194	-0.028313328	-0.060211755	-0.09622047	0.07158347	-0.012108791	0.027844384
0.037875477	0.05937017	0.020480562	-0.055521086	-0.040277977	-0.028734643	0.007847201	-0.06768563	0.048815835
-0.014395907	0.06195749	-0.045727674	-0.04379584	-0.050969504	-0.06311036	0.042773604	-0.0443339	-0.0010644846
0.03898289	0.030272605	-0.0046664705	-0.04230455	-0.023269368	-0.036100354	0.07399709	-0.037666105	0.00921171
0.06664694	0.059292708	-0.09562052	-0.040198226	-0.025217632	-0.03596747	0.044755064	-0.044733707	0.08600065
0.07588948	0.058823243	-0.0510928	-0.023247093	-0.06582876	-0.061441015	0.007568751	-0.054713316	0.0011492526
0.06629722	0.07304432	-0.032823734	-0.03294826	-0.0025491791	-0.034289796	0.014121834	-0.046260472	0.02805488
0.0004135221	0.010049331	-0.04943307	-0.0010857801	-0.09915405	-0.068651795	0.025676474	-0.03331448	0.07697734
0.10216043	0.07033705	-0.057861876	-0.09104708	-0.06279164	-0.006198867	-0.0027148584	-0.002738314	0.03064247
0.09122243	0.018574275	-0.09057288	-0.105642304	-0.059043627	-0.07775412	0.076670796	-0.07284164	0.0446026
0.0294378	0.013152904	-0.034892105	-0.066049166	-0.024515232	-0.060656846	0.010471912	-0.060202837	0.0789744
0.007858638	-0.008865519	-0.028091403	-0.04902393	-0.047042526	-0.062248208	0.06276851	-0.07225986	0.0718862
0.078076124	0.07208265	-0.073465765	-0.08809007	-0.06328359	-0.08020512	0.037471212	-0.0419112	0.051412255
0.0039678616	0.037408665	-0.046766207	-0.05891927	-0.072802864	-0.018699994	0.042700768	-0.061628155	-0.0044388957
0.09512539	0.11573869	-0.07287958	-0.021978568	-0.0187941	-0.03223445	0.08011549	-0.046939556	0.10216999
0.06658166	0.04029591	-0.024584275	-0.006102422	-0.058122486	-0.031209402	-0.009520998	-0.035106394	0.024070386
0.110288985	0.0791029	-0.028507002	-0.07178064	-0.057236213	-0.09194534	0.090905584	-0.08463435	0.057503458
0.016937502	0.07185972	-0.044452365	-0.014743632	-0.08054539	-0.027076395	0.04577616	-0.10427105	0.021962581
0.009018515	0.08623432	0.009516473	0.0068426444	-0.08039551	-0.046527743	0.049929075	-0.042596426	0.06343945
0.041629955	0.034077115	-0.07811545	-0.018970191	-0.005884094	-0.02436499	0.013511826	-0.050410036	0.07395589
0.05944446	0.014663468	-0.047647644	-0.06837193	0.011162257	-0.07614384	-0.016409574	-0.08242363	0.023401644
0.051525638	0.06923784	-0.010388716	-0.055660967	-0.05073984	-0.008480432	0.022707574	-0.057214793	0.061720297
0.030284936	0.027352324	-0.03890839	-0.047768313	-0.0306561	-0.012286603	0.052657887	-0.054118574	0.06525753
0.020488404	0.04794501	-0.022706185	-0.07756211	-0.026245482	-0.06633432	-0.023146963	-0.07236154	0.022283759
0.0121427905	0.07259826	-0.05876156	-0.039560944	-0.09999029	-0.0015961364	0.0027172028	-0.019265259	0.09263315
0.049505387	0.026187278	-0.04697384	-0.05876831	-0.011350377	-0.086287975	0.021095924	-0.010989942	0.07399205
0.082504824	0.052701343	-0.056701425	-0.023551608	-0.06772651	-0.060615167	0.042709026	-0.024111059	0.01249184
0.04758135	0.045291997	0.0005454903	-0.004705271	-0.04551332	-0.0054233535	0.026832141	-0.09523367	0.06729112
0.10296396	0.053568266	-0.040610116	-0.061753448	-0.03860909	-0.027736917	0.035723746	-0.055665113	0.087979205
0.02853678	0.03080999	-0.015862547	-0.034476597	-0.0824219	-0.015880002	0.058328655	-0.018531626	0.06956711
0.05903896	0.022311024	-0.036067948	-0.0022964752	-0.02750119	-0.048915736	0.06368469	-0.05547357	-0.013332641
0.0670723	0.024723204	-0.06942129	0.0009272642	-0.077970296	-0.006074116	0.05239331	-0.00013829912	0.048584208
0.014629796	0.06550841	-0.07208939	-0.031090273	0.0012587971	-0.04454421	0.033914555	-0.078360215	0.025908822
0.05180328	0.009658551	-0.04184878	-0.030908957	-0.082363695	-0.034570564	0.025668355	-0.06525401	0.04412828
0.011887348	-0.005510537	-0.03107426	-0.070845194	-0.082070485	-0.007815898	0.03652606	-0.0035616064	0.016337961
0.026004782	0.033461392	-0.029121045	-0.012484128	-0.009561574	-0.06992983	0.0150218215	-0.04279446	0.025434174
0.029680753	0.048710782	-0.019501703	-0.04075991	-0.06818144	-0.019018672	0.019548818	-0.021903198	0.08217772
0.07193772	0.03869649	-0.07400441	-0.020414198	-0.028982045	-0.098348945	0.038019113	-0.023673719	0.034018826
0.053625617	0.016699033	-0.047754597	-0.01514233	-0.045277197	-0.013127909	0.08642673	-0.024851836	0.052571222
0.05066761	0.07449152	0.014419581	-0.06424301	-0.026527043	-0.049101014	0.031322468	-0.047217436	0.056288853
0.03008391	0.061200052	-0.1031793	-0.019595107	-0.093656234	-0.04448107	0.06684285	-0.01631365	0.06810634
0.08228786	-0.0005871045	0.00597019	0.010141846	-0.029414045	-0.039589148	0.021079483	-0.0807938	0.061296504
0.0312019	0.08063693	0.005611104	0.0012134584	-0.05368249	-0.021775851	0.043373346	-0.07300295	0.061286226
0.066795	-1.1472839e-05	-0.017573513	-0.07340645	-0.009569487	-0.06272435	0.046247143	-0.01013427	0.06311651
0.02642736	0.081733145	-0.031166434	-0.027343538	-0.044410788	-0.050928824	0.081603706	0.017870452	0.053334333
0.03778605	0.041927144	0.01583236	-0.08406056	0.004407005	-0.051909536	0.029196953	-0.07103405	0.06846867
0.0841271	0.029476335	0.006547435	-0.054543138	-0.02078974	0.0030761329	0.021959933	-0.05704312	-0.0010502473
0.031110972	0.010985177	-0.080752335	0.00048858585	-0.07110896	-0.06269661	-0.004153745	-0.034661468	0.077005565
0.03767034	0.008617794	-0.058803745	-0.053885415	-0.054909866	-0.04784208	0.02581232	-0.091055945	0.014777691
0.0458269	0.07335831	-0.05387066	-0.053923704	-0.0466204	-0.032584548	0.03500258	-0.07337924	0.08219306
0.062007852	-0.01899958	-0.011087169	-0.067048304	-0.0050737313	-0.017563093	0.0044982596	-0.036812846	0.061071415
0.045482736	0.07630985	-0.042886563	-0.07772937	-0.06321981	-0.039852757	-0.00088243594	-0.018013744	0.065616176
0.038432054	0.035863824	-0.08318044	-0.056033712	-0.0485042	-0.060845125	0.104676835	-0.12180491	0.11692682
0.026740711	-0.005530573	-0.053258114	-0.04074044	-0.055259578	-0.06866389	0.014431555	-0.01916838	0.033080157
0.0974229	0.07610307	-0.06218447	-0.0020886434	-0.013933563	-0.074748114	0.015032896	-0.061394732	0.020291269
0.0148773715	0.05760241	0.014178001	-0.050538063	-0.04867547	-0.083908	0.05673914	-0.08637082	0.030658329
0.026774175	0.049925197	-0.058268722	-0.0046106647	-0.020927541	-0.08003342	0.0706628	-0.03800325	0.048199676
0.09610354	0.014941402	-0.009423062	-0.04118846	-0.09238332	-0.042462684	0.009428965	-0.048095774	0.01192169
0.04563752	0.03843508	0.0077063604	-0.08724597	-0.018630171	-0.019762462	0.07754596	-0.052255206	0.017497577
0.08729962	-0.010233974	-0.022451874	-0.007803408	-0.006519711	-0.05168223	0.052199915	-0.088740304	0.027225893
0.053797282	0.0044155456	-0.08627555	-0.07950348	0.0052475934	-0.060813423	0.018252397	-0.029762413	0.08487614
0.062666446	0.00063312193	-0.040841486	-0.05621339	-0.025044953	-0.0052941036	0.031962406	-0.04317795	0.07297703
0.05908468	0.08448142	-0.06780782	-0.033179708	-0.058736797	-0.096649624	0.050467823	-0.06465585	0.06218698
0.019311339	0.081103526	-0.0928482	-0.104443505	-0.03204882	-0.055347204	0.07043895	-0.099169396	0.035824314
0.013316133	0.039703455	-0.070491605	-0.05875872	0.011991486	-0.040694293	0.03859187	-0.023932138	0.06794802
0.034575462	0.02286692	-0.0074240887	-0.06538412	0.002268582	-0.06365563	0.01136528	-0.07295791	0.055328522
0.04264438	0.092620395	-0.030298743	-0.059947457	-0.0350898	-0.10745488	0.06535958	-0.06630601	0.03948981
0.05614673	-0.022967584	-0.066689014	-0.044545703	0.022249265	-0.046276268	0.056521807	-0.07267064	0.06989841
0.026808403	0.071606755	-0.032568302	-0.02758257	-0.09228272	-0.044003937	0.02091119	-0.074482456	0.08587588
0.074550256	0.05878944	-0.040386688	0.0032755334	0.0068801716	-0.06721448	0.007911374	-0.05997895	0.08211774
0.075235724	0.06447269	-0.08848548	0.0076569775	-0.05668876	-0.055548575	0.00026734947	-0.05824144	0.048378106
0.043067794	0.1056357	-0.085955404	-0.09009759	-0.09255562	-0.054015882	0.10615442	-0.05609175	0.109963395
0.071309276	0.0071707773	-0.033584986	-0.0091889035	-0.055008426	-0.05228401	0.058342814	-0.029636914	0.0012544761
0.069764294	0.06747713	0.0042703133	-0.030027911	-0.01825504	-0.0374975	0.07851198	-0.055415645	-0.0024984528
0.020117614	0.0707586	-0.015925761	-0.076196335	-0.034494363	-0.026295492	0.03531252	-0.06908458	-0.0049000625
0.029952386	0.083847985	-0.095839456	-0.055727433	-0.05326128	-0.046512138	0.06721875	-0.062435888	0.0878576
0.01211954	0.10632385	-0.03466786	-0.059099823	-0.059496988	-0.10016049	-0.006698347	-0.032573275	0.033151895
0.04722113	0.04304667	-0.06005297	-0.031977627	-0.043146357	-0.058721434	0.027119087	-0.024373922	-0.017339109
0.007308547	0.037230425	-0.048557032	-0.03486503	-0.07125092	-0.042345624	0.0036580346	-0.09201782	0.05551757
0.019119607	0.09324781	-0.06676501	-0.025290748	-0.0025630048	-0.027076421	0.07501224	-0.032005254	0.037353065
0.054349188	0.025177766	-0.07082224	-0.016600441	-0.03122138	-0.029969981	0.013662935	-0.047005992	0.05313064
0.065241374	0.029308623	0.014640265	-0.060667764	-0.043145847	-0.030880915	0.04625224	0.014817137	0.057064548
0.07145	0.100831516	-0.014791871	-0.07039873	-0.010957748	-0.030250335	0.0076373746	-0.0016643244	0.021701196
0.017798945	0.049608823	-0.01961796	-0.010491043	-0.07445342	-0.07269781	0.016529461	-0.06789993	-0.006412401
0.09508046	0.02356264	-0.06316691	-0.0061667073	-0.010197367	-0.016313383	0.021131778	-0.017713966	0.051928245
0.0037376846	0.027581988	-0.029404504	-0.048845734	-0.069967106	0.013946809	0.027165003	-0.04773113	0.04928381
0.016332095	0.04315859	-0.030519865	-0.03902766	-0.0032592071	-0.028365694	0.02978405	-0.076986976	0.04470309
0.0718845	-7.1198534e-05	-0.031702697	-0.011062881	0.004813812	-0.023049707	0.079554796	-0.07793717	0.03302913
0.020699227	0.059839863	-7.438437e-05	-0.005868137	-0.04970993	-0.06697561	0.06939725	-0.04603795	0.038506594
0.09596393	0.017018734	-0.027641442	-0.079043336	-0.0048394944	-0.081119195	0.0005238173	-0.027872415	0.04644111
0.08743499	0.052284807	-0.0656561	-0.037893552	0.00069237204	-0.041765977	0.08528085	-0.026158351	0.06373283
0.05770164	0.00044801185	-0.057702765	-0.030409288	-0.03424538	-0.03345846	0.0021530385	-0.04116549	-0.007078236
0.020397656	0.082006216	-0.05138503	-0.028805068	-0.058332033	-0.07415221	0.034054607	0.007973248	0.006730078
0.09378607	0.025905957	-0.09401612	-0.0473664	-0.06326549	-0.0032053893	0.016992437	-0.07475088	0.07822236
0.056287963	0.013119026	-0.034099553	-0.004192905	-0.037004378	-0.02210869	0.08842116	-0.0762367	0.07698287
0.0434381	0.056468744	-0.019499918	-0.060759533	-0.07134654	-0.02577391	0.033473704	-0.0595243	0.027183453
0.08868256	0.009909759	-0.07383201	-0.05424709	-0.0436406	-0.008476448	-0.027752405	-0.000114056864	0.03353801
0.082674064	0.03998515	-0.018109325	-0.08030419	-0.06977037	-0.010563401	0.03602201	-0.018949317	0.023453515
0.07151288	0.08235328	-0.038683973	-0.024601944	-0.02209282	-0.08719566	0.09413121	-0.07931709	0.09142967
0.06839234	0.058198985	-0.017844377	-0.005816353	-0.038010456	-0.07196694	0.055790346	-0.0877146	0.045969617
0.0053312336	-0.026248816	-0.0369797	-0.042631183	-0.056479275	-0.052119106	0.018206194	0.0122198295	0.06927434
0.03814511	0.05814273	-0.06638976	-0.014116198	-0.020239215	-0.047339085	0.05100932	0.025714118	0.02724983
0.08581716	0.0425876	-0.028568398	-0.06715079	-0.009726502	-0.0034247374	0.022913538	-0.017612414	0.040386666
0.049357228	0.038397968	-0.042100765	-0.056396186	-0.03451853	-0.02559391	0.0271358	-0.04324528	0.046452954
0.055991378	0.05546105	-0.021761287	-0.03901417	0.014773359	-0.06996505	0.04563851	0.00014783061	0.06440737
-0.007747584	0.015827142	-0.051901035	-0.07457024	0.01794416	0.01282379	0.044750653	-0.06890935	0.06468879
0.029753068	0.037027013	-0.054481912	-0.06478075	-0.0142508065	-0.017624846	0.003890407	-0.08263022	0.05221908
0.017488409	0.0023764453	-0.071237534	-0.026356801	0.012337997	0.01127705	0.056763195	-0.008514975	0.037185945
0.0231625	0.023323586	-0.039449807	-0.07111537	-0.08959404	-0.02715916	0.022243481	-0.06293209	0.08813644
0.038584698	0.07568214	-0.04622091	-0.033657722	-0.05328595	-0.054589674	0.08295965	-0.078176536	0.010755047
0.061653677	0.032661077	-0.07486711	-0.020259442	0.007134916	-0.028407717	0.04278047	-0.06518423	0.05201113
0.039479695	0.062206678	0.00087215554	-0.015363767	-0.050015952	-0.08766367	0.046564143	-0.0666506	0.011892094
0.05964043	0.052325822	-0.017903449	-0.04173734	-0.05643585	-0.078078434	0.07844091	-0.0451781	0.04154455
0.040094163	-0.005166535	-0.062455382	-0.032136615	-0.02765939	-0.026478153	0.018531697	-0.0019143445	0.076949276
0.08388688	0.061227452	-0.013280297	-0.056049995	-0.04370437	-0.08494638	0.06203585	-0.08023912	0.043646075
0.025410965	0.0031522072	-0.06437387	-0.048055988	-0.050641358	-0.037447274	0.07039782	-0.043620124	0.031209277
0.0086517045	0.025476076	-0.0446247	-0.015049421	-0.062011104	-0.09413603	0.038265165	-0.042456377	0.01202127
0.02924458	0.039381776	-0.0534112	-0.062425938	-0.048431084	-0.020970412	0.006494323	-0.047715	0.008314448
0.0011009793	0.027689628	-0.07726498	-0.06417852	-0.053522456	-0.033777207	0.00028425982	0.004753228	0.04711444
0.0087107215	0.019036729	-0.0005661157	-0.08057046	-0.04526816	-0.08919459	0.009056896	-0.034686204	0.057221744
-0.0020232815	0.047698148	-0.0778593	-0.032885544	-0.06926087	-0.028664902	0.074746564	0.0008900323	0.02914349
0.008801137	0.030813836	-0.086206175	-0.095488295	-0.06911642	-0.07366891	0.045892768	-0.06499645	0.06285762
0.015532421	-0.006998162	-0.025162028	-0.010758071	-0.027214773	-0.058087405	0.03845175	-0.049718242	0.05187041
-0.0066059814	0.026885945	-0.016607191	-0.016360043	-0.019456998	-0.0052776434	0.018845769	-0.07230388	0.07673127
0.021384675	-0.0039903964	-0.045750394	-0.07083384	-0.09036433	-0.049570642	0.086897396	-0.0028606965	0.05571536
0.060469784	0.039461344	-0.026456451	-0.030762361	-0.10124679	-0.026152994	0.048116073	-0.055238485	0.017965358
0.007724364	0.063754864	-0.02763716	-0.04771878	-0.06998276	-0.07661905	0.00824632	-0.0001827078	0.061650485
0.08557168	0.056527335	-0.0006259547	-0.043336246	-0.08318106	-0.076544225	0.029601496	-0.016255513	0.019100284
0.071938805	0.029380603	-0.001959612	-0.03423337	-0.08033848	-0.07399822	0.040772352	-0.0060223215	0.037466045
0.02232466	0.007175602	-0.02411844	-0.062473565	-0.07023406	-0.0038934005	0.03963168	-0.0014332414	0.0312482
0.0020253414	0.04044887	-0.040077765	0.0061041247	-0.043708697	-0.021463105	0.020974787	-0.013058217	0.055746786
0.10088858	0.048120428	-0.08750519	-0.03990131	-0.04984342	-0.023288725	0.052993003	-0.0501629	0.050797954
0.067587204	0.00030934945	-0.054840002	-0.054925192	-0.08215942	-0.046434637	-0.0033385304	-0.04504943	0.07348803
0.11001114	0.046227712	-0.030595196	-0.076434895	-0.08677775	-0.105596095	0.078350745	-0.06721107	0.0852221
0.06309391	0.07447154	-0.0150979655	-0.043133013	-0.016600456	-0.047690023	0.033548214	-0.06328644	0.03190125
0.054280907	0.045404065	-0.054674406	-0.011618412	-0.086911626	-0.033733554	0.07442292	0.006587386	0.054609705
0.07606905	0.029759126	-0.028982015	-0.06337652	-0.020449853	-0.03145715	0.104211345	-0.08546614	0.066851065
0.029882558	0.016219823	-0.047150735	-0.09312284	-0.05525655	-0.085337766	0.04873999	-0.015680315	0.05935667
0.06346419	0.015627125	-0.011776446	-0.021370208	-0.027724868	-0.089150876	0.012385191	-0.022985583	0.012377414
0.039412707	0.08245115	0.003940066	-0.06230728	0.0060260003	-0.016760143	0.017863505	-0.043818638	0.08783762
0.08050394	0.0032424498	-0.057863325	-0.07167159	-0.0298205	-0.049795255	0.019742414	0.0071645407	-0.002004254
0.07166164	0.06441001	-0.06405961	-0.08047739	-0.10053049	-0.06497133	0.030456591	-0.07975266	0.042744085
0.03758489	0.048750274	-0.015845677	0.0018982204	-0.0845079	-0.0007017166	-0.008960383	-0.088823475	0.024134193
0.045497835	0.020139266	-0.075465746	-0.008746771	0.010046218	-0.06718233	-0.025732413	-0.05686863	0.065170005
0.03975821	0.008718826	-0.038538504	0.03973337	-0.055694554	-0.028662514	0.035777315	-0.0020235977	0.04104457
0.0041085654	0.07014847	-0.025335347	-0.042432256	0.01414379	-0.05615339	0.047396336	-0.057172485	0.085173175
0.028291583	0.045540012	-0.07295607	-0.091783784	-0.064541824	-0.052820917	0.08928366	-0.018881876	0.028206933
0.05910551	0.004272827	-0.008622283	-0.028660862	-0.044664286	-0.06386682	0.07601826	-0.08040146	0.05794113
0.0039012851	0.018672097	-0.08749648	0.005672334	-0.034191668	-0.0085634915	0.024506813	-0.045223862	0.09759628
0.011192113	0.033456217	-0.090870604	-0.059111822	-0.032260388	-0.030449862	0.08435784	2.879701e-05	0.029106975
-0.011903322	0.05238976	-0.07478063	-0.074556544	0.008510295	-0.0077051437	0.065206274	0.004317933	0.020160763
0.04805675	0.0040712976	-0.08758663	-0.036122017	-0.09191039	-0.010598748	0.086398736	-0.04925609	0.040181495
0.041870307	0.06180298	-0.06501076	-0.01715479	-0.02796693	-0.06331227	0.056836557	-0.03090171	-0.007897849
0.046978224	0.059813038	-0.027526373	0.0030768286	-0.061265595	-0.059046306	0.07833359	-0.010241218	0.012558164
0.011210601	0.05168033	-0.021714356	-0.0182571	-0.061950874	-0.053569537	0.057816472	-0.03511375	0.012736561
0.025417916	0.0023514186	-0.08987969	-0.06792727	-0.0698753	-0.0032650784	0.042035006	-0.040087175	0.046845376
0.07405525	0.032076143	-0.05826208	-0.04419972	-0.051651336	-0.028897095	0.035853077	-0.11813754	0.07141535
0.057344254	0.096677795	-0.016371556	-0.0070508677	-0.0771311	-0.010439976	0.032008477	-0.0328702	0.09007345
0.045813892	0.1178366	-0.0505435	-0.0417809	-0.043032646	-0.027593054	0.010641881	-0.01762114	0.099545695
0.06734536	0.06625842	0.011862955	-0.038920857	-0.022785915	-0.0641463	0.055947468	-0.03362803	0.06934999
0.06474344	-0.015489752	-0.031191755	-0.030898208	-0.020590832	-0.021346545	-0.015850136	-0.053428866	0.053278927
0.03935783	0.06561407	-0.07023019	0.008903031	-0.028687932	-0.04708861	0.079051875	-0.006224057	0.07688867
0.067413904	0.023950312	-0.028033469	-0.04845588	0.008121332	-0.02124649	0.026476514	-0.0010101727	0.08050547
0.07955189	0.01590846	-0.0053164023	-0.034610137	-0.035009522	-0.030371103	0.0681256	-0.056642976	0.08723818
0.043214276	0.036007706	-0.0137915155	-0.011779462	-0.020459197	-0.02328371	0.05143017	-0.058714293	0.058754325
0.06876191	0.0057249763	-0.024476603	-0.023214033	-0.059509646	-0.0069768974	0.03827886	-0.041509848	0.09417716
0.042859647	0.07836742	-0.007950792	-0.057329744	-0.07106097	-0.066992894	0.0063651376	-0.056348167	0.02479141
0.019246025	0.107758544	-0.07232605	-0.07126383	-0.0455762	-0.06654129	0.08177499	-0.048516087	0.046913657
0.081606284	0.0051163747	0.0002575072	-0.015996555	-0.068593495	-0.067942925	0.0056135138	-0.028785413	0.0058913142
0.045073256	-0.008153702	-0.009719467	-0.077212	-0.04280881	-0.021833114	0.025301505	-0.0692942	0.025715536
0.049439695	-0.0038082558	-0.066877484	-0.0510623	-0.07711867	-0.059477337	-0.016599566	-0.060246803	0.013377539
0.064766064	0.06405502	-0.032020383	0.0026034692	0.011529167	0.005309378	0.058791615	-0.04380424	0.044442933
0.09420487	0.014580259	-0.02257103	-0.026474694	-0.026120413	-0.081583336	0.084157184	-0.027132083	0.050541963
0.05410694	0.005251709	-0.039222546	-0.04570089	-0.023583664	-0.071429744	0.0005571111	-0.06894101	0.06115257
0.028795397	0.011923281	-0.07437911	-0.057098534	-0.06936136	-0.00428925	0.035017624	-0.07603385	0.046701342
-0.00092019356	0.03221496	0.009795712	-0.06744782	-0.054319207	-0.075209886	0.023454146	-0.05866306	0.053598933
-0.00046634587	0.07576323	-0.030631917	-0.080875896	-0.018985862	-0.0150016835	0.0396796	-0.009583483	0.09329586
0.00822876	0.08224826	-0.04465144	-0.093165405	-0.024633082	0.0046936483	0.011603614	-0.05793108	0.095248885
0.08178107	0.01609516	-0.025329523	-0.037747025	-0.088314086	-0.08413747	0.019214643	-0.047870256	0.073346816
0.06122732	0.025430106	-0.048255127	-0.049715545	-0.025021179	-0.04615373	0.026922533	-0.034815494	0.01081522
0.09383189	0.047210246	-0.05238228	-0.04202283	-0.036984976	-0.031783152	0.07192987	-0.016350904	-0.006618098
0.0370099	0.019977545	-0.015605121	-0.05963761	-0.036601238	-0.05874313	0.01799196	-0.062998556	0.098752655
0.09232598	0.017215617	-0.0803429	-0.046661444	-0.07080555	-0.003132343	0.008900538	-0.093631946	0.024419002
0.0934489	0.07195454	-0.026956385	-0.0347336	-0.018599618	-0.059246164	0.026856782	-0.040201683	0.009896705
0.039367538	-0.037007812	-0.019269248	-0.03040722	-0.0581498	-0.04610563	0.066550426	-0.029894773	0.0065777777
0.06434242	0.07393664	-0.043001134	-0.020710053	-0.030185312	-0.0691603	0.06809899	-0.076532386	0.02105573
0.00021914934	0.073290996	-0.06997629	-0.052871298	-0.028610734	-0.0231905	-0.0073460266	-0.06960738	-0.012917995
0.067552574	0.08793444	-0.016978797	-0.020959428	-0.09740463	-0.07917598	0.07387234	-0.06666112	0.060270056
-0.0038618224	0.054618463	-0.018141154	-0.08220331	-0.034506097	0.010576298	0.058050163	-0.073192924	0.0068957224
0.0057173446	0.06802991	-0.02976511	-0.0725688	-0.06846506	-0.03745986	0.0585778	-0.029575806	0.03290959
0.007820431	0.04601972	-0.042439245	0.01923163	-0.0071014133	-0.05447947	0.06069639	-0.040354934	0.054268714
0.070012204	0.07864592	-0.008633533	-0.07487468	0.009776758	-0.049200606	0.042845506	0.012934358	0.0378846
0.06732478	0.062153116	-0.062705286	-0.037393358	-0.026832946	-0.050939783	0.074615456	-0.05523061	0.065029584
0.05214206	0.04945048	-0.06581149	-0.06306055	0.009400997	-0.07864732	0.05449337	0.00063906366	-0.002921881
0.027169395	0.09352178	-0.019919895	-0.03447333	-0.07290571	-0.044221923	0.026296934	-0.08415119	0.0017192189
0.08856388	0.0788463	-0.045085482	-0.042629283	-0.07126312	-0.11499969	0.025233218	-0.052727103	0.07627643
0.06781619	0.0015037302	-0.053322226	-0.049291007	-0.025364183	-0.002251084	0.050418496	0.027989596	0.033809256
0.024259206	0.0132110445	-0.08403576	7.5415956e-05	-0.06303128	-0.08228177	0.028225835	-0.06461807	0.015081057
0.06149438	0.039310653	-0.07072329	-0.034181856	-0.026781995	-0.057274777	0.08317012	-0.07795504	0.06805362
0.048580654	0.010412656	-0.03488499	-0.053500146	-0.048814487	0.03749205	0.038046684	-0.046572357	0.032838505
0.11724571	0.024852226	-0.016838398	-0.10843622	-0.02057035	-0.033703946	0.08477861	-0.08059594	0.028523209
0.05599783	0.04385973	-0.045606926	-0.005841327	0.006230779	-0.046631865	-0.01522671	-0.064746976	0.020757347
0.05195621	0.05623233	-0.07118676	-0.0040041367	0.021066094	-0.02399594	0.07098375	0.00012733944	0.06335532
0.08544603	0.06004436	-0.02042489	-0.08894801	-0.009388755	-0.03044388	0.073825955	-0.048025794	0.025795149
0.040487155	-0.015999429	-0.011233752	-0.018155308	-0.005698358	-0.02361295	0.026873553	-0.061660953	0.070832916
0.07228218	0.048674475	-0.06522634	0.0056057437	-0.06480999	-0.036383312	0.029286198	-0.0841536	0.03463963
0.06887588	0.06728025	0.011437632	0.0007580608	-0.042929836	-0.07267936	-0.010095665	0.0036876334	0.06890514
0.023200028	-0.001199357	-0.03798233	-0.013978005	-0.066609755	0.002369619	0.063422546	-0.02989206	0.0024876243
0.040329594	0.08886167	-0.014291157	-0.0808331	-0.035675596	0.003739292	0.058757205	0.0012432411	0.064352185
0.07378873	0.00055848295	-0.07593132	-0.045590203	-0.06567091	-0.013694656	0.040617883	-0.028521286	0.062702805
0.030269397	0.00060236006	-0.040991496	-0.05721836	-0.015740464	-0.028073383	0.061600994	-0.0014879394	0.08236626
0.055685416	0.030014722	0.025184063	-0.04782958	-0.045418873	-0.041221518	0.025990374	-0.019166736	0.04024373
0.06944629	0.068496525	-0.06549982	-0.046806447	-0.0506397	-0.06360308	0.08292623	-0.04412628	0.040557493
0.049464557	-0.024824958	-0.06794034	-0.015994957	-0.056913417	-0.0025329913	0.0066240495	-0.03764657	0.056686692
0.059058726	0.09735128	-0.11583907	-0.11540081	-0.021796366	-0.09578498	0.06691948	-0.035351545	0.041297466
0.0038633738	0.076870315	0.010393791	-0.014350602	-0.053280048	-0.0656222	0.060999107	-0.041957453	-0.0016105425
0.003169448	0.07580256	0.023439134	0.00891897	0.0016001918	-0.056348007	0.0061132056	-0.05935951	0.0788266
0.07933756	0.030118413	-0.05994325	-0.005771049	-0.07201881	-0.0009469029	0.024720712	0.013484498	0.076058194
0.060765076	-0.009225741	-0.038196996	-0.061210603	-0.0048035253	-0.019462788	-1.0051612e-05	-0.037810303	0.025920773
0.03592545	0.08687645	-0.07564918	-0.026877562	-0.06798967	-0.062002525	0.048806045	-0.050507683	0.07126711
0.037763335	0.10313285	-0.02916668	-0.030151524	-0.0628494	-0.045206796	0.027875317	-0.02925112	0.034425117
0.03908996	0.03794672	-0.04728133	-0.035244428	-0.055071063	-0.03792218	0.05304725	-0.075495474	0.06846878
0.04998832	0.04528597	-0.034031503	-0.00883484	0.00087220455	-0.06745243	0.0029071623	-0.0602329	0.06616594
0.07105301	0.041352134	-0.017971419	-0.05722467	-0.06436845	0.013335181	0.05862672	-0.021577567	0.027040277
0.04376802	0.06815241	-0.07745134	-0.07703111	-0.06243847	-0.07330597	0.102137245	-0.07705561	0.07722609
0.056582894	0.034079034	-0.06428952	-0.021625921	-0.010949023	-0.061084375	0.0441137	-0.016717566	0.079493254
0.021405555	0.03217109	-0.0032359539	-0.06657965	-0.07035013	-0.023345592	0.06774809	0.0074043265	0.04888026
0.022678953	0.036957446	-0.072032616	-0.029707884	-0.111502856	-0.032469463	0.021864478	-0.039969467	0.0430987
0.021086609	0.012310271	-0.037618313	-0.08960591	-0.003862489	-0.019116145	0.039923918	-0.08232023	0.006561173
0.012292778	-0.02082365	-0.07482879	-0.0046601254	-0.021450581	-0.056406416	0.0915664	-0.08617237	-0.009450649
0.011438889	0.04261817	-0.045188416	-0.045673214	-0.06968793	-0.026878411	0.038343925	-0.049443405	-0.0033317702
0.054988444	0.07608188	-0.026636057	-0.060274504	0.007029978	0.01360758	-0.016660454	-0.059150115	0.0406015
0.028759755	0.046513535	-0.014603393	-0.057409037	-0.04639391	-0.0399365	0.04178962	-0.08552868	0.028799862
0.03816039	0.056232836	-0.021523288	-0.0031511101	-0.0128438985	-0.08847984	0.08337043	-0.0122210495	0.0777063
0.05662624	0.015590402	-0.007990263	-0.00033025004	-0.07497445	-0.07945023	0.033237785	-0.004264261	0.05173691
0.0049447743	0.0653665	-0.010940419	-0.00026657668	-0.087993205	-0.013000851	0.038178597	-0.020421105	0.090328775
0.0028476662	0.045503277	-0.06202819	-0.016842468	-0.0657382	-0.009381553	0.028534468	-0.020895908	0.05560726
0.02564187	0.061403554	-0.016708214	-0.0954634	-0.084375024	-0.07375802	0.00012805976	-0.05940104	0.044920933
0.042383943	0.0782725	-0.065276615	-0.028099597	-0.056436013	-0.0742444	0.024215888	-0.0606769	0.010745514
0.029343905	0.067362495	-0.05946076	-0.065790564	0.00885145	-0.0457217	0.074177295	-0.009535852	0.055912904
0.038549565	0.052162953	-0.031526383	-0.0627471	-0.024559328	-0.0629718	0.020452106	-0.0007015359	0.020817684
0.03943613	0.016462771	-0.0825801	-0.029953254	-0.09852749	-0.027435964	0.023426056	-0.06792905	0.09148291
0.024801055	0.028390197	-0.029905422	-0.058698967	-0.03811479	-0.051359676	0.044061095	-0.07069444	0.029138101
0.04765702	0.08095561	-0.08484439	-0.09372124	-0.06239678	-0.08106439	0.09388783	-0.03426795	0.092472315
0.07899356	0.08294007	-0.05225134	-0.026536362	-0.016847964	-0.0029483284	0.0029752266	-0.013822832	0.018859202
0.015179491	0.065794095	-0.048466325	-0.036549307	-0.05509282	-0.05727232	0.028878687	-0.050576594	0.04443077
0.051512685	0.035752136	-0.052167516	-0.077472046	-0.019446231	-0.0024068572	0.015348324	-0.0149600515	0.015231619
0.048185647	0.014810815	0.0062278295	-0.06418145	-0.08694938	-0.07109968	0.0041138222	0.013617287	0.08702786
0.07152359	0.07886275	-0.07867782	-0.110048234	-0.057850204	-0.020699281	0.08138506	-0.08678521	0.07127365
0.068076134	0.04121766	-0.051036302	-0.019363744	0.011022721	-0.053825576	0.049271405	0.0062222253	0.068948664
0.017594725	0.031041687	-0.043467563	-0.024825634	-0.08906775	0.009413128	0.05730957	-0.05447679	0.077742815
0.07711288	0.10456937	-0.01850155	-0.065710045	-0.035373356	-0.017107822	0.032369036	-0.0462057	0.09506586
0.03250734	0.047522306	0.008020771	-0.0036362102	-0.070894785	-0.061602253	0.047706965	-0.046677675	-0.0030659528
0.033012435	0.086591795	-0.08318991	-0.05298968	-0.006312108	-0.060254216	0.088401124	-0.0176971	0.046205603
0.008028789	0.048197497	-0.06923045	-0.03521073	-0.09031876	-0.011916521	0.0743901	-0.01225812	0.09766087
0.07195151	0.05865159	-0.06851274	-0.027342793	0.0014234667	-0.013922759	0.046462405	-0.0046714726	0.020940224
0.093158334	0.014271452	-0.003042431	-0.10507554	-0.018959876	-0.036663912	0.05561142	-0.055232905	0.05235731
0.080569685	0.010535056	-0.016595608	-0.033413224	-0.05821324	-0.0053008674	0.047618665	-0.05342142	0.050612833
0.0064684576	0.061574347	-0.0892969	-0.044684358	-0.05065103	-0.08366146	0.07773356	-0.0002117716	0.049710963
0.087949626	0.10295747	-0.12614875	-0.05602328	-0.038721707	-0.05011753	0.030927587	-0.05077702	0.1071571
0.014710716	0.043480933	-0.01341281	-0.0100837285	-0.042283397	-0.063247174	0.047666244	0.011071573	0.066301554
0.0916767	0.05112725	-0.044716075	-0.04764274	-0.05904526	-0.043293953	0.05136866	-0.068055816	0.07035749
0.023566741	0.08475911	-0.055098977	-0.06893733	0.00042383256	-0.05375673	-0.00026142277	-0.022230858	0.07943471
0.03684021	0.08726618	-0.089324586	-0.08502272	-0.040959433	-0.092056796	0.09444309	-0.042699486	0.042013988
0.03613811	0.059034746	-0.019558147	-0.09774972	-0.088255815	-0.018774468	0.03724646	-0.09538396	0.04009235
0.021062309	0.022105863	-0.04326788	-0.06521355	-0.014727587	-0.08110563	0.06433166	-0.045337338	-0.0012005924
0.030071931	0.025416963	0.012202531	-0.008908812	-0.077953346	0.0059967116	0.06579451	-0.014052273	0.07446551
0.009091389	0.037089154	-0.009570202	-0.04411583	-0.04973536	-0.055253495	0.028052593	-0.03288585	0.00895383
-0.024845667	0.06294757	0.015655292	-0.064520724	-0.016130567	-0.060281873	-0.004028169	-0.05633123	0.04318123
0.008020408	0.119123995	-0.053845618	-0.07896794	-0.013108866	-0.07187523	0.020546693	-0.036777925	0.05847189
0.050717127	0.0737736	-0.037901208	-0.051921044	-0.04978971	-0.086980104	0.02416703	-0.02978484	0.11906562
0.02248835	0.0057653002	-0.060085334	-0.04863306	-0.08235132	-0.07057521	-0.005028447	-0.092180334	0.06894886
0.08858692	0.04672699	-0.051282484	-0.067233674	-0.11355923	-0.09070096	0.04830769	-0.039048024	0.032251257
-0.011926673	0.018868651	-0.06014537	-0.075845204	-0.055212863	-0.010510995	0.018312605	-0.078571446	0.00934315
0.0412801	0.0018275396	-0.026927412	-0.04928864	-0.050977558	-0.07903534	0.031508137	-0.03511143	-0.003421532
0.019172933	0.060079973	-0.02873975	-0.019532897	-0.06102931	-0.05943702	-0.020964991	-0.07009033	0.02220637
0.08758005	0.028314877	-0.08949034	-0.022181762	-0.026344758	-0.015098531	0.06271727	-0.011380858	0.04242455
0.017051969	0.056422487	-0.07389605	-0.045497686	-0.020296808	-0.06917009	0.05443891	-0.05149183	0.10209685
0.0971808	0.051666435	-0.066431805	-0.022891492	-0.020035824	-0.044379678	0.040013704	-0.008163734	0.07461283
0.014200895	0.07718732	0.022762377	-0.045345142	-0.009429335	-0.054584358	0.026139494	-0.05237175	0.018957468
0.020411462	0.05125955	-0.032030616	-0.0009878402	0.0033168462	-0.08365782	0.08038027	-0.0007611241	0.048519824
0.06369577	0.0077133495	-0.089382075	-0.047442343	-0.081479564	-0.010590489	0.036867987	-0.054983623	0.018075008
0.049435362	0.028192563	-0.08516899	-0.03477003	-0.0060380115	-0.05578404	0.047041837	-0.027203962	0.017880974
0.08020965	0.082201086	-0.0524196	-0.057800848	-0.016224828	-0.030807108	0.018784266	-0.024668824	0.07478436
0.03214605	-0.0016176983	0.0022621986	-0.007047821	-0.06947466	-0.033232182	0.061762817	-0.078809105	0.015198956
0.0490381	0.06074472	0.016014071	-0.06708546	0.005303663	-0.07222217	0.027271582	-0.071133316	0.011897446
0.004372094	0.038981248	-0.0632877	-0.04287896	-0.0742952	0.00672133	0.021077309	-0.06584315	0.020035455
0.0905894	0.01638732	-0.06723164	-0.03619043	-0.016287385	-0.060263164	0.04995908	-0.017426861	0.06987249
0.075412296	0.029534686	-0.03635519	-0.07597908	-0.04313698	-0.022328	0.08765921	-0.09352344	0.06378832
0.02749117	0.080643706	-0.07000302	0.0054984125	-0.007166879	-0.041715875	0.0050729956	-0.023787698	0.05895782
0.056091223	0.005122534	-0.017466236	-0.037091214	-0.05018675	-0.09587325	0.071957685	-0.03704086	0.0044277143
0.010852246	0.020153685	-0.0687944	-0.05147436	-0.023161385	-0.048274014	0.060867954	-0.03589715	0.045455523
0.06419847	0.021035818	-0.05191618	-0.09173294	-0.004955997	-0.046195365	0.08220971	-0.022495274	0.05821946
0.043026134	0.0799093	-0.0153988665	-0.06258928	-0.012198438	-0.08655763	0.055315793	-0.01937682	0.03689403
-0.0060635437	0.07583858	-0.062857054	-0.027153442	-0.04308897	-0.042740688	0.009433598	-0.029925192	-0.014435113
0.056659415	0.0037670743	-0.09029151	0.008488974	-0.0265259	0.0009923088	0.058267906	-0.036769684	0.086966135
0.065285504	0.011439454	-0.06103248	-0.07434481	-0.07996202	-0.00977546	0.09969657	-0.020532977	0.013415844
0.07994636	0.018682633	-0.007100399	-0.053264976	-0.02720125	-0.07656454	0.004454472	-0.0567759	0.048584126
0.033160206	-0.0062234616	-0.013831696	-0.046813127	-0.081112385	-0.07270105	0.08077364	0.00015057737	0.011555183
0.07370526	0.07037854	-0.13222626	-0.056614958	-0.056531567	-0.08047441	0.06353142	-0.08708799	0.1132011
0.087415725	0.010816331	-0.04506091	-0.028537769	-0.022656811	-0.052240532	0.0028907896	0.0017774462	0.022090333
0.07993807	0.080643475	-0.12137289	-0.08859005	-0.0936806	-0.06751328	0.041655537	-0.060765512	0.07706344
0.076267816	0.023831176	-0.03322076	-0.008605995	-0.018785516	-0.022701243	0.029929716	-0.01692064	0.10372943
0.06192803	0.0018367057	-0.04824853	-0.048788425	-0.005483884	-0.03642315	-0.0003598745	-0.0061011706	0.05899464
0.071669884	0.07726254	-0.08097956	-0.064532004	-0.0637968	-0.04303696	0.023547173	-0.0051097986	0.10296593
-0.0050992114	0.0016238133	-0.07460141	-0.06061274	-0.0028925806	0.008927346	0.0633313	-0.044912707	0.038857393
0.037662316	0.10982486	-0.043978583	-0.08053377	-0.0089654075	-0.0355139	0.08533222	-0.025359903	0.08754241
0.040551536	0.053698853	0.002886197	-0.07218522	-0.019140707	-0.054522198	0.077073626	-0.023379609	0.032627113
0.06441407	0.04249387	-0.05078818	-0.014915736	-0.07905143	-0.06654998	0.07767895	0.009196251	0.0024037552
0.09046538	0.079178125	-0.044975214	-0.052227058	-0.0122436825	0.0046887533	0.037345394	-0.055266377	0.045520443
0.04341979	0.08371204	-0.051611092	-0.08839993	-0.052932568	-0.059722714	0.057412695	-0.061701026	0.05338579
0.056905046	0.0050503653	-0.0140726585	-0.0700058	-0.042405706	-0.08004046	0.045234356	-0.07059543	0.046746753
0.0010317536	0.024744775	-0.025189206	-0.083780214	-0.04300922	-0.06943213	0.07011708	-0.053454354	0.04126551
0.068033025	0.076219454	-0.06830109	-0.04011921	-0.017833877	-0.056139812	0.029812235	-0.032947425	0.058490895
-0.0017076354	0.012965032	0.01875446	-0.08429793	-0.06692742	-0.035726022	0.025813367	-0.048671853	0.028564885
0.06448388	0.052683666	-0.033210993	0.01757714	-0.0389971	-0.06402428	0.006604631	-0.051770907	0.069024436
0.063522086	0.041635334	-0.021476192	-0.05341231	-0.056110173	-0.031401604	0.013647184	-0.023500726	0.055304457
0.09124122	0.011500595	-0.057272974	-0.03899878	-0.058440793	-0.06032086	0.077510774	-0.039664183	0.01829832
0.068652034	0.059526287	-0.00555296	-0.09805367	-0.035636865	-0.029227177	0.004390312	-0.04745157	0.086425416
0.008306152	0.0139108095	-0.09803249	-0.0007544382	-0.047431026	-0.042145327	0.075166814	-0.10359956	0.056742344
-0.0074181412	0.06504108	-0.040281415	-0.05373438	-0.031178232	-0.05063628	-0.008692294	-0.057941023	-0.012139847
0.017564768	0.0153406225	-0.041188452	-0.07984853	-0.02022535	-0.08752097	0.030443618	-0.03474471	0.034371074
0.09684656	0.016500972	-0.07246255	-0.03567322	-0.08274451	-0.007177625	0.091075614	-0.052660596	0.06903715
0.038822826	0.047278363	-0.078274794	-0.009559325	-0.037646573	-0.06308389	0.06499848	-0.036798824	0.05504301
0.056282602	0.045471717	-0.060401402	-0.06821312	0.00361029	-0.005755119	0.028451748	-0.07047854	0.04406396
0.028791761	0.090409786	-0.053053644	-0.10031414	-0.075353436	-0.053899083	-0.010372655	-0.0912927	0.04689331
0.012761156	0.0011021718	-0.07332712	-0.002233911	-0.05852347	-0.06038349	0.061065264	-0.015939265	0.044990625
0.04078747	0.036850363	-0.044512093	-0.09699204	-0.027324904	-0.045145262	0.027899591	-0.094401896	0.023751138
0.026103793	0.046154503	-0.10005017	-0.030716838	-0.040290315	-0.06967441	0.10073861	-0.108245715	0.05585573
0.1066606	0.010407868	-0.0731863	-0.07470227	-0.01906318	-0.04905675	0.039683677	-0.054663815	0.041824594
0.047376577	0.052763592	-0.059888594	-0.055998355	-0.05453306	-0.07803914	0.062080897	-0.014213995	0.054733902
0.032664046	0.07899351	-0.06443592	-0.032644063	-0.070190884	-0.062155556	0.06274825	-0.016820723	0.041030668
0.012770319	0.025932796	-0.03615703	-0.082296595	-0.04741761	-0.01605685	0.07409962	-0.07264383	0.080915794
0.060367413	0.026528286	-0.0026216428	-0.07271466	-0.0049395175	-0.07043036	0.05937119	-0.047515586	0.0074141542
0.04499162	0.057343908	-0.019263536	-0.058713365	-0.016755536	-0.014916164	0.015177492	-0.02668449	0.062579945
0.07392085	-0.014493743	-0.026097924	-0.026170563	-0.05977142	-0.013160197	0.02404643	-0.030447636	0.08287536
0.010374451	0.033009104	-0.05260153	-0.072146185	-0.024653224	-0.06489797	0.03917748	0.006600893	-0.014233556
0.05590732	0.049015418	-0.059833538	0.014766703	-0.057082467	-0.020732049	-0.0065904474	0.012181705	0.063634954
0.08647261	0.08285542	0.010800753	-0.0031760586	-0.038670287	-0.069648184	0.009866522	-0.027961327	0.04266449
0.025813436	0.0074965577	-0.07414622	-0.07129294	-0.07203801	-0.012818264	0.051907007	-0.017679464	-0.006698153
0.01935988	0.074686885	-0.05548179	-0.027363969	-0.02145091	-0.02199355	0.048062086	-0.060704216	0.108822174
0.049136523	0.009531936	-0.010631112	-0.08349593	-0.030145837	-0.03060061	0.033159167	-0.042595048	0.085484564
0.016012868	0.039849237	-0.042533938	-0.06319205	-0.048789356	-0.09467798	0.006860416	-0.027408734	0.07410784
-0.011218928	0.06014571	-0.05165801	-0.053002883	-0.051266745	0.019681912	0.03362255	-0.04705107	-0.012404352
0.023853842	0.123820335	-0.05700618	-0.026614936	-0.0425765	-0.08797143	0.0682609	-0.051882744	0.03581803
0.0071351468	0.095662415	-0.06248263	-0.06780766	-0.06492306	-0.043593187	0.023270791	-0.06467864	0.014553802
0.030595161	0.0021859803	0.0006514019	-0.060236435	-0.04146373	-0.035497505	0.059683412	-0.07120035	0.036408078
0.08183921	0.08685645	-0.032246914	-0.002335966	-0.032508016	-0.01901622	0.018220726	-0.06914118	0.0491519
0.063786104	0.05630986	-0.01337544	-0.03422213	-0.046397425	-0.021739434	0.034399804	-0.038333524	0.065035045
0.073170744	0.019983454	-0.085039966	-0.08859892	-0.02133942	-0.08063962	-0.0013458389	-0.0872573	0.06488651
0.06537361	0.06541978	-0.03836156	-0.053694785	-0.027287357	-0.0091981385	0.0682386	-0.04973697	0.013534245
0.025480028	0.0037209468	-0.047912374	-0.08179381	-0.0674172	-0.06764593	-0.006509574	0.0045920904	0.024559114
0.06560536	0.043026254	-0.042566735	-0.024175715	-0.048536528	-0.0011099192	0.0125884665	-0.032390714	0.061664723
0.09502747	0.043068025	-0.020535987	-0.01368539	-0.024755651	-0.0065618088	0.017377498	-0.09515589	0.00812866
0.050534233	-0.009637241	-0.036293153	-0.033552997	-0.06524215	0.005695017	0.017828474	-0.041135397	0.07870753
0.09410877	0.05612711	-0.047491	-0.042776447	-0.011590111	-0.066217124	0.022739653	-0.088007316	0.037020434
-0.018450692	0.027864818	-0.039100435	-0.026254185	-0.043995567	-0.0665754	0.02120739	-0.05660542	0.029089581
0.023415433	0.08292949	-0.052426163	-0.07359973	-0.039890163	-0.095918775	0.08325974	-0.090221874	0.104205355
0.009143237	0.041826114	0.0066910563	-0.042145018	-0.07013086	-0.06582316	0.07276336	-0.038491003	0.012981979
0.020714844	0.07168655	-0.03580435	-0.034510612	-0.027425442	-0.02411343	0.014451546	-0.061082505	0.029550282
0.026067609	0.027142206	-0.09942407	-0.018186897	-0.06676819	-0.0112377275	-0.0082408525	-0.08203744	0.04389337
0.05535964	0.05681439	-0.06913773	-0.06431913	-0.027801717	-0.033431172	0.034548663	-0.045012727	-0.0071387147
0.029542789	0.028387176	-0.033763	-0.047616333	-0.008758576	-0.04566183	0.03086721	-0.10095162	0.03176582
0.07593923	0.06174632	-0.02437529	-0.06395281	-0.02964457	-0.009127584	0.025790788	-0.012846417	0.0430715
0.03515912	0.033268202	-0.06632826	-0.07442506	-0.02050459	-0.031615756	0.031891566	-0.036594294	0.0014865499
-0.0048309867	0.053224042	-0.03442663	-0.059862513	-0.030733066	-0.05607454	-0.025012564	-0.07549	0.026676882
0.045496095	0.0038901707	0.011496302	-0.05127645	-0.039647672	-0.06511254	0.027574375	-0.06903249	0.024747446
0.06684191	0.011252807	-0.018195862	-0.07772823	-0.09555592	-0.03541565	0.023332203	-0.023486417	0.087590456
-0.015876753	0.053630125	0.002015041	-0.046973173	-0.07709355	-0.0394297	0.008872775	-0.08147881	0.008675373
0.04985839	0.032341797	-0.048460543	-0.05409411	-0.08414432	-0.018679798	0.034024037	-0.037482876	0.07381234
0.064524226	0.035574492	0.037798446	-0.04611853	-0.00063719734	-0.050974336	0.07802403	-0.008390546	0.03997709
0.02765823	0.04218572	-0.00983969	-0.016762083	-0.019511595	-0.06397584	0.08673024	-0.1035779	0.053378955
0.046694294	0.015412251	0.016154084	-0.056321986	-0.060109824	-0.03011502	-0.0053416616	-0.03927727	0.02058273
0.07566475	-0.007719475	-0.019371526	0.021155827	-0.028099598	-0.04647786	-0.019915346	-0.010045448	0.052671805
0.030657802	0.043127697	-0.007171863	-0.041564297	-0.027031342	-0.06843379	0.04027755	-0.03330995	0.039227903
0.018418605	0.0270324	-0.048340593	-0.05159421	-0.09137365	-0.01643607	0.033941388	-0.05108632	0.026558839
0.012194909	0.037791573	-0.040289067	-0.001620144	-0.06341887	-0.027599432	0.020576302	0.0030589357	0.03580156
0.04236179	0.07417274	-0.07639662	-0.06870206	-0.009418286	-0.004696489	0.048702296	-0.06617135	0.05145238
-0.00758458	-0.012338404	-0.09637064	-0.06761475	-0.02924191	-0.026744444	0.017719377	-0.075258754	0.025942309
0.08798882	0.073796816	-0.08809461	-0.03868379	0.008886069	-0.066691756	0.06948027	0.0027837951	0.048860863
0.0641197	0.011018762	-0.069319524	-0.03552852	-0.005788378	-0.029025257	-0.0045141485	-0.038943395	0.040110342
0.029479112	0.07316021	-0.0058772983	-0.08875605	-0.0022288542	-0.052996196	0.07438632	-0.08690122	0.090103425
0.01793934	0.06770539	-0.052918665	-0.078443505	-0.018893039	-0.019537613	0.04362042	-0.003900356	0.008720681
0.08908217	0.039741218	0.0006484989	-0.052724548	-0.08225639	-0.00352959	0.06211339	-0.013107834	0.082682855
0.030175718	0.002253715	-0.05639655	-0.005802008	-0.04621925	-0.08131822	0.02961723	-0.062454376	0.03628833
0.062045872	0.037246116	-0.030633232	-0.06474064	-0.04146655	-0.10023727	0.07818391	-0.11790801	0.059990767
0.04323464	0.05616999	0.0048603923	-0.016752683	-0.0391445	-0.05068321	0.030580185	-0.052179065	0.088105164
0.018925019	0.08376407	-0.03622898	-0.029511377	-0.03520502	-0.03450038	0.048471663	-0.015039166	0.054395765
0.038094386	0.027203754	-0.023573812	-0.07104726	-0.045372408	-0.065815374	0.0867304	-0.046303518	0.033416167
0.074551396	0.053420305	-0.017719716	-0.040708542	-0.07518207	-0.04534465	0.012004817	-0.05112253	0.09329999
0.055901576	0.047693722	-0.016113013	-0.054046147	-0.033194654	-0.06875692	-0.020268431	-0.031959683	0.01260184
0.04749015	0.053678676	-0.04062843	-0.022555107	-0.06696754	-0.040172722	0.057000324	-0.08251654	0.05911226
0.06704727	0.048906982	-0.037248645	-0.04207053	-0.061809387	0.018258395	-0.025596917	-0.02388927	0.0118985
0.07650594	0.05943022	-0.035564363	-0.047261383	-0.07921731	-0.06473686	0.017790407	-0.05088288	0.0018255023
0.063247666	0.013436707	-0.023255233	-0.061821006	-0.037763145	-0.044746436	0.02624637	-0.046025835	-0.013869335
0.0047066463	0.071495235	-0.042526376	0.0059739547	0.010801912	-0.07720971	0.04181368	0.004942213	0.035657234
0.050327018	0.042052723	-0.059087794	-0.05442008	-0.05572064	-0.005714606	0.059813276	-0.043859422	0.016883742
0.07532789	0.010961897	-0.088326775	-0.028665213	-0.08796233	-0.01051804	0.08614173	-0.049542192	0.01823648
0.023764197	0.08828376	-0.034785192	-0.07152736	-0.020985907	-0.042859074	0.0037466846	-0.029085087	0.057644334
0.0423502	0.025048885	-0.028885946	-0.015411483	-0.014850873	-0.07333207	0.017744616	-0.06921347	0.030282898
0.06880485	0.07900785	-0.0029270228	-0.02014577	-0.070928946	-0.02754631	0.029481431	-0.018390737	0.018753158
0.056663353	0.042070556	-0.027816426	-0.033751916	-0.07285103	-0.024505287	0.06855923	-0.049003664	0.06127867
0.029444126	0.060059816	-0.020667909	-0.09504519	-0.07231506	-0.04687295	0.019775797	-0.06258534	0.04558124
0.042935446	0.061106957	-0.00888546	0.010384394	-0.068254925	-0.026807291	0.011215511	-0.044404358	-0.0009736999
0.12820068	0.060286574	-0.05792727	-0.075151	-0.059283722	-0.035543587	0.054068062	-0.07990465	0.09903807
0.07689312	0.03609307	-0.09714267	-0.034748282	-0.01588331	-0.08139834	0.052294537	-0.016568307	0.10719772
0.06990555	0.043674454	-0.07253693	-0.013230988	-0.05126637	-0.07391077	0.03733352	-0.035156835	0.049966127
0.050220467	0.02674895	-0.097060464	-0.084039874	-0.027533827	-0.04311788	0.036468305	-0.047921196	0.09372903
0.06780196	0.08386496	-0.05306129	-0.085152365	-0.095362075	-0.11507404	0.05387798	-0.050531637	0.09552425
0.05678074	0.04128032	-0.05763417	-0.06931215	-0.06987903	0.014224595	0.00036034832	-0.04028443	0.06431831
0.015027911	0.028968267	0.00515603	-0.033594083	-0.04061449	-0.086591125	0.046154827	-0.08008493	0.048707105
0.054640055	0.026617939	-0.072392	-0.06319177	-0.056139253	-0.03989516	0.0035837435	-0.010801509	0.078217864
0.05659828	0.005507046	-0.074632704	-0.0740223	-0.03404773	-0.06528729	-0.010476477	-0.02929863	0.014264986
0.08783311	0.034923445	-0.027852563	-0.053806346	-0.09263713	-0.015697608	0.036262166	-0.047057696	0.004413319
0.010703369	0.017810864	0.021859696	-0.030490976	-0.03559701	-0.03559693	0.0772074	-0.07881416	0.023045862
0.05211376	0.072827324	-0.029410742	0.0052252235	-0.05205572	-0.06517641	0.0027691058	-0.05829082	0.020534994
0.02026117	0.052242443	-0.062415436	-0.07834796	-0.06681861	0.0159599	-0.014920686	0.02662706	-0.009680339
0.060608193	0.05046463	-0.063625455	-0.0023724097	-0.08489675	-0.0064193816	0.031377774	-0.011814848	0.043357454
0.031390086	0.0770934	-0.056365587	-0.065213226	-0.07389556	-0.07357646	0.0013712174	-0.006154449	0.050236527
0.032004353	0.074752636	-0.03546166	-0.0020329508	-0.027132165	0.029903721	0.056012403	-0.05154952	0.03761139
0.01702218	0.047036976	-0.10045295	-0.09914831	-0.025964318	-0.07237229	0.017240848	-0.03741694	0.026356937
0.0063663097	0.0425846	-0.06309471	-0.012817369	-0.035336208	-0.041577864	0.024679087	-0.05134487	-0.034244146
0.062137242	0.08618193	-0.04425396	-0.033346176	-0.032301098	0.0055495054	0.07457158	-0.033089407	-0.0043121874
0.017579718	0.007861569	-0.05646828	-0.0045657014	-0.0038046627	-0.07598989	0.013193145	-0.025675232	0.058587518
0.051617946	0.038498677	-0.05772375	-0.06157041	-0.016968196	-0.07591342	-0.014270967	-0.08517453	0.007419961
0.0180478	0.09005302	-0.0121510755	-0.04146903	-0.0504285	-0.10312353	0.02393194	-0.06913716	0.04593879
0.082485944	0.08720713	-0.04777101	-0.024302049	-0.038144473	-0.031869825	0.05469552	-0.08480334	0.043333072
0.05796763	-0.0075100055	-0.03864417	-0.031872112	-0.08497159	-0.041014027	-0.0032515181	-0.0103804255	0.016953493
0.07468358	0.009677013	0.012836868	-0.0107255075	-0.061051592	-0.019385373	0.060321353	-0.05878856	0.07627277
0.01593551	0.015241608	-0.052408762	-0.039978378	-0.027039962	-0.040249147	0.032492142	-0.05626789	0.019894421
-0.013562813	-0.004998814	-0.08394094	-0.05283646	-0.057658423	-0.04482315	0.0733621	-0.028004432	0.048433743
0.048303638	-0.008098203	-0.020562718	-0.049948856	-0.07832299	-0.0739604	0.043713782	-0.04290788	0.04191683
0.045833632	0.051769234	-0.06699831	-0.0013387899	-0.07296971	-0.057263747	-0.0065339804	-0.030051757	0.011330313
0.0052295174	0.041132074	0.002567973	-0.08548682	-0.005876348	-0.05669808	0.018374505	-0.029249344	0.09062343
0.03377796	0.05218878	-0.0051539335	-0.06027535	-0.07111435	-0.083237045	0.042359	-0.052328542	0.036310237
0.019930424	0.06763563	0.016479984	-0.021787798	-0.07677606	0.0033034286	0.05071474	-0.04348505	0.048692934
0.015381767	0.056640733	0.002447201	-0.06767333	-0.07350176	-0.02002766	0.037782528	-0.033123184	-0.0025288463
0.0282877	0.076410696	-0.0011139975	-0.06850815	-0.01600459	-0.034121163	0.047718327	-0.010844317	0.03096335
0.012676344	0.08771287	-0.09762243	-0.076420456	-0.057613343	-0.070433885	0.07109665	-0.10592108	0.018777285
0.061702516	0.036903296	-0.03095061	-0.038909767	-0.047035906	-0.062076423	0.084383756	-0.1004144	0.02147609
0.058039483	0.0235986	-0.05291347	-0.0022076645	-0.025100565	0.011816507	0.04613796	-0.079402074	0.033174083
0.040555373	-0.0035550164	-0.042717237	-0.043154042	-0.03325068	-0.07558103	0.039609108	-0.046359442	0.06296239
0.06584412	0.026788643	0.027765322	-0.046621382	-0.022164887	-0.057079356	0.013667576	-0.024843492	0.016681505
0.0010325494	0.035093058	-0.0102716405	-0.029687265	-0.07597417	-0.06053573	0.019268062	-0.049402118	0.034867514
0.11415017	0.04492337	-0.02820943	-0.10472065	-0.099515185	-0.12446984	0.10018852	-0.06741697	0.03097513
0.035794	0.024182606	-0.046861794	-0.054595258	-0.00084531825	-0.044481512	0.073287845	-0.06810164	0.0056634257
0.113640144	0.11941628	-0.0929264	-0.07688551	-0.11014888	-0.056665152	0.037024938	-0.056733396	0.053664997
0.06671888	0.040905263	-0.052584622	-0.03951812	-0.028515982	-0.04853404	0.027623689	-0.05880214	0.026246192
-0.012960192	0.06853419	-0.07176818	-0.010811492	-0.05737877	-0.06804456	0.053417433	-0.072925255	0.060826484
0.017389307	0.098497555	-0.09969232	-0.03693965	-0.05355784	-0.029398775	0.0026705158	-0.00643209	0.030368865
0.027130764	0.044289526	-0.020718602	-0.09747906	-0.012133375	-0.03987399	0.044914808	-0.07350798	0.020296827
0.027923059	0.025855804	-0.090560645	-0.098524146	-0.04262783	-0.024276124	0.06734214	-0.018212946	0.06536304
0.040628858	-0.013572643	-0.02702544	-0.061749496	0.0029121023	-0.056283865	0.025496954	-0.022708949	0.07551724
0.04826174	0.08113152	-0.037836947	-0.028981121	-0.03553074	-0.041531608	-0.0032346249	-0.04863926	0.0733703
0.09920416	0.098397784	-0.014135444	-0.07145865	-0.01190386	-0.075518124	0.06896149	-0.06805746	0.10675599
0.021066552	0.08719286	-0.005850183	-0.045617435	0.009078411	-0.065591246	0.0103599345	-0.086697675	0.023739396
0.051930126	0.057449188	-0.07350725	-0.042363662	-0.048855606	-0.05055443	-0.031628717	-0.03357999	-0.018489635
-0.004633447	0.012607436	-0.07163565	-0.004418081	-0.049810436	-0.04574071	0.01523189	-0.037712686	0.00083525316
0.069165654	-0.008461686	-0.07624572	-0.046184596	-0.064150736	-0.035092495	-0.01753274	-0.07804103	0.07490901
0.01585104	0.02904803	-0.08725864	-0.060122486	-0.032234903	-0.0055949804	0.006832408	-0.06489676	0.04315946
0.007825877	-0.017188678	0.009338283	0.0034532864	-0.03917609	-0.07792309	0.040515147	-0.06458168	0.055808682
0.109105684	0.0139365895	-0.06139183	-0.048400316	-0.08478675	-0.028828915	0.019680431	-0.045477144	0.044460762
0.09269694	0.064726405	-0.07163223	-0.077618815	-0.050025124	-0.034093346	0.029830432	-0.03894	0.0028077061
0.08563517	0.0050031147	-0.09181909	-0.06582589	-0.083383314	-0.05924064	0.05213572	-0.036528416	-0.0060155145
0.05403347	0.060484942	-0.008621338	-0.008878021	-0.040153436	-0.021969106	0.068172	-0.076519094	0.040033717
0.041403703	0.029824866	-0.029073607	-0.027633969	-0.039231	-0.061810568	-0.011666831	-0.0122029185	0.05194469
0.06847166	0.08542715	-0.078332305	-0.05292914	-0.021772344	-0.024855832	0.02223945	-0.02484414	0.09172389
0.06597123	0.07045397	-0.00032489665	-0.08927471	-0.040307973	-0.028508766	0.025089901	-0.017769104	0.011813899
0.09104671	0.023832947	-0.04892048	-0.07178719	-0.07673945	-0.088939995	0.016825918	-0.08515398	-0.0065790066
0.079208456	0.075026676	-0.021933813	-0.014980653	-0.07818773	-0.03826419	-0.0086443275	-0.049229942	-0.002662561
0.11468681	0.11356875	-0.07600404	-0.08549994	-0.052711282	-0.09721157	0.091751605	-0.07640273	0.06697597
0.062099963	0.017352343	-0.035977762	-0.05484446	-0.032929797	-0.020645006	0.0012138363	-0.07238038	0.031205289
0.1152085	0.02717599	-0.049024787	-0.048246603	-0.07815193	-0.03518935	0.008419991	-0.035905447	0.03105778
0.0971939	0.055716537	-0.08171191	-0.050130393	-0.07580516	-0.08271165	0.07089533	-0.10826344	0.12884742
0.023858793	0.028371422	-0.074427165	-0.06798017	-0.04720781	-0.0035046497	0.046876688	-0.011790248	0.048851293
0.04107267	0.051095515	-0.035359904	-0.05827252	-0.027549125	-0.09604933	0.030715376	0.004611614	0.008244201
0.059726056	0.02036884	-0.026361372	-0.018516954	-0.016956827	-0.05175534	0.007888266	-0.066649385	0.0446125
0.04585718	0.040784687	-0.036156315	-0.015794134	-0.055678017	-0.068271205	0.010869375	-0.06534419	0.004534737
0.0294373	0.05473876	-0.07857947	-0.06478163	-0.07419395	-0.014845865	0.014069006	-0.0762922	0.00538104
0.12262362	0.069328986	-0.1048534	-0.031428788	-0.08487486	-0.11623819	0.09977836	-0.041502498	0.03682477
0.002193594	0.06358462	-0.018520601	-0.043620408	-0.008994685	-0.01463063	0.04244502	-0.013645915	0.09092312
0.042271007	0.02505584	-0.031391807	-0.052158974	-0.06616402	-0.015882935	0.046296638	-0.052408703	0.08488367
0.027393911	0.11539592	-0.012202463	-0.063090846	-0.05166534	-0.039729122	0.025776597	-0.033970684	0.023644313
0.09127579	0.04032855	-0.055234574	-0.044222247	-0.063379586	-0.007883299	0.069772564	0.003162823	0.048780747
0.04513695	0.011240287	-0.07737178	-0.039683428	-0.08165945	-0.0045166733	0.04072945	-0.015784204	0.028241104
0.06965168	0.0631089	0.0023758628	-0.02967852	-0.07828254	-0.0056076697	0.074244656	0.0032554835	0.031825397
0.0734189	0.07488581	-0.05452715	-0.0680165	-0.017423721	-0.1072915	0.07807003	-0.038004003	0.0433683
0.1122485	0.054270443	-0.11491096	-0.024631388	-0.092330806	-0.058361907	0.032411065	-0.06652005	0.108190216
0.039925028	0.02324425	-0.05235905	-0.06846738	-0.060337856	-0.07377064	0.0071849646	-0.035317946	0.025435911
0.059694424	0.06143965	-0.027148332	-0.040365323	-0.027873693	-0.036729105	0.05988987	-0.100151345	0.028193971
0.03428753	-0.0047642537	-0.048303932	-0.072035834	-0.07578177	-0.030898383	0.089438275	-0.073910445	0.023040742
0.024619974	0.06492	-0.078774646	-0.07271699	-0.07094307	-0.05523797	0.0556701	-0.034765422	0.09968241
0.011757481	0.033984493	-0.051681947	-0.014153328	-0.010766071	-0.015856009	0.0128190955	-0.020899393	0.07037534
-0.0051076743	0.015819496	-0.040953863	-0.017378824	-0.02754663	-0.081733	0.06690588	-0.076785356	0.04049738
0.046694472	0.042301334	-0.034331657	-0.037476342	-0.006329205	-0.08238023	0.038196698	-0.08874443	0.016452761
0.055609543	0.036868937	-0.031761702	-0.07266548	-0.0562332	-0.018008366	0.012080427	-0.015487035	0.08597894
0.08943193	0.029092548	-0.043971445	-0.03718156	-0.06487469	-0.038601752	0.012316906	0.00221914	0.061327845
0.028467588	0.10630815	-0.034553356	-0.039039593	-0.03419338	-0.05922597	0.086334296	-0.053096857	0.0819059
0.06477259	0.049275946	-0.0037020233	-0.05709122	-0.075457714	-0.044013012	0.06438746	-0.047527224	-0.010431414
0.036603402	0.034163292	-0.10336535	-0.04387904	-0.017563725	-0.10198935	0.027025446	-0.040633954	0.06984782
0.02209728	0.026602289	-0.07060375	-0.009529843	-0.08142247	-0.023647236	0.070974104	-0.01112938	0.06707568
0.04565054	0.017424595	-0.0143812485	-0.10206838	-0.021412825	-0.06663301	0.027130637	-0.08216542	0.057919938
0.01547674	0.06262693	-0.016318375	-0.048370652	-0.0032159416	-0.060381394	0.049764454	-0.065906554	0.013632689
0.012220919	0.021296838	-0.048294224	-0.044235162	0.01524138	-0.07865235	0.014999905	-0.07746634	0.04378481
0.0040350407	0.074661545	-0.011922657	-0.062951505	-0.02726665	-0.009491337	-0.0011940736	0.0010457359	0.048022483
-0.0006070224	0.016086632	-0.03869172	-0.0498547	-0.080366716	-0.03838142	0.049402904	-0.012040144	0.084466405
0.049558707	0.029059755	-0.058085233	-0.042919394	-0.021382106	-0.070696406	0.012047404	-0.05941391	-0.021192186
0.05291737	0.058889043	-0.008953929	-0.0480621	-0.0011869392	-0.031892452	0.05066107	-0.038981237	0.064273395
-0.0049441736	0.06368709	-0.030345408	-0.064872205	-0.05634186	-0.045424554	0.024363713	-0.03939817	0.026629694
0.073047705	0.04463517	-0.04226939	-0.00522124	-0.030187676	-0.050869018	0.009674796	-0.03588461	0.013992594
0.041627996	0.06838044	-0.09303314	-0.05029283	-0.07211702	-0.022637561	0.050038185	-0.036854353	0.06798999
0.05621984	0.028470734	-0.060243968	-0.026904833	-0.018069308	-0.08943687	-0.004062238	-0.00249624	0.07600353
0.09546054	0.02254923	-0.011770799	-0.075512715	-0.05071928	-0.024318783	0.034827568	-0.08011714	0.017475134
0.04560902	0.071338356	-0.10713539	-0.045159593	-0.05439094	-0.032116454	0.079434544	-0.03865306	0.10639534
0.037064064	0.031142447	-0.06307528	-0.07113315	-0.11598572	-0.101260975	0.041524857	-0.054388084	0.02750477
0.07232539	0.054498903	-0.033914726	0.0041342136	-0.09021894	-0.07474543	0.010714151	-2.651268e-05	0.03110569
0.059886344	0.03437427	-0.016979119	-0.042974144	-0.06585248	-0.055502474	0.040333394	-0.062023763	0.010543038
0.01902814	0.07032056	-0.078100964	-0.016893497	-0.008779025	-0.08291536	-0.004002875	-0.047592904	0.0034088609
0.015707912	0.029778918	-0.060680382	-0.07014764	-0.025794737	-0.01271609	0.048693385	-0.054474454	0.05156161
0.034212764	0.03693723	-0.070621185	-0.021644408	-0.03722998	-0.03794745	0.024654083	-0.027612334	0.05142314
