-0.008145543	-0.004725598	-0.050472844	0.07793874
0.021699801	0.034866888	-0.055361316	0.09458307
0.09521108	0.05043249	-0.036550973	0.015811138
0.07401311	0.09945306	-0.009466359	0.07674126
0.09587922	0.035356063	-0.036612734	0.0429923
0.08354373	0.1084498	-0.12729467	0.0631649
0.076725736	0.057559486	-0.05768013	0.09514793
0.10225167	0.05177657	-0.08888026	0.13230003
0.090923175	0.03982561	-0.073062584	0.038414955
0.0005476828	-0.003631117	-0.07484403	0.0779721
0.12376534	0.06289844	-0.112738594	0.13130146
0.09711031	0.098158434	-0.040637456	0.12710488
0.049234685	0.06673948	-0.02619955	0.096289165
0.018801413	0.10747553	-0.07928981	0.046240855
0.072527185	0.066945575	-0.0206301	0.07477358
0.042090826	0.08734212	-0.09436944	0.07782558
0.05148097	0.044343095	-0.051583413	0.033851143
0.04266547	0.00878439	-0.009589451	0.10592392
0.10432547	0.024552044	-0.084611244	0.03609229
0.044525046	0.06595634	-0.055612534	0.03863759
0.06065783	0.04447205	-0.03579624	0.09256393
0.01930518	0.08379125	-0.033183105	0.088934235
0.04793154	0.078798525	-0.05545676	0.028428663
0.033187326	0.051262215	-0.07479683	0.04069877
0.07620043	0.0018247344	-0.031407706	0.06819803
0.09149289	0.06900448	-0.039730553	0.034611583
0.07793948	0.019651053	-0.10337752	0.023678103
0.10086819	0.06489659	-0.12328902	0.035337374
0.051666353	0.05116089	-0.037332647	0.056345284
0.08937965	0.10448405	-0.012062344	0.08711217
0.056120634	0.080091305	-0.027423903	0.02061071
0.062479705	0.006901114	-0.049306836	0.057617582
0.024121428	0.07262303	-0.10190592	0.0228248
0.010153782	0.055938926	-0.035953514	0.061067265
0.066047885	0.021793032	-0.061886325	0.028985621
0.03713304	0.038102645	-0.079399735	0.034300227
0.07776181	0.06465074	-0.10441166	0.06041353
0.034930438	0.08177637	-0.041266117	0.049519055
0.018433273	0.09134458	-0.041639775	0.037969925
0.013023651	0.020273639	-0.09168129	0.087748714
0.018987488	0.028592259	-0.060774162	0.068369605
0.06020268	0.083785035	-0.07149157	0.050642043
0.08008889	0.12576035	-0.108369574	0.09619288
0.11497536	0.13261811	-0.07825505	0.062957756
0.044829804	0.00798323	-0.07487226	0.07890727
0.08822852	0.059829976	-0.038778167	0.055214833
0.032203577	0.0042791185	-0.06658069	0.0982202
0.067659795	0.08472428	0.0032776345	0.047505442
0.119116455	0.06455578	-0.11569286	0.06367806
0.063533135	0.039340667	-0.026867349	0.076115
-0.0038699736	0.05745323	-0.017872812	0.067369334
0.07415438	0.027504157	-0.044452567	0.04160542
0.10179614	0.052994214	-0.079424076	0.036577057
0.040685453	0.059591874	-0.054059546	0.03863123
0.05807246	0.04067682	-0.045467585	0.062002994
0.04618938	0.059926197	-0.057091847	0.021281414
0.07854293	0.02679886	-0.021205487	0.04055381
0.08567846	0.064836174	-0.09276216	0.08369743
0.13446221	0.11000627	-0.096838474	0.13982996
0.033240087	0.043374088	-0.061123855	0.05911248
0.049410433	0.056994237	-0.073613845	0.06977292
0.029195782	0.082666256	-0.10832082	0.08220973
0.047683723	0.07792545	-0.014674212	0.047601372
0.019684752	0.07332256	-0.10307191	0.045281246
0.06567287	0.051254887	-0.075861	0.030372303
0.07874053	-0.003991777	-0.07117402	0.070790865
0.054142512	0.037531007	-0.09011414	0.060196165
0.030123003	0.10225305	-0.014497536	0.03323185
0.055609196	0.063437395	-0.009465352	0.056813423
0.015962383	0.03555421	-0.06850215	0.0662057
0.019517522	0.027732478	-0.062454604	0.08082318
0.047509998	0.004631072	-0.05709878	0.059529357
0.06551624	0.05043923	-0.04884124	0.047597844
0.019446705	0.030363519	-0.091199055	0.08078007
0.08131325	0.036186814	-0.056415744	0.030139176
0.08487259	0.028308433	-0.06565594	0.039211415
0.0714543	0.04168155	-0.012134718	0.10136835
0.0014192965	0.07366222	-0.06858238	0.052808512
0.09855567	0.06623336	-0.07821209	0.048688963
0.042704873	0.087457396	-0.07191057	0.018157277
0.091056004	0.05325636	-0.022018662	0.020548705
0.047056515	0.07848632	-0.057308387	0.035734165
0.021445367	0.068297036	-0.033649225	0.06129398
0.06250497	-0.0009940937	-0.077260755	0.036154114
0.06929749	0.057907756	-0.056297466	0.06741762
0.044397835	0.029088963	-0.08184114	0.0846067
0.041417826	0.054615263	-0.08278733	0.031199185
0.04648248	0.02426658	-0.022597188	0.10792062
0.0790844	0.094458535	-0.025027169	0.08319546
0.12907754	0.07440332	-0.12904553	0.08767158
0.039540533	0.06592324	-0.08151755	0.007847804
0.052407455	0.05356576	-0.029795138	0.06724944
0.02760215	0.06330709	-0.08426672	0.042856436
0.078590214	0.014261638	-0.07909758	0.0695927
0.039594408	0.06971505	-0.044766925	0.040460613
0.028792575	0.11097167	-0.056491435	0.028577887
0.026324162	0.005005622	-0.084196	0.08251985
0.05642409	0.0307223	-0.04650247	0.063757084
0.05939418	0.083599426	-0.01778104	0.06505989
0.09011853	0.06818465	-0.061538402	0.015750991
0.035400733	0.09122522	-0.09354776	0.0037487994
0.005436094	0.033350773	-0.10218698	0.058460087
0.09083998	0.088828884	-0.02078251	0.04430813
0.05568492	0.05373441	-0.039921734	0.04006994
0.03819833	0.071274556	-0.07804408	0.055694062
0.045482557	0.009277122	-0.06427036	0.071620695
0.050850697	0.015546428	-0.06477638	0.03139931
0.038930003	0.085770816	-0.08493623	0.02991634
0.02496967	0.08469658	-0.043650087	0.03127094
0.051984426	0.08092718	-0.049904317	0.07151734
0.050905384	0.10149524	-0.026112372	0.016645856
0.04104949	0.079533346	-0.020671139	0.06558951
0.09620025	0.094582744	-0.11715891	0.06613788
0.035210513	0.023040721	-0.06108955	0.061080087
0.07947039	0.082025565	-0.043359146	0.04817734
0.028920455	0.053154986	-0.041618247	0.09176054
0.038952217	0.06559364	-0.0005632393	0.029186731
0.045162275	0.07326864	-0.06877711	0.023186471
0.06453153	0.07157131	-0.05126079	0.14502372
0.0745836	0.09060549	-0.0783776	0.038242176
0.07904139	0.030759893	-0.027731381	0.06306725
0.060695462	0.015093095	-0.08868179	0.020507567
0.06360122	0.07534615	-0.037476007	-0.008831834
0.046434987	0.061163567	-0.061393227	-0.0039101755
0.0630274	0.0704154	-0.041326765	0.051181015
0.08133799	0.06032914	-0.11057727	0.044476006
0.052634846	0.06295233	-0.14061242	0.08416278
0.016108159	0.047123253	-0.04898726	0.064463936
0.07628412	0.110964	-0.036343094	0.09677825
0.03117623	0.1049046	-0.017050937	0.084932595
0.03923995	0.025849074	-0.030399876	0.039689187
0.030446451	0.02640458	-0.09260681	0.07214307
0.029945636	0.046225745	-0.033940624	0.07392496
0.022077417	0.024931796	-0.0836223	0.08643798
0.04032575	0.011140535	-0.062796734	0.050694335
0.06569985	0.053885642	-0.04999305	-0.007080366
0.113797046	0.11046026	-0.10590387	0.09665094
0.060611393	0.0620711	-0.049778543	0.08794032
0.07634952	0.03344027	-0.1096746	0.031616442
0.034609757	0.083366424	-0.07067475	0.004271888
0.050521124	0.11449121	-0.061954014	0.05691543
0.05450501	0.04217359	-0.02608448	0.11718414
0.027116619	0.012375083	-0.081429906	0.0728729
0.03577207	0.09812715	-0.012897794	0.024663016
0.079946734	0.06267218	-0.0076170187	0.06727954
0.015388199	0.07614197	-0.012540654	0.083787166
0.0478933	0.0054307976	-0.05924076	0.047284976
0.043644015	0.032289293	-0.056617457	-0.013018104
0.062161632	0.049688693	-0.084577724	-0.0061626555
0.05612677	0.054666407	-0.027716508	0.06827783
0.025751391	0.052553665	-0.017237391	0.08758749
0.0075078513	0.07952185	-0.03706352	0.023574816
0.10363498	0.031564195	-0.070505865	0.022235997
0.075616136	0.09191959	-0.055376004	0.03463762
0.07803568	0.06361038	-0.041035343	0.038528956
0.03455919	0.033998217	-0.084160924	0.052494004
-0.0015464039	0.07461104	-0.04501335	0.07100856
0.058039676	0.04303723	-0.021256063	0.038497727
0.047782727	0.03144534	-0.07883623	-0.0018693177
0.06937461	0.039626088	-0.061408725	0.043456595
0.05106162	0.06343058	-0.054024827	0.042141985
0.025499769	0.020299122	-0.06749655	0.08283551
0.09689551	0.08560665	-0.07187415	0.02167429
0.10179929	0.033639535	-0.04298991	0.03312765
0.052064683	0.048730303	-0.017350368	0.06373639
0.037181154	0.090958156	-0.014618553	0.019702984
0.08159255	0.017180286	-0.035558883	0.040576424
0.07246971	0.050460126	-0.03420517	0.07332057
0.081847616	0.010776674	-0.047584057	0.05782156
0.064853355	0.058085885	-0.06469679	0.024399886
0.071536735	0.007999924	-0.011973819	0.08033812
0.05043879	0.056796085	-0.06264622	0.004862284
0.0042464	0.05125755	-0.10468933	0.10420809
0.079479635	0.053524043	-0.0770119	0.03523359
0.053048436	0.035703655	-0.07845556	0.06141653
0.07600187	0.011341887	-0.033290777	0.08651024
0.08375451	0.04018121	-0.07127198	0.0130374655
0.069725715	0.032811176	-0.025616383	0.0665476
0.041452292	0.05935834	-0.08975957	0.012302866
0.04927496	0.06152939	-0.1261269	0.057614405
0.034331787	0.070545524	-0.09890517	0.10132252
0.0689727	0.020508226	-0.09297849	0.0025637501
0.053239398	0.0830688	-0.006163232	0.07211634
0.04411844	0.0639728	-0.045689303	0.05658526
0.10881695	0.041305076	-0.08505897	0.09252752
0.036986344	0.04978634	-0.09470696	0.04867091
0.051609237	0.012340116	-0.010273743	0.06993379
0.05470401	0.068120785	-0.09782854	0.032038487
0.06613746	0.110764824	-0.110922754	0.10864821
0.08187344	0.05950814	-0.04703917	0.049901314
0.10520832	0.109985776	-0.05636881	0.049059417
0.02358447	0.020999871	-0.061580777	0.1016037
0.03241189	0.06289153	-0.073780626	0.037554685
0.088593036	0.009167403	-0.0367623	0.08291535
0.04993854	0.050421897	-0.07242385	-0.013848083
0.09127165	0.06448892	-0.015748143	0.05709061
0.019188305	0.069420174	-0.06241501	0.06618562
0.07086053	0.031603854	-0.0007092927	0.07058643
0.07055222	0.05970265	-0.03890948	0.031095384
0.21280067	0.16713655	-0.1737019	0.18257697
0.068330705	0.055479042	-0.03738626	0.12420071
0.042860467	0.042920418	-0.04802083	0.04773603
0.01236693	0.083790384	-0.03020943	0.061613854
-0.00014331323	0.07547537	-0.035930682	0.072261706
0.059881177	0.08949562	-0.06800303	0.09487738
0.087943085	0.012886347	-0.056055363	0.06007287
0.048572283	-0.0028862422	-0.061475758	0.06417672
0.10873646	0.028947392	-0.087141916	0.09090846
0.060524993	0.07315132	-0.05105872	0.116094984
0.100303024	0.0868345	-0.030342203	0.111579835
0.07162526	0.044435035	-0.046924815	0.055982623
0.020379921	0.10802054	-0.027486436	0.06586578
0.04445187	0.05107961	-0.024774907	0.05595905
0.09399681	0.12464211	-0.16078952	0.07707913
0.016904527	0.0880696	-0.06583032	0.026877144
0.011619482	0.10447968	-0.023751264	0.042838775
0.04167417	0.009654635	-0.091315076	0.08946442
0.06406642	0.0489617	-0.035670724	0.08700941
0.13082902	0.05140422	-0.06727498	0.05775225
0.08386461	0.028891709	-0.09908428	0.02730623
0.098968126	0.10221721	-0.05054987	0.03359481
0.10362529	0.08833004	-0.027589135	0.027482843
0.10891364	0.1218696	-0.1088795	0.12552597
0.059180766	0.06082274	-0.07883486	0.07962379
0.025698263	0.06941988	-0.03170956	0.06565076
0.037212938	0.082232974	-0.07579105	0.030396344
0.017207688	0.036468763	-0.038344447	0.1238938
0.08063107	0.020168792	-0.032276757	0.08928146
0.11158838	0.08059098	-0.05562443	0.023008581
0.043188807	0.05072062	-0.013994512	0.09711088
0.019362913	0.021410624	-0.07484601	0.07865509
0.066568814	0.000597258	-0.0803757	0.009176732
0.04184006	0.029666238	-0.07332955	0.04181562
0.104868226	0.05282154	-0.07541052	0.053767987
0.089372374	0.036984768	-0.019134903	0.07193079
0.0826777	0.02939868	-0.0037372315	0.09340435
0.04885776	0.10196998	-0.061758984	0.056601726
0.052358948	0.12885337	-0.10597031	0.07879688
0.026178824	0.102189384	-0.07496323	0.05697212
0.07589641	0.020310318	-0.08475312	0.017961197
0.04936075	0.04532962	-0.058983404	0.08200901
0.10103594	0.074722506	-0.12321314	0.07905176
0.050737277	0.06627725	-0.058564857	0.032978278
0.07581097	0.018182352	-0.07985115	0.050536916
0.025265925	0.05352517	-0.058138788	0.07360919
0.053267557	0.018045546	-0.07216548	0.032508936
0.08610095	-0.0061685536	-0.09283702	0.0024789802
0.0800138	0.073485486	-0.04038212	0.028891861
0.028865121	0.007832252	-0.07884934	0.06310313
0.08305321	0.058630083	-0.025221245	0.07479713
0.053049013	0.050638117	-0.10240022	0.13123174
0.077701844	0.056685343	-0.03235235	0.033320148
0.073853284	0.04722694	-0.05519326	0.07792495
0.0641074	0.043326102	-0.05859168	0.044012018
0.046196423	0.038699288	-0.029300846	0.10003074
0.045254137	0.089422256	-0.0554272	0.07578424
0.074924536	0.103702135	-0.106470376	0.016795762
0.10680496	0.0550409	-0.02818125	0.04106203
0.043654844	0.08330372	-0.071745895	0.08579339
0.06556102	0.02863574	-0.03867219	0.06891576
0.015218894	0.045853153	-0.080570735	0.07632144
0.044262256	0.030670697	-0.06821248	0.046436038
0.068040274	0.04514578	-0.029302156	0.08849218
0.10337394	0.10542969	-0.09411842	0.04601651
0.06478931	0.0056084017	-0.036748637	0.04405046
0.057020117	0.045755338	-0.0823458	0.02075397
0.066287056	0.031676393	-0.039871052	0.050828215
0.07036044	0.058593374	-0.05900597	0.051522233
0.096451215	0.08251169	-0.08925633	0.034549434
0.01145212	0.07660383	-0.061865114	0.103345454
0.0841728	0.09621661	-0.08358999	0.018908206
0.022908812	0.07599117	-0.06314026	0.06427472
0.045073092	0.029274331	-0.07971766	0.033159856
0.11479529	0.061268695	-0.06357369	0.06060589
0.021506393	0.03686321	-0.09113527	0.08916528
0.036335725	0.084248774	-0.0041177305	0.05811856
0.086542554	0.023132056	-0.06527586	0.050953116
0.007639999	0.076446965	-0.07044725	0.083027646
0.04008641	0.08103064	-0.06640659	-0.0036150555
0.08195125	0.029397361	-0.059049435	0.009741454
0.090660356	0.057600692	-0.09786898	0.06393369
0.04988291	0.0890403	-0.0752135	0.09814843
0.04874592	0.049239315	-0.03792524	0.07281946
0.054924935	0.04371995	0.012540056	0.07207102
0.06211838	0.07584015	-0.019015001	0.01625182
0.038613085	0.011490952	-0.035911843	0.07939986
0.018819306	0.071164414	-0.07738634	0.06689905
0.06246568	0.052445814	-0.013366831	0.05798086
0.052125454	0.045573503	-0.038629986	0.07367608
0.08390816	0.11181092	-0.094257064	0.05993747
0.07127351	0.055585217	-0.0778797	0.027852047
0.09431692	0.07317128	-0.0667804	0.051662818
0.06188703	0.122850634	-0.060226914	0.07047426
0.019697856	0.06926007	-0.00780843	0.07643243
0.032929637	0.098599106	-0.02043805	0.06992946
0.054822117	0.045224883	-0.09706526	0.063471034
0.08166907	0.05166798	-0.09914673	0.0027762868
0.013229696	0.068974726	-0.081023306	0.020330127
0.041219793	0.07746487	-0.020758552	0.031929135
0.06885332	0.054360535	-0.087172374	0.04957877
0.058513027	-0.007452436	-0.07672013	0.021272706
0.07025583	0.03496621	0.012787241	0.06140866
0.08805968	0.08721404	-0.041986063	0.017934818
0.048092544	0.044928964	-0.047952794	0.086814865
0.014779206	0.033651836	-0.07056709	0.053759858
0.047916144	0.025907643	-0.018352205	0.046693787
0.006570638	0.010109323	-0.1025263	0.052844103
0.056346893	0.03725671	-0.016455524	0.058669318
0.018609682	0.026440896	-0.05973482	0.0770399
0.027140403	0.035787065	-0.09055653	0.09244835
0.086187124	0.044769987	-0.043415546	0.095022686
0.11174883	0.12316943	-0.043711994	0.058230635
0.09464471	0.10487229	-0.12985046	0.06648645
0.07143708	0.017694948	-0.06912544	0.0809816
0.07887607	0.02791833	-0.05331172	0.08580628
0.027610758	0.013046108	-0.08357299	0.061738957
0.076687835	0.025337176	-0.09450255	0.029795716
0.04136996	0.11069016	-0.027445817	0.027440934
0.06934213	0.10957206	-0.06821846	0.08562541
0.03592122	0.030230697	-0.06470756	0.033302113
0.08360681	0.085659854	-0.1511846	0.08867623
0.043785032	0.04138398	-0.0941625	0.014732965
0.015324844	0.09190128	-0.030105786	0.09678478
0.05067876	0.028220406	-0.061530225	0.11970041
0.08831397	0.029602645	-0.09712835	0.044090394
0.08822842	0.102932185	-0.051914778	0.09316532
0.087633625	0.037199758	-0.0027381189	0.05334088
0.03684584	0.039543297	0.0035189225	0.07939172
0.108232	0.040036768	-0.02084012	0.03925286
0.0167029	0.017215885	-0.08953921	0.07390301
0.02577856	0.058821153	-0.060874596	0.04749134
0.099677175	0.02234965	-0.07308583	0.017404025
0.083876796	-0.0027320832	-0.03339338	0.061855916
0.08012742	0.015982945	-0.081061594	0.043100357
0.07090791	0.018661493	-0.09899622	0.023076594
0.027463695	0.0869959	-0.08131752	0.036184043
0.042861417	-0.0028993515	-0.05837787	0.06984129
0.065926656	0.05011624	-0.050938275	0.05965894
0.105242744	0.020603858	-0.04097714	0.037929926
0.10627209	0.09259063	-0.06166	0.09325557
0.07872973	0.007066478	-0.01073658	0.09214793
0.15583822	0.1302691	-0.1167485	0.18639687
0.10302487	0.02971529	-0.07256405	0.029582717
0.012956534	0.08271585	-0.06277376	0.028026534
0.055188663	0.054630112	-0.13133593	0.06655449
0.055302884	0.056834526	-0.07749426	0.07614839
0.011850068	0.089338295	-0.032446485	0.0685899
0.08830403	0.058637362	-0.023637105	0.073732965
0.1051285	0.06571618	-0.08783593	0.06964228
0.012995767	0.050994568	-0.061883032	0.051536027
0.012127623	0.024975942	-0.09393905	0.084365346
0.07486981	0.019881478	-0.09285994	0.03221679
0.07176156	0.040504042	-0.11832874	0.07388648
0.0011720434	0.09779076	-0.10082029	0.08395785
0.031365637	0.04824942	-0.09133243	0.015946114
0.06447048	0.015343549	-0.07670521	0.090887554
0.03536681	0.03133124	-0.066810034	0.10453424
0.050474063	0.09846268	-0.06328259	0.0542618
0.08972531	0.03667825	-0.028812958	0.031927526
0.06426484	0.044925928	-0.04669114	0.017449072
0.016939674	0.059750494	-0.041620217	0.06207039
0.059028883	0.01602134	-0.027372688	0.06788127
0.06439007	0.054534834	-0.103747785	0.055878468
0.02693845	0.03223755	-0.08922503	0.04456087
0.06660478	0.011585162	-0.0801703	0.07975436
0.033410456	0.08362414	-0.0531669	0.028478947
0.09923001	0.043666005	-0.030304944	0.027913287
0.093697466	0.11115626	-0.10063965	0.12026159
0.1438672	0.12672126	-0.15343246	0.081194244
0.044925325	-0.000784096	-0.08245647	0.041473184
0.09550763	0.1096631	-0.12931676	0.09570143
0.029299632	0.050738093	-0.07560085	0.011769037
0.0047328337	0.026626907	-0.07399535	0.042079266
0.07702268	0.07075894	-0.04329232	0.08077045
0.032696765	0.07798017	-0.05687453	0.07866913
0.04712022	0.11480412	-0.048440352	0.103096634
0.019182915	0.08202301	-0.06313389	0.046636518
0.033793222	0.044598892	-0.07646376	0.060654815
0.08511009	0.09046342	-0.071299985	0.011982821
0.10970641	0.057184063	-0.07016722	0.11233824
0.09244632	0.06349167	-0.05186732	0.045744963
0.024217796	0.07992474	-0.06982738	0.027545152
0.007829631	0.027811376	-0.069308415	0.06651975
0.078906745	0.033370245	-0.05936989	0.02380704
0.0783258	0.002750909	-0.057211455	0.06893687
0.119594626	0.088854164	-0.030624367	0.07113835
0.061289016	0.08933171	-0.0419721	0.060081933
0.046507854	0.05563829	-0.06247725	0.06899675
0.0072669545	0.08850199	-0.07907578	0.059911754
0.053321056	0.07969526	-0.029511595	0.06926335
-0.00760579	0.095530786	-0.07535998	0.073873095
0.054624487	0.057972454	-0.05530627	0.035975132
0.0055713807	0.07930208	-0.092858665	0.0083775055
0.06610081	0.049256373	-0.018087665	0.03889892
0.019101562	0.064528406	-0.10531976	0.09382245
0.06354317	-0.0030775655	-0.08337168	0.08379539
0.033193994	0.04495934	-0.012653996	0.108888894
0.09635715	0.07603609	-0.02469394	0.021366756
0.09808762	0.014958437	-0.06136503	0.08742149
0.112498246	0.060139764	-0.13380213	0.08725099
0.016238132	0.06821872	-0.083926894	0.07465483
0.06631249	0.036360335	-0.07950302	0.031881377
0.10443657	0.08210307	-0.09091952	0.097414
0.057022635	0.08884197	-0.013511309	0.042922586
0.12259044	0.057585523	-0.11581125	0.05902508
0.07799766	0.04994493	-0.04054327	0.010247862
0.052889492	0.12155317	-0.098730735	0.14245322
0.094623506	0.030855246	-0.07036463	0.055137627
0.03895259	0.035601612	-0.05135736	0.08596956
0.06519686	0.021647094	-0.052950427	0.0570237
0.08914399	0.0024961974	-0.08361265	0.032384105
0.06519827	0.09220678	-0.027726773	0.051328585
0.033125598	0.07479584	-0.043329924	0.051601112
0.027881043	0.053017095	-0.042344373	0.07347903
0.10062738	0.054222044	-0.07132643	0.031225033
0.039230734	0.03164693	-0.083737224	0.0864959
0.081091926	0.06928598	-0.07870041	0.023191003
0.03960546	0.060184695	-0.029922565	0.07595515
0.075002454	0.06552012	-0.06956346	0.10191948
0.047452092	0.053877585	-0.046712615	0.059417333
0.031069081	0.04043164	-0.04277803	0.059657834
0.070323475	0.03239941	-0.039229043	0.053704612
0.04617002	0.09997783	-0.015256807	0.05752507
0.0989864	0.053354725	-0.06908797	0.018136967
0.084875524	0.021902693	-0.006352913	0.037076216
0.05275339	0.046559233	-0.041143287	0.019017283
0.058792833	0.03508625	-0.042010926	0.07824886
0.02031071	0.033283334	-0.08988885	0.09199305
0.011046573	0.06407765	-0.05623965	0.07994531
0.038451284	0.08229108	-0.05830415	0.048427153
0.07479705	0.09254083	-0.036936358	0.0828264
0.07285818	0.05535023	0.0018698387	0.05197589
0.027289633	0.06923202	-0.057639126	0.065408446
0.046801493	0.047188472	-0.083606705	0.028376363
0.052689366	0.07487831	-0.03250503	0.05067448
0.09847702	0.025062473	-0.06262122	0.035945475
0.08495095	0.029594552	-0.021378329	0.0443512
0.0367631	0.06800976	-0.031765144	0.066648066
0.086194575	0.023607235	-0.09097333	0.027236335
0.022295099	0.06748615	-0.11134285	0.09210003
0.01572633	0.03140765	-0.025280768	0.07333966
0.043154392	0.051177055	-0.07209423	0.08898604
0.11009002	0.059976425	-0.092256874	0.12604259
0.012892711	0.015124651	-0.04655446	0.09973233
0.07637244	0.034435276	-0.09915614	0.057233192
0.035460386	0.06308245	-0.054758105	0.09958154
0.08510067	0.019145146	-0.095233	0.025398854
0.045981906	0.019710947	-0.09838528	0.05217891
0.035306834	0.056119666	-0.07486743	0.047484845
0.051458564	0.031100586	-0.062447745	0.054041002
0.04201555	0.0926075	-0.060431223	0.048483647
0.039056994	0.05259611	-0.082187936	0.013920826
0.051772974	0.081827775	-0.123294696	0.102137886
0.06411384	0.07794148	-0.1149367	0.114829116
0.04776977	0.034708995	-0.050387565	0.05750993
0.08584094	0.029868651	-0.018567614	0.08011712
0.06028225	0.113775514	-0.05935618	0.09974298
0.06325687	0.032982424	-0.056809	0.06122268
0.07208967	0.04962038	-0.117858075	0.052956372
0.066827595	0.042569283	-0.09266834	0.036308616
0.10606315	0.03718406	-0.034171846	0.093455166
0.12249339	0.06778998	-0.14630201	0.08713029
0.038817782	0.0519389	-0.024681775	0.06518766
0.07878937	0.019702727	-0.01897367	0.089498855
0.06170163	0.05484238	-0.05983149	0.028356899
0.09584632	0.11209974	-0.045788202	0.10272745
0.07952084	0.08043327	-0.024670325	0.08365718
0.06405495	0.02039456	-0.060701508	0.04270833
0.07264593	0.0938672	-0.02978415	0.04670772
0.015226735	0.034644965	-0.060760155	0.09839505
0.05292493	0.0595906	-0.03635878	0.053743478
0.04529836	-0.00996837	-0.044951346	0.08200904
0.065218195	0.05162939	-0.045017656	0.035485025
0.057505514	0.029210912	-0.028565273	0.08628079
0.08332375	0.067001335	-0.042874504	-0.0041273516
0.025921676	0.07270027	-0.010387751	0.07087783
0.092723645	0.05850301	-0.04230933	-0.0025573578
0.05731718	0.050905872	-0.028247193	0.063687354
0.06647125	0.008962781	-0.04000959	0.085196085
0.07303238	0.06774261	-0.08327497	0.01607891
0.09777095	0.036436703	-0.050408684	0.09435754
0.012569118	0.013624761	-0.009296537	0.10853188
0.044934418	0.03863002	-0.04492957	0.08116624
0.074378185	0.042282134	-0.09355887	0.08947798
0.034467492	0.101946115	-0.03724374	0.07225209
0.048347495	0.035183698	-0.090163626	0.06439043
0.0036483146	0.046301384	-0.045406453	0.0757328
0.030234942	0.097165145	-0.028580654	0.07626849
0.07500708	0.07669951	-0.10530274	0.09254434
0.053729802	0.061757423	-0.09629984	0.056992777
0.025210077	0.052637633	-0.054566573	0.0032540879
0.087708175	0.024474971	0.0051757116	0.05831834
0.0348217	0.018857218	-0.09129996	0.051878024
0.049115315	0.07943157	-0.046752524	0.055898342
0.06674003	-0.0038748076	-0.06543722	0.08212206
0.02112975	0.017364588	-0.04019441	0.0805676
0.0031692593	0.08878742	-0.0751064	0.04849084
0.0072749737	0.018101478	-0.051302582	0.03712338
0.06607101	0.015380782	-0.10889893	0.076568335
0.037275545	0.097231396	-0.082164325	0.06014109
0.042615935	0.05730963	-0.06225954	0.05808591
0.058500238	0.058963154	-0.052635457	0.056734525
0.06470721	0.10143602	-0.048884604	0.07242538
0.053364538	0.06546615	0.01242619	0.067417055
0.0556591	0.096460275	-0.11073753	0.05746218
0.09083274	0.058879107	-0.046954546	0.019831102
0.009102576	0.06063714	-0.075328045	0.053287584
0.10107953	0.0258529	-0.02151965	0.041483417
0.029269496	0.03439997	-0.054206453	0.06204195
0.026078658	0.062826954	-0.09505549	0.015882086
0.043009136	0.005343188	-0.04368302	0.098274775
0.08591494	0.09055781	-0.03424294	0.111255795
0.050423946	0.063429765	0.015455682	0.059598796
0.06549337	0.059116393	-0.06461923	0.017127039
0.061957568	0.04839332	-0.08798892	0.04312256
0.05689585	0.03603335	-0.058047723	0.09418592
0.07225475	0.039709978	-0.043202616	0.04003249
0.09172928	0.036597975	-0.054013968	0.070853636
0.073138274	0.08059947	-0.056023154	0.015976733
0.03568729	0.051598974	-0.03746936	0.021944795
0.011040123	0.07167781	-0.068328895	-0.0032859377
0.06810641	0.061401695	-0.08822234	0.0851045
0.092078	0.07636671	-0.017410675	0.09305464
0.12056326	0.08840941	-0.13267563	0.07775021
0.10551581	0.02839861	-0.08035186	0.030556278
0.014489958	0.02954425	-0.08964198	0.09715191
0.09183178	0.0442708	-0.09713632	0.05752611
0.078293815	0.018313859	-0.09388315	0.08473972
0.04576482	0.0543984	-0.04650591	0.023671852
0.052424338	0.042663135	-0.019518778	0.09980573
0.029647805	0.012316934	-0.06354616	0.061104845
0.06536411	0.10527105	-0.09531595	0.1081004
0.053692736	0.052778315	-0.06209226	0.013780926
0.02771064	0.059352458	-0.024284413	0.07798505
0.022823714	0.051788338	-0.016260918	0.035033535
0.026190197	0.08641879	-0.013674568	0.10346298
0.04762335	0.036814414	-0.08702181	0.11201004
0.05741979	0.108442046	-0.017150069	0.0630692
0.055511195	0.031853992	-0.0753343	0.0046858275
0.072025195	0.0044208765	-0.090521276	0.038030077
0.041122098	0.022263436	-0.059144948	0.030199727
0.10694426	0.019548673	-0.06505059	0.05403591
0.051302202	0.06711985	-0.0672009	0.025334222
0.060632344	0.03330021	-0.07258725	0.030353878
0.03348785	0.09018104	-0.05643649	0.0026642438
0.028631141	0.10253203	-0.046656057	0.053165697
0.07875923	0.058385402	-0.121158145	0.084630445
0.040243976	0.07360939	-0.051035646	0.08456009
0.064640015	0.061570052	-0.08263844	0.06736169
0.059393197	0.050385773	-0.07317463	0.066757314
0.06975152	0.06790187	-0.01632415	0.016966198
0.063139014	0.05989043	-0.047124635	0.062162116
0.05823087	0.05844686	-0.058689605	-0.0051842434
0.084850945	0.0661083	-0.060836345	0.06244222
0.06857559	0.0508396	-0.01940783	0.052777827
0.054394398	0.017636815	-0.06348071	0.0779223
0.05881025	0.049748722	-0.044887964	0.10548365
0.070208006	0.12018788	-0.06915877	0.08642023
0.031272464	0.012257322	-0.09138902	0.031806406
0.062352244	0.04176674	-0.03960075	0.031893857
0.06382273	0.056371827	-0.0684725	0.038301095
0.08721777	0.008828214	-0.07144584	0.0066443975
0.100351386	0.11332362	-0.020676693	0.025314873
0.08079685	0.08809797	-0.031953618	0.036548823
0.107831515	0.05744328	-0.043628044	0.025810659
0.049196627	0.059716754	-0.053958364	0.05460232
0.04316598	0.07692243	-0.08650842	-0.00030454618
0.066725746	0.052988004	-0.08653595	0.044443388
0.04755456	0.09267815	-0.06991613	0.07323276
0.07502975	0.019736411	-0.030045256	0.06172347
0.08473697	0.05595979	-0.025583014	0.059418652
0.05474812	0.06712397	-0.05069019	0.06993352
0.107252195	0.027547315	-0.04067196	0.09094478
0.07435894	0.1068183	-0.043836873	0.025278538
0.083903156	0.011825419	0.0090281125	0.07017245
0.06896619	0.058211483	-0.09286614	0.052502006
0.05319164	0.032461364	-0.055308934	0.041573837
0.05194093	0.0632976	-0.10980269	0.111687906
0.007622125	0.024390217	-0.029858371	0.10952775
0.03843935	0.050354462	-0.06357667	0.06795996
0.04060364	0.049999934	-0.040080283	0.039753255
0.052086577	0.056898683	-0.07154482	0.012997686
0.10890574	0.09161564	-0.048667993	0.0563063
0.06639234	0.011906878	-0.042564556	0.08332935
0.029135957	0.085937195	-0.08214849	0.047297172
0.103783764	0.08139548	-0.1147688	0.09332877
-0.007949536	0.039479624	-0.033322245	0.07232572
0.060892127	0.0560475	-0.05529894	0.046509236
0.04280912	0.121372186	-0.082532845	0.076281875
0.0036575631	0.020503024	-0.05997891	0.06983712
0.03923642	0.053518623	-0.12635094	0.08690963
0.06880452	0.07276056	-0.016506068	0.023795947
0.04218383	0.0388173	-0.064176336	0.044398014
0.08766737	0.11460648	-0.02581332	0.034565214
0.055943314	0.031431377	-0.043785978	0.01911317
0.006889421	0.08548954	-0.080069326	0.07815407
0.051530235	0.06732319	-0.020343581	0.048079733
-0.02179057	0.05294333	-0.032669883	0.06538687
0.046349686	0.07929614	-0.047251035	0.051496048
0.044557065	0.059547007	-0.043294214	0.08461743
0.07667726	0.017199503	-0.018325247	0.05869142
0.044761293	0.042874675	-0.034731116	0.04735859
0.061469298	0.11731781	-0.11686434	0.025592927
0.09964976	0.025324488	-0.0011943341	0.040677454
0.10840094	0.07483125	-0.07505037	0.1397097
-0.0131945135	0.051069558	-0.04791231	0.079082936
0.03141478	0.045100592	-0.006216291	0.07491076
0.057910867	0.0076864096	-0.06529041	0.06959784
0.02043928	0.020216463	-0.053118885	0.048979074
0.08844557	0.0899419	-0.10015048	0.053767968
0.0048434087	0.031398013	-0.095800705	0.090208866
0.067744955	0.01830512	-0.06413631	0.10346541
0.029164663	0.05356438	-0.05710315	0.064821586
0.05840804	0.01575315	-0.09309319	0.031452123
0.1505504	0.08752267	-0.09093086	0.081907086
0.07593841	0.10113337	-0.03782978	0.016935766
0.015548534	0.00038902852	-0.08688813	0.08287784
0.06613108	0.09232471	-0.062242113	0.030332563
0.022971818	0.08256943	-0.02967685	0.055048168
0.029162377	0.026835587	-0.09716913	0.011278372
-0.009802462	0.057620153	-0.059855755	0.076148555
0.0473151	0.037029628	-0.046291396	0.051455718
0.038605813	0.06475938	-0.07181095	0.06162356
0.07910697	0.078793734	-0.07821343	-0.0032053872
0.039255243	0.029298248	-0.065810524	0.053688865
-0.000111773435	0.022528542	-0.09003161	0.071389355
0.041506007	0.02803941	-0.056907166	0.040590238
0.05184872	0.045841713	-0.08394472	0.07379689
0.06603857	0.048203316	-0.04925367	0.081558384
0.06989117	0.024698563	-0.06257622	0.07323938
0.029918637	0.043041795	-0.090954125	0.024071373
0.113091	0.046780597	-0.051162917	0.075767756
0.07264024	0.026852112	-0.098147035	0.03274921
0.13729593	0.12538205	-0.088342145	0.07030586
0.04990957	0.06823012	0.00018277646	0.07238256
0.09213728	0.042215392	-0.03473123	0.078946926
0.018446093	0.061310668	-0.051701624	0.041030623
0.018728578	0.10204893	-0.030698832	0.066248976
0.08593589	0.099852756	-0.09193387	0.13313317
0.014161845	0.061810505	-0.07070393	0.053085655
0.11744977	0.047262207	-0.04894741	0.02058923
0.12546244	0.080694385	-0.08290448	0.04058653
0.07456391	0.029863315	-0.020640895	0.04021507
0.077428274	0.07350882	-0.058226157	0.06662331
0.074563555	0.07495664	-0.066766255	0.036880665
0.026957117	0.02308226	-0.084557526	0.042066358
0.026138619	0.065632716	-0.09052161	0.07362281
0.062057745	0.006683196	-0.0712709	0.06917937
0.094417945	0.03271459	-0.05847233	0.08381577
0.08864609	0.11425947	-0.09395901	0.09388019
0.037486628	0.056643277	0.0016078611	0.07889667
0.08346243	0.09767097	-0.07958295	0.08761119
0.07541687	0.019295137	-0.0864346	0.047325082
0.08679069	0.1403764	-0.08403901	0.08636958
0.07490942	0.06675391	-0.10170807	0.056652278
0.03235133	0.019929325	-0.06987261	0.06757472
0.030225988	0.06222679	-0.03263623	0.04139497
0.027338019	0.08445356	-0.0481954	0.06049755
0.029254127	0.061805848	-0.027045503	0.052848205
0.12467508	0.049144834	-0.055919237	0.056079224
0.085359864	0.06610046	-0.09511807	0.06651648
0.08338383	0.039520957	-0.075408034	0.07052001
0.09519449	0.09755506	-0.11567564	0.049389593
0.097162224	0.0014912278	-0.076871514	0.015022486
0.051038124	0.06037936	-0.04944151	0.02263525
0.049948648	0.059106424	-0.052465726	0.03360796
0.065866575	0.013457605	-0.07285584	0.06027213
0.036222	0.097756125	-0.031046446	0.1223173
0.044091765	0.09851349	-0.06550167	0.03851851
0.023098726	0.035858054	-0.022574782	0.09045713
0.080499284	0.003995958	-0.06509903	0.029469652
0.080716625	0.02625121	-0.0410241	0.10013612
0.05136238	0.017491335	-0.042549748	0.09088375
0.030351216	0.100863986	-0.07442606	0.05241149
0.037074972	0.065731205	-0.02844682	0.045624297
0.00598825	0.06764666	-0.08495757	0.043856464
0.044146728	0.019137114	-0.02842526	0.09345041
0.1093163	0.027842497	-0.010999087	0.104437746
0.052051764	0.12916984	-0.053087708	0.06741001
0.013315254	0.09688308	-0.034445636	0.045045048
0.044858273	0.07034165	-0.09534305	0.0072926455
0.055385448	0.054565743	-0.027896963	0.060977563
0.06626488	0.06330042	-0.036934387	0.08342587
0.034731608	0.074527435	-0.0730965	0.0660379
0.013332401	0.010688498	-0.08046135	0.050953478
0.058220625	-0.0036475544	-0.05850509	0.075024955
0.07664392	0.033671558	-0.09871726	0.026995474
0.07949161	0.062191494	-0.059875418	0.031087212
0.053904306	0.0047599426	-0.09234473	0.037978657
0.079467304	0.10988661	-0.12229395	0.12522627
0.056551278	0.005011189	-0.08939523	0.0027131075
0.09085205	0.09671104	-0.15069158	0.16125496
0.013918812	0.058097284	-0.054513413	0.06855828
0.059211034	0.0069145258	-0.06786357	0.020939779
0.057936076	0.07841465	-0.04376721	0.13416137
0.033821736	0.015825301	-0.07149739	0.03271761
0.07000346	0.052688655	-0.11970094	0.05651804
0.0860505	0.009380526	-0.04818519	0.071258456
0.07712346	0.05918283	-0.060778752	0.03070061
0.05353222	0.06172192	-0.0825589	0.08303472
0.07891552	0.09391036	-0.115108445	0.04768418
0.093915865	0.10622888	-0.032626204	0.040120143
0.09688816	0.09125861	-0.026687225	0.034081757
0.07053303	0.1128852	-0.0830608	0.025301399
0.034030132	0.05336418	-0.047825955	0.03159596
0.076828584	0.030484412	-0.028359342	0.09271282
0.09536842	0.048442937	-0.025010848	0.04703493
0.018354697	0.07674682	-0.06830182	0.09642445
0.050073035	0.06307182	-0.05427709	0.09738529
0.11520383	0.024101434	-0.08202463	0.04339872
0.025817646	0.03355039	-0.07867456	0.021895768
0.07633048	0.02235753	-0.043184694	0.071494
0.06955935	0.07399956	-0.09652392	0.069185264
0.095486306	0.062562495	-0.049673952	0.053163134
0.043781903	0.037855476	-0.08801764	0.056755397
0.08756748	0.10289459	-0.051899813	0.09856367
0.02391227	-0.0032137895	-0.086012036	0.047940854
0.10365941	0.07468954	-0.03199028	0.074437425
0.10260399	0.046478335	-0.08969965	0.096287414
0.059457447	0.053780932	-0.094820656	0.07818313
0.082871504	0.04981406	-0.054637033	0.102736995
0.087814406	0.05621977	-0.07671768	0.045749623
0.06535107	0.079387434	-0.06498565	0.049875993
0.09158074	0.06799339	-0.026818052	0.034154322
0.027682755	0.067744635	-0.020137167	0.07569197
0.0671417	0.045790017	-0.01710755	0.05002864
0.060489863	0.006806678	-0.009255302	0.07619142
0.050577946	0.02840957	-0.052942272	0.031450827
0.020721484	0.0633773	-0.098139375	0.01823475
0.08496132	0.065122455	-0.022660092	0.024326937
0.044709794	0.030597327	-0.07871372	0.10227336
0.05097013	0.056533266	-0.045606837	0.07130842
0.07291671	0.091955826	-0.033403598	0.0568794
0.025979739	0.007296052	-0.073362	0.038885992
0.066299476	0.04910962	-0.1134212	0.08205933
0.056008108	0.09367622	-0.07190956	0.030763887
0.03761292	0.08577136	-0.048095703	0.027719565
0.08483079	0.018785177	-0.07236547	0.060075313
0.08545404	0.10558749	-0.016405795	0.01938612
0.09716273	0.11347315	-0.056798663	0.058888018
0.11445784	0.049213443	-0.03629822	0.035102364
0.09349709	0.048943195	-0.013224463	0.031024119
0.06516721	0.05726606	-0.038262483	0.04358848
0.036849473	0.026297228	-0.0693228	0.061722748
0.093426615	0.011363647	-0.014620655	0.06791007
0.10749235	0.07636858	-0.06848534	0.02970994
0.01716032	0.028175348	-0.026370166	0.08464739
0.105236016	0.110252716	-0.085893944	0.1173343
0.08161646	0.0019191487	-0.06308784	0.052688688
0.07028717	0.07547659	-0.02867815	0.0334368
0.061592173	0.03106677	-0.0669684	0.05983238
0.06512615	0.06967057	-0.065406464	0.026248137
0.035976395	0.031431757	-0.03715323	0.08918933
0.063676834	0.031829763	-0.091136314	0.026530297
0.009310954	0.06759466	-0.06988877	0.03983837
0.082373336	0.077398196	-0.019289719	0.029428957
0.054489892	0.03155886	-0.016665213	0.09057181
0.029479597	0.07944941	-0.03787487	0.1149507
0.079869896	0.02645162	0.005334146	0.08432601
0.03797375	0.06580985	-0.11806113	0.039103247
0.030702706	0.03430011	-0.020709476	0.08625678
0.015973935	0.0547071	-0.07524654	0.079344295
0.045291487	0.030913193	-0.017736927	0.06981939
-0.0005269554	0.07500569	-0.01829301	0.028502528
0.072812155	0.030915547	-0.029510204	0.06010937
-0.0076666106	0.07301768	-0.06935123	0.06401434
0.048147965	0.05565465	0.007764403	0.044943415
0.054777414	0.08470959	-0.09405645	0.045642275
0.0036586905	0.05567976	-0.0701425	0.050158095
0.03463071	0.06091593	-0.06745102	0.09012352
0.037745744	0.07442417	-0.051071323	0.024332302
0.11967997	0.03817875	-0.10192725	0.06043466
0.039187726	0.08327994	-0.01828153	0.03512181
0.10070196	0.08418599	-0.030710883	0.047620896
0.05488133	0.05469486	-0.05187816	0.038898185
0.11316194	0.063889734	-0.121128365	0.073850974
0.07192592	0.002649658	-0.0725076	0.071652874
0.043614388	0.03436995	-0.048468657	0.07057352
0.08757895	0.095157206	-0.046610754	0.030169012
0.115203284	0.06919829	-0.06688334	0.05381342
0.053246234	0.031726964	-0.04358145	0.056628108
0.0474853	0.068525255	-0.086522214	0.07408074
0.057889983	0.057772197	-0.0045635332	0.035031077
0.07883259	0.030953899	-0.09360245	0.052911967
0.063377574	0.04384283	-0.026782466	0.060232043
0.046950642	0.08528544	-0.030647201	-0.009044289
0.016801864	0.052616987	-0.06937464	0.06730564
0.07368415	0.036859605	-0.08206513	0.054092318
0.06435654	0.07648252	-0.040795483	0.051395305
0.073185116	0.042725753	-0.038019348	0.056966387
0.017160421	0.03257524	-0.027941605	0.119345635
0.01464596	0.06545285	-0.0874349	0.08415312
0.02412458	0.05847646	-0.07766534	0.11118902
-0.009889142	0.06412946	-0.052355494	0.047116444
0.12629068	0.11632839	-0.09801404	0.1422335
0.053317655	0.11178331	-0.050698772	0.108192585
0.05089595	0.068417095	-0.06326213	0.07957872
0.06425209	0.08648255	-0.06460028	0.09800209
0.102513105	0.083306745	-0.13354665	0.09352458
0.04746373	0.11619417	-0.031656723	0.04529449
0.09656048	0.031571854	-0.081305705	0.021077542
0.08608409	0.019941928	-0.08282005	0.085380904
0.039724194	0.0990637	-0.0219936	0.04842893
0.05985592	0.10048348	-0.045481477	0.033943944
0.016371408	0.03312663	-0.06264641	0.047357153
0.09521313	0.061343197	-0.021119695	0.032908976
0.041620146	0.05499716	-0.035690527	-0.004780242
0.051476102	0.017710822	-0.029203238	0.09673596
0.015813578	0.09564395	-0.049716607	0.098308325
0.044173993	0.008180601	-0.07076587	0.0205603
0.030200046	0.06325918	-0.10162754	0.06895932
0.050094824	0.05195877	0.004084967	0.03236299
0.098142534	0.03742313	-0.042853013	0.04012752
0.05238257	0.05958576	-0.028577656	0.019339623
0.028922642	0.12571844	-0.047728416	0.04348771
0.05451205	0.059177816	-0.05312854	0.09818603
0.021035621	0.093969755	-0.091767624	0.0945289
0.032679815	-0.007708384	-0.040458146	0.08195636
0.027215661	0.050410457	-0.0619867	0.059381958
0.012162091	0.05335296	-0.02831237	0.07859792
0.0034489671	0.07182698	-0.05331998	0.068500504
0.034348883	0.090592556	-0.034159817	0.07379137
0.029378824	0.013968044	-0.04941544	0.09456343
0.04323097	0.041568745	-0.07358635	0.037926152
0.1272886	0.040085584	-0.05332032	0.037627988
0.005288068	0.054339364	-0.07941179	0.03955808
0.072336435	0.03521741	-0.044970486	0.032047335
0.004100758	0.08695855	-0.058568478	0.040770303
0.13027792	0.072459765	-0.09436692	0.060333025
0.027763676	0.10625777	-0.083149396	0.08686942
0.07021817	0.051271465	-0.030072859	0.02702529
0.08532013	0.023023259	-0.06299192	0.04911741
0.033009157	0.02964752	-0.06920037	0.024880623
0.051766623	0.0809206	-0.05552322	0.003371036
0.08773602	0.11346265	-0.15583134	0.09994706
0.0386008	0.043277077	-0.0379758	0.08933671
0.14108579	0.116088144	-0.1068435	0.08599722
0.033267356	0.06921899	-0.041580845	0.08540976
0.081625775	0.031230684	-0.0845521	0.06659364
0.10906378	0.039132256	-0.030914709	0.042575326
0.06207003	0.02973287	-0.09265356	0.034291055
0.060423605	0.057167284	-0.093949266	0.06972233
0.014726958	0.0449953	-0.09414309	0.019656094
0.06216406	0.07046843	-0.017337615	0.087670736
0.10011914	0.13142338	-0.09855823	0.06670094
0.0979199	0.030083839	-0.038690314	0.039213095
0.0690094	0.037462674	-0.039820075	0.036045972
0.023741676	0.043528214	-0.017800936	0.043155752
0.072000176	0.07162135	-0.01659945	0.10109359
0.066184506	0.03727847	-0.04232879	0.05160383
0.06007048	0.07692202	-0.013443775	0.005178311
0.09658535	0.05906468	-0.036352906	0.085843146
0.035266563	0.07430522	-0.09598851	0.0675948
0.047025166	0.091346875	-0.05347358	0.08550677
0.095421754	0.02553388	-0.031026825	0.0800779
0.06264078	0.05740733	-0.010706238	0.05364552
0.06387053	0.033035856	-0.08116831	0.105912045
0.065442175	0.06509091	-0.0041522365	0.05848822
0.079544544	0.0773227	-0.091735005	0.044912312
0.061104212	0.10457206	-0.015178709	0.035726875
0.12828673	0.16267395	-0.18284947	0.12853281
0.03913675	0.07519771	-0.029383494	0.059367698
0.04829411	0.070222326	-0.07910414	0.059503455
0.13957353	0.14548224	-0.107380375	0.12847142
0.08402075	0.072509825	0.0054529626	0.052137055
0.004431665	0.06882084	-0.08355257	0.03622461
0.058080018	0.041939676	-0.07548237	0.017781926
0.07921235	0.037938766	-0.068498924	0.0152828
0.094645746	0.048872165	-0.073840976	0.03720333
0.1289016	0.098433614	-0.065216124	0.16120051
0.06280247	0.022577604	-0.019792577	0.06977053
0.08123397	0.044137053	-0.037445303	0.08886285
0.1036836	0.059148736	-0.036070958	0.036299042
0.04559238	0.0616753	-0.07093535	0.06076412
0.053782668	0.05549324	-0.06572189	0.04270916
0.06662902	0.02308013	-0.06289476	0.040908564
0.078118816	0.08620724	-0.08085043	0.091865584
0.10656959	0.054530762	-0.13146344	0.13539672
0.10383423	0.01885163	-0.05963835	0.04750833
0.10868087	0.06389828	-0.033888385	0.062228967
0.08807298	0.023991344	-0.109795325	0.043443393
0.05171578	0.08319024	-0.08470418	0.11505784
0.0023921763	0.06413834	-0.048492104	0.033863027
0.029369527	0.081457995	-0.06140617	0.027997876
0.04750538	0.07678361	-0.04258545	0.06482652
0.09879311	0.069985755	-0.03637648	0.053384647
0.008772441	0.10432426	-0.01508536	0.092753574
0.012322454	0.10140602	-0.08925208	0.09983261
0.030285785	0.09305156	-0.066132836	0.043398313
0.061048754	0.07454829	-0.09567719	0.061118536
0.04243347	0.08737142	-0.05410929	0.02556252
0.015968844	0.08871891	-0.07484819	0.0773109
0.040088892	0.07191835	-0.05445109	0.026423508
0.081868455	0.028840672	-0.06508341	0.014071528
0.04374912	0.05835253	-0.050003145	0.0007376421
0.014562132	0.06417356	-0.06279342	0.05985443
0.06792566	0.044937715	-0.0377015	0.027678894
0.044487804	0.008946109	-0.06155266	0.0912673
0.013065493	0.06440878	-0.056668054	0.06029766
0.0057675247	0.0998636	-0.015621167	0.061239038
0.04735325	0.06212649	-0.08703249	0.095988825
0.058516227	0.024295535	-0.029391402	0.099679396
0.082602434	0.096017316	-0.06688663	0.009803482
0.095049664	0.11882512	-0.08154197	0.058683824
0.073885925	0.036216184	-0.11593077	0.08828688
0.040621467	0.066643566	-0.07196538	0.04300389
0.023414107	0.060261663	-0.10704143	0.041527238
0.06864109	0.030453684	-0.080239974	0.022997497
0.071071446	0.0610809	-0.013484039	0.06561409
0.044724025	0.0523305	-0.031312276	0.06642745
0.03386581	0.105453216	-0.07116486	0.10276465
0.075128876	0.055546623	-0.07825206	0.030596823
0.07140505	0.073130295	-0.017241124	0.041332323
0.08877467	0.075697556	-0.062560126	0.0633809
0.037321113	0.018367682	-0.057446036	0.06841476
0.0018707043	0.05376692	-0.051366877	0.060493443
0.09479884	0.053418078	-0.10725348	0.1071357
0.024408279	0.059717976	-0.03127709	0.0445194
0.068894446	0.054843057	-0.13041523	0.05864744
0.060551416	0.06299478	-0.0476996	0.053318713
0.053921267	0.066480294	-0.03246384	0.0897488
0.04487357	0.06533357	-0.033771567	0.09216333
0.053751055	-0.007066424	-0.083488934	0.041457314
0.055192303	0.09293299	-0.04187425	0.021924779
0.06384821	0.01669159	-0.107984014	0.011863063
0.09705377	0.06937357	-0.056767784	0.04535622
0.07776037	0.085204706	-0.07707763	0.0661832
0.088575944	0.10275522	-0.08969728	0.09625749
0.046611696	0.055998158	-0.05207964	0.11472601
0.06277101	0.031604175	-0.068477504	0.014581891
0.04934307	0.048200373	-0.041639157	0.013552733
0.009325898	0.094596	-0.033336047	0.06578009
0.103737384	0.07061754	-0.08883827	0.045880806
0.0347695	0.1315941	-0.055157736	0.08672628
0.025974955	-0.0010522018	-0.07218157	0.059388567
0.08925333	0.04248119	-0.09302852	0.028501054
0.033747602	0.025901163	-0.098314784	0.0776885
0.075249	0.028496142	-0.004037348	0.085473165
0.06358663	0.09884119	-0.06993688	0.07100666
0.037024703	0.017561672	-0.06255084	-0.005004971
0.04190199	0.029336566	-0.06523232	0.006266245
0.016435385	0.057568632	-0.09094118	0.07722064
0.099374376	0.022976037	-0.08144194	0.05505714
0.0834564	0.050945543	-0.058005273	0.078534424
0.08413248	0.045860246	-0.018632324	0.07228479
0.043466333	0.06238489	-0.08279893	0.1440253
0.019734384	0.07120166	-0.026671074	0.09292981
0.071009256	0.08944321	-0.11108055	0.080637336
0.115669824	0.106658295	-0.017641267	0.08051808
0.0066113933	0.09281674	-0.089287475	0.00848557
0.100872464	0.044267908	-0.057669774	0.0619601
0.104231074	0.022171168	-0.0108071435	0.10322768
0.07636214	0.082876764	-0.039050326	0.045930002
0.053088598	0.03972106	-0.048964094	0.08243172
0.049821533	0.09159306	-0.065420054	0.09260892
0.087074086	0.044727996	-0.02900909	0.021659115
0.046723034	0.04806475	-0.07529092	0.008605313
0.12251306	0.08040851	-0.12152387	0.03806785
0.028663736	0.07054983	-0.030550033	0.07257714
0.057870906	0.034493044	-0.024492987	0.04114057
0.06716785	-0.0065220743	-0.080820456	0.032531552
0.04974397	0.13697581	-0.13661286	0.06360929
0.06783424	0.05472065	-0.06420313	-0.00095404626
0.08582224	0.103060916	-0.06323313	0.06495531
0.0986164	0.016579095	-0.09633461	0.05613377
0.01661045	0.025037449	-0.06603768	0.08235692
0.061970733	0.026186	-0.029937156	0.050587464
0.11238352	0.117449194	-0.087700255	0.05059228
0.07038937	0.07462928	-0.089898646	0.027176874
0.0642317	0.07238008	-0.042436298	0.05512406
0.01421521	0.0868888	-0.024760002	0.049592633
0.06283297	-0.010183631	-0.07882848	0.0818353
0.09556715	0.07664445	-0.06492986	0.08372192
0.05348352	0.023566939	-0.022454686	0.11624071
0.025874069	0.03445337	-0.04328278	0.060516536
0.04740213	0.044144694	-0.09071555	0.023046402
0.07790963	0.05156413	-0.03313951	0.023478162
0.016693363	0.07767435	-0.08629151	0.03007189
0.052138988	0.1053892	-0.027440192	0.10771423
0.09587504	0.077643655	-0.022736436	0.02495935
0.034660954	0.08505511	-0.040100023	0.046684425
0.07728621	0.08673169	-0.030774364	0.12034173
0.029987622	0.0071390695	-0.03723139	0.08951393
0.04422009	0.056533035	-0.04255535	0.07938592
0.04556012	0.10340091	-0.049854364	0.06481232
0.1056537	0.090042844	-0.13618657	0.12928368
0.05291238	0.06911676	-0.051360156	0.057048067
0.043397326	0.045451816	-0.050907727	0.02656837
0.10035389	0.011571189	-0.096636556	0.021819009
0.07234642	0.0715564	-0.11483458	0.031211479
0.07337046	0.051178813	-0.009629106	0.051113013
0.04436934	0.06047467	-0.08135466	0.03432211
0.028587144	0.070892595	-0.055138536	0.070167884
0.001247549	0.05558433	-0.08026472	0.06907
0.09383264	0.054387044	-0.04204613	0.05190835
0.012230401	0.07077624	-0.04953574	0.07034862
0.09204846	0.081748165	-0.048473198	0.048517693
0.12146908	0.035539065	-0.0415632	0.11466929
0.11582558	0.049902122	-0.0661298	0.07554496
0.10446496	0.05694882	-0.10702443	0.060934722
0.04814226	0.026084376	-0.08282029	0.07360711
0.08474516	0.024669118	-0.06956244	0.085452534
0.07371174	0.036150303	-0.076519854	0.073804066
0.04277705	0.039689887	-0.05777243	0.08144967
0.04467019	0.045586284	-0.0071719587	0.06469179
0.08108809	0.03974922	-0.055138223	0.011547049
0.010459607	0.060206525	-0.070473954	0.001539947
0.083659604	0.0382741	-0.017979003	0.068791755
0.05052277	0.009709763	-0.0073213475	0.102710575
0.040328767	0.056072354	-0.067429736	0.063196525
0.11201978	0.069439806	-0.113954276	0.05025082
0.076617345	0.02906947	-0.03616017	0.04262484
0.064853944	0.050386865	-0.015783131	0.0651625
0.030602805	0.06816001	-0.06495908	0.028409265
0.11413906	0.094063126	-0.0354362	0.039285168
0.036696684	0.04196318	-0.07636573	0.07141632
0.038510855	0.03988254	-0.051364433	0.05633336
0.036661655	0.0818677	-0.08194802	0.07503019
0.014335738	0.08804858	-0.049641285	0.028820058
0.006124914	0.0931002	-0.011597787	0.05736531
0.06870351	0.011413081	-0.06057849	0.0553681
0.006930615	0.069443196	-0.058235444	0.07372075
0.025253538	0.057575915	-0.06494216	0.08445173
0.009538403	0.016352896	-0.10274923	0.07792033
0.05470382	0.06298824	-0.09861033	0.041603476
0.003633891	0.09591724	-0.045411896	0.016625766
0.10097753	0.067149624	-0.052897476	0.049290396
0.07373448	0.028357487	-0.05285269	0.06158899
0.12876132	0.060007636	-0.11001599	0.07082865
0.07798062	0.014941812	-0.077678785	0.058506776
0.06819566	0.028247949	-0.07159564	0.036857475
0.05836405	0.030019185	-0.048209883	0.07148271
0.024190942	0.08357504	-0.04881837	0.07958265
0.08043044	0.00079274265	-0.06292763	0.045839995
0.048832823	0.042652793	-0.065232	0.056763433
0.059989177	0.021840183	-0.048548046	0.049268506
0.039447203	0.018437583	-0.08315915	0.02096763
-0.011568869	0.06802743	-0.06999687	0.065868124
0.062672935	0.05695142	-0.057454646	0.025210522
0.032561038	0.10643944	-0.013125896	0.040889993
0.05418602	0.07885238	-0.06376805	0.022049805
0.05796587	0.0030346573	-0.026914801	0.0627374
0.08603072	0.05608548	-0.053765938	0.07863058
0.044420198	0.03344518	-0.0761571	0.011534065
0.056643803	0.022206254	-0.050001644	0.051574487
0.02966091	0.06087074	-0.03682168	0.10768802
0.07806851	0.016408568	-0.04644386	0.052987177
0.020811362	0.023354806	-0.059191473	0.055294655
0.07807736	0.08410022	-0.0060914946	0.020882098
0.051904686	0.056419484	-0.020823142	0.043827474
0.036289543	0.01818848	-0.08649577	0.065938525
0.01107682	0.018002875	-0.08914263	0.06289622
0.052432623	0.0658309	-0.028331114	0.069512896
0.05424762	0.023599807	-0.07153141	0.061806627
0.056708757	0.036505803	-0.0855127	0.074634634
0.060828425	0.094897225	-0.040096555	0.06897562
0.029641632	0.06166135	-0.076482326	0.034355942
0.067758456	0.06186182	-0.08343418	0.08787677
0.064275585	0.029051691	-0.027103128	0.054692354
0.08403893	0.10788409	-0.045887694	0.04219642
0.09551788	0.042147007	-0.068406776	0.03420471
0.06563007	0.039220836	-0.05817973	0.033747166
0.065072	0.04719565	-0.08779177	0.05911613
0.017254073	0.06490062	-0.08386463	0.033094347
0.07458999	0.037883084	-0.06442368	0.029874071
0.064087585	0.032624412	-0.018942716	0.09316225
0.04650699	0.10328768	-0.05000484	0.112498835
0.00683311	0.06604672	-0.042777944	0.07857374
0.12348306	0.08425869	-0.061817933	0.083520226
0.08294346	0.14382881	-0.0461294	0.07618391
0.047958817	0.06532527	-0.049650982	0.076360196
0.050600953	0.01293112	-0.07098579	0.07062793
0.061259158	0.0779222	-0.06522636	0.11773096
0.073527694	0.0020858203	-0.08473539	0.07711075
0.044479646	0.12140986	-0.040582817	0.051036794
0.052997243	0.039859924	-0.07023019	0.06171281
0.04853794	0.079200536	-0.0789367	0.045805402
0.070468076	0.034881055	-0.10249168	0.04728014
0.02415905	0.06682529	-0.021818062	0.10193614
0.084208034	0.02442012	-0.057603344	0.05375176
0.024908496	0.06613276	-0.042329665	0.07968569
0.091038525	0.13514668	-0.109329425	0.095398724
0.06791036	0.085679166	-0.022074124	0.09356416
0.07874787	0.029393692	-0.0662853	0.036614243
0.061910734	0.06026908	-0.025649892	0.0685328
0.06304179	0.07033801	-0.027999304	0.042185433
0.04030766	0.051643733	-0.07788087	0.02219868
0.07904001	0.06447291	-0.05933266	0.040923696
0.10681043	0.11282089	-0.038054623	0.041949596
0.06109683	0.041322675	-0.03739892	-0.0077875685
0.05826451	0.10046028	-0.08472981	0.043191146
0.054641567	0.029030934	-0.06796431	0.054811396
0.041581307	0.091306955	-0.06808501	0.03434031
0.064001724	0.060698114	-0.02403105	0.086092085
0.050287407	-0.0009939526	-0.06758028	0.05307299
0.015699973	0.08407326	-0.00041385333	0.064241946
0.029996587	0.045587633	-0.061822377	0.09034261
0.034823246	0.06492233	-0.04029087	0.054363113
0.0683783	0.07738609	-0.075026564	0.0547538
0.018403398	0.019227	-0.09838636	0.027867101
0.023178635	0.03694492	-0.044770516	0.053328175
0.025742918	0.08113363	-0.055825442	0.037529226
0.010473297	0.089198984	-0.041253824	0.03307629
0.07895975	0.0816283	-0.015944468	0.062514395
-0.00048390057	0.09153517	-0.026468989	0.06659113
0.06885878	0.050314073	-0.05420485	0.057693522
0.06259887	0.021367244	-0.08379345	0.06797819
0.09083181	0.011612581	-0.082594894	0.06221277
0.0321863	0.039492674	-0.04400362	0.07082034
0.04707322	0.033420112	-0.051398154	0.061437134
0.03876148	0.049054343	-0.06403542	0.069030166
0.058828317	0.1331224	-0.06706049	0.14853704
0.04902746	0.07450135	-0.07662479	-0.002360071
0.07828579	0.08442701	-0.03607651	0.0013878548
0.03337632	0.019628054	-0.08025458	0.07987883
0.11243838	0.082030736	-0.028895054	0.033018716
0.026794905	0.07178214	-0.04084832	0.0992051
0.008100946	0.053354777	-0.037515394	0.029411722
0.059113577	0.08926169	-0.13825412	0.08969213
0.037471317	0.0446518	-0.10540676	0.02597161
0.05846873	0.028684804	-0.060110535	0.032785166
0.05147675	0.05461216	-0.041703887	0.08542917
0.0037071654	0.049662318	-0.050756194	0.049314715
0.08965503	0.017086262	-0.10185523	0.04219679
0.008166229	0.007859557	-0.0667746	0.08595241
0.053978894	0.11166997	-0.11112646	0.071895435
0.062349536	0.067072436	-0.02933939	0.04998458
-0.02680277	0.049649596	-0.053704664	0.06693899
0.028263671	0.04561468	-0.05503954	0.08589298
0.090736374	0.034388218	-0.03827073	0.032636862
0.026647294	0.025542969	-0.025191566	0.062111735
0.03750614	0.08245859	-0.04329195	0.064160906
0.07672137	0.033022854	-0.008166802	0.03292931
0.07043027	0.06659027	-0.064362764	0.0707916
0.07403543	0.022149548	-0.08175657	0.01472377
0.077560075	0.05229278	-0.085821494	0.028881215
0.048315138	0.0695864	-0.031551883	0.10101314
0.051664833	0.08230168	-0.045604695	0.047369927
0.038831923	0.08016744	-0.018034944	0.08380205
0.055303633	0.024344685	-0.08249037	0.032276675
0.066724844	0.08157145	-0.10867245	0.032904416
0.0842675	0.049625687	-0.0436109	0.010113078
0.058866728	0.10325682	-0.063469745	0.077442616
0.063725375	0.06533637	-0.12013575	0.04768357
0.06347691	0.06162287	-0.0579098	0.052590273
0.02163344	0.023978395	-0.069570445	0.07502765
0.06631026	0.09925406	-0.023580523	0.04281833
0.07659656	0.030225245	-0.124115214	0.073335715
0.040371455	0.04499807	-0.10990693	0.062932536
0.08566582	0.02931745	-0.09532837	0.02421359
0.069539346	0.05721328	-0.037790917	0.08685401
0.03228627	0.08647028	-0.10456944	0.035112526
0.043573245	0.07162109	-0.06745933	0.08068574
0.064287536	0.093030095	-0.048482195	0.022304941
0.036137395	0.046655476	-0.062635936	0.060690977
0.00832203	0.020874174	-0.078047104	0.054375615
0.06980586	0.07393096	-0.047616214	0.031283855
0.03335925	0.040341288	-0.06565671	0.06532697
0.039646614	0.036281187	-0.111471616	0.075803176
0.0068091247	0.056316376	-0.05578079	0.052717566
0.01661918	0.07843315	-0.0038173413	0.07229232
0.011289553	0.02608813	-0.064553365	0.023743132
0.078515634	0.03688059	-0.08583901	0.021022119
0.057398498	0.0068985824	-0.08783983	0.065129526
0.076878235	0.023133101	-0.029314596	0.07130021
0.10661318	0.03744777	-0.054323427	0.04876208
0.023770224	0.036367834	-0.053169847	0.06062933
0.10407571	0.03694001	-0.09736493	0.0268966
0.08252771	0.06991371	-0.047600243	0.04193757
0.11489538	0.067754045	-0.13628288	0.1295663
0.05622876	0.03069265	-0.039443903	0.046537273
0.037131645	0.078230694	-0.06975487	-0.006775774
0.09583908	0.029605582	-0.07289845	0.008230304
0.08790263	0.039694678	-0.08345236	0.06452677
0.06075954	0.04930816	-0.07080056	0.099933006
0.09114356	0.028671117	-0.02406927	0.111917466
0.01899403	0.105751015	-0.076166764	0.02075653
0.08671624	0.0416186	-0.0766765	-0.009537748
0.010615353	0.032239947	-0.01825118	0.10048214
0.051611934	0.06621769	-0.059457995	0.09443253
0.030018605	0.07492772	-0.0016267566	0.08649484
0.06904805	0.095744774	-0.029688528	0.03748162
0.047120444	0.127712	-0.08627679	0.04418017
0.06374798	0.050761458	-0.062177565	0.04249961
0.04864496	0.092382886	-0.040193204	0.0607369
0.09799154	0.031732388	-0.10767152	0.065040484
0.068875626	0.07531669	-0.059495352	0.02283467
0.07706035	-0.0056756525	-0.08855841	0.05927025
0.081884325	0.06209786	-0.032806363	0.04497165
0.091326065	0.007090772	-0.0011630672	0.06632243
0.013284857	0.063201495	-0.09018142	-0.0013632011
0.03893689	0.07718971	-0.010319315	0.06829864
0.082245775	0.083129026	-0.035808105	0.051991273
0.032617796	0.052198462	-0.07554522	0.11126752
0.015435418	0.109379634	-0.07781598	0.037224807
0.04212211	0.09816347	-0.08757016	0.024445178
0.08456196	0.06541437	-0.03584688	0.051680744
0.104226	0.020100616	-0.07431034	0.05121139
0.025640527	0.036317937	-0.047876213	0.035667237
0.052891213	0.0994406	-0.070196	0.042627554
0.10181021	0.09176663	-0.065105714	0.0911867
0.04591352	0.045837834	-0.042482626	0.07236859
0.032965314	0.073554195	-0.0536367	0.05466618
0.06929537	0.056535505	-0.015253627	0.033014584
0.034223523	0.11087147	-0.0889143	0.036149982
0.068854585	0.083031006	-0.1051669	0.10791656
0.018488007	0.10671451	-0.09619969	0.044608586
0.05546947	0.03886529	-0.040536247	-0.005555535
0.050404985	0.02328974	-0.0466312	0.055331573
0.05301771	0.09583608	-0.08169093	0.08692993
0.047831584	0.06863894	-0.06551309	0.029739607
0.06931753	0.05975811	-0.059152517	0.035455264
0.015989836	0.08551908	-0.039570022	0.081244126
0.06520153	0.07461654	-0.056481663	0.08347244
0.062212054	0.079756334	-0.05627922	0.07716686
0.017426172	0.07538784	-0.09510955	0.047800597
0.06917689	0.067279726	-0.1106445	0.0759075
0.03322695	0.04198527	-0.027140675	0.024684094
0.043326218	0.02810726	-0.07897234	0.09464909
0.064262554	0.06421251	-0.036810517	0.025816767
0.030353695	0.0044011855	-0.049321506	0.06800043
0.071962826	0.019754687	-0.039908964	0.087246984
0.003193776	0.06818911	-0.030204142	0.053137843
0.03677344	0.033599	-0.056032743	0.018646512
0.015324554	0.04445502	-0.09067026	0.016625963
0.07516301	0.050509386	-0.010293714	0.03693804
0.04504454	0.055570617	-0.071391605	0.071788706
0.061469384	0.03158996	-0.07323933	0.015664285
0.0934004	0.08844224	-0.10477081	0.07302973
0.036427196	0.077796735	-0.052753776	0.050040644
0.07530254	0.006678259	-0.06122794	0.03415435
0.13030463	0.08439027	-0.033844307	0.08382473
0.045073204	0.0895928	-0.0691318	0.10313386
0.009169568	0.05309569	-0.075677305	0.08625819
0.04559396	0.05532449	-0.06749858	0.05277577
0.030114982	0.08982648	-0.0070304847	0.067534365
0.050216015	0.07769885	-0.062476665	0.046842355
0.08895511	0.08815556	-0.09124193	0.06600103
0.12679723	0.04671057	-0.0919211	0.05835765
0.04554267	0.05728704	-0.026587144	0.030007536
0.0626586	0.010238306	-0.07103171	0.058315158
0.049884282	0.059752043	-0.047980994	0.022666475
0.04229143	0.06722426	-0.09416724	0.033224095
0.032077	0.0065488317	-0.053238094	0.07840408
0.07669274	0.021122929	-0.028408686	0.06765293
0.0676125	0.10677188	-0.07194977	0.09653827
0.042850386	0.09132957	-0.037076183	0.040970087
0.06870569	0.08787835	-0.031878754	0.07109782
0.10203608	0.04911792	-0.034044534	0.022530824
0.057285883	0.047576666	-0.022615835	-0.0102022495
0.0022638375	0.03523933	-0.019628752	0.028952438
0.005208326	0.025587011	-0.005305661	0.09254597
0.0061931736	0.03648653	-0.059717815	0.017175557
0.048469033	0.06396845	-0.015054085	0.039419495
0.03680944	0.015930174	-0.063809335	0.010515383
0.055501737	0.027900591	0.018036429	0.021978976
0.051319715	0.03320489	-0.08741233	-0.005530542
0.018706327	-1.7262717e-05	-0.06412015	0.0095737465
0.003983842	0.07232884	-0.038700245	0.039886925
0.01674767	0.015972352	-0.021309491	0.052441224
0.044736743	0.03521861	0.0083085485	0.032516
0.004224535	-0.020202762	-0.029193647	0.063308045
0.026914803	0.065585956	-0.050631847	0.018695753
0.058470458	0.09629851	-0.015652949	0.00871153
-0.0115286205	0.07152115	-0.072545715	0.0044370093
0.013359922	0.057236705	0.014965133	-0.0019354258
0.048698705	0.04274565	-0.012362574	0.009143981
0.04961356	0.015523521	-0.07744745	-0.0045589525
0.019703194	-0.0018482332	-0.07385178	0.0640129
0.018925391	0.012188405	-0.014035676	0.07050319
0.006764755	0.09831439	-0.0070026224	0.016434066
0.05298156	0.051312372	-0.01194984	0.052665774
0.007820441	0.05581797	-0.024798397	0.02404448
0.033712935	0.026274115	0.005792708	0.06486234
0.06525698	0.048766278	-0.021928186	0.02306595
-0.02010047	0.010991891	-0.030678114	0.07541194
0.059690453	0.041445818	-0.03215244	0.0009792688
0.07066662	0.0050810506	0.0122535415	0.029056298
0.027988747	0.013119465	-0.08672972	0.00778298
-0.01954597	0.046692166	-0.038620465	-0.0034684574
0.025063558	-0.005241971	-0.042461764	0.057974406
0.0020197448	0.043693665	-0.057457134	0.029047625
0.022282843	0.030933663	-0.035885103	0.04275176
-0.00203327	0.0645405	-0.0032707832	0.04221002
0.0676844	0.038188674	-0.03604699	0.050842676
-0.009727145	0.010199513	-0.04607619	0.044729773
0.014962844	0.024238579	-0.036785424	0.037194815
0.008974125	0.04138256	0.011049524	0.035856493
0.011736155	0.030700164	-0.046505824	0.02193194
0.048417885	0.062960684	-0.009251269	0.058753558
0.024391826	0.050646435	0.015132247	0.07108796
0.02015898	0.02106824	-0.005507524	0.07575429
0.02287983	0.07433958	-0.0571095	-0.013762803
0.021903353	0.066662036	-0.031441413	-0.011851178
-0.0019920398	0.010616592	-0.06628144	0.066609554
-0.023021685	0.043685567	-0.0042905645	0.042159952
0.065576136	-0.011906852	0.0070196367	0.06589165
0.0032616258	0.02260164	-0.071478054	-0.007814349
0.032748017	0.014790777	-0.039901514	0.02864929
0.040104162	0.050625727	0.006228872	0.022377225
0.041292287	0.076183945	0.011661978	0.017031766
0.031048639	0.03706832	-0.02052238	0.046394028
0.054908667	0.032623187	-0.034299262	0.038608048
0.046543192	0.0547905	-0.0025601923	-0.011906334
0.03637918	0.018634573	-0.038691007	0.027854787
0.03522798	0.048642676	-0.0537216	0.014924722
0.021598484	0.08581474	-0.055295732	0.011226795
0.036274504	-0.008990973	-0.020650808	0.05472394
0.042686973	-0.0015262186	-0.06123149	0.03727836
0.011151029	0.023562443	-0.059431944	0.008625757
0.023033552	0.045958333	-0.023610586	0.036928076
0.05205165	-0.011869379	-0.02593979	0.04935596
0.049315702	0.035214964	-0.04741667	0.03597451
0.03098804	0.02648817	-0.030288357	0.020445922
0.07236542	0.0333882	-0.00719182	0.044824854
0.0019719088	0.026332242	-0.056108985	-0.031852733
0.07161982	0.027884688	-0.032738175	-0.019858846
0.030960916	0.06685277	-0.02635078	0.04732264
0.033011593	0.00130465	-0.05348902	0.050663225
0.039002452	0.037967227	0.018108469	0.054906018
0.008313475	0.077958286	-0.08245815	-0.0042912583
0.028675167	-0.008348065	-0.07293218	0.053979963
-0.019383976	0.045523267	-0.049413215	0.023264877
0.04925715	0.00920854	-0.018713571	0.028541682
0.030101143	-0.004218804	-0.058845468	0.07662114
-0.01459981	-0.02320419	-0.04446518	0.0743466
-0.0008718409	0.038574044	-0.0367202	0.00096901774
0.0307109	0.028361818	-0.0021931657	0.060613975
0.06647719	0.033924147	-0.008092834	0.0068964665
0.030445809	0.02604789	-0.08290538	0.03779009
-0.020083264	0.054571882	-0.051556043	-0.007131923
0.00917308	0.05291018	0.025189308	0.03739108
-0.00809824	0.05804128	-0.07645574	0.0029431575
0.050551366	0.00786642	-0.04346851	0.011133329
0.08507424	0.03502079	-0.012689443	0.031962838
0.04585703	0.009129828	0.008920307	0.056633428
0.03871443	0.0044440636	-0.081863806	0.04069317
-0.0019297209	0.054737072	0.013263	0.017368983
0.038596917	0.074680045	-0.024859386	0.037764955
0.032705076	-0.013932827	-0.054090355	0.028687684
0.05364657	0.043670807	-0.018214308	0.042457458
0.035970274	0.022117825	-0.026227456	0.017786358
0.09569424	0.03805532	-0.040289894	0.0006481363
0.046268523	-0.021309607	-0.067358986	0.009920469
0.03126925	0.01975038	-0.033770423	0.031336565
0.052881684	0.07930037	-0.022787234	-0.006916624
0.023154687	0.03427042	-0.025247598	0.024139797
0.034008987	0.05374557	-0.004951223	0.072331324
0.0009453688	-0.014148241	-0.047556948	0.051791433
0.04453646	0.0129837785	-0.0048626834	0.060616724
0.040442217	0.04799078	-0.033971533	-0.012898734
0.039892547	0.032715883	-0.023834575	0.013733339
0.019843647	0.009328944	-0.060341313	0.043000713
0.035587836	0.054181743	-0.03306394	0.04181569
0.026524078	0.02580945	-0.0245851	0.04138017
0.06335021	-0.015867243	-0.012146058	0.053854797
0.01609198	0.004483804	0.008937132	0.061276406
0.03133364	0.062370732	-0.008944543	0.033316243
0.02777207	0.06964013	-0.02696558	0.045087077
0.039368797	0.003753326	-0.06896315	0.058227636
0.031153008	0.07662794	-0.04011307	0.04086311
0.0062835496	0.024472082	-0.011689145	0.054019243
0.016559275	0.038062967	0.011845336	0.04305914
0.0034648154	0.026498947	0.004631009	0.022812583
0.05574621	0.031740043	-0.043999147	0.0020209956
-0.0071475697	-0.0022418103	-0.051236976	0.08826404
0.025271382	0.07302617	0.01958646	0.03723421
0.06482229	0.06898568	-0.04061225	-0.01891682
0.07750175	0.04157257	-0.079549894	-0.007907378
0.02562067	0.051062807	-0.06342325	-0.0057697194
0.0011120356	0.027608084	-0.093040414	0.03508981
0.02322468	0.00291246	-0.009864264	0.052230213
0.038582463	0.04469098	-0.005925472	0.029168563
0.0030961237	0.028827695	-0.06119621	0.036712375
0.007447781	0.05205917	-0.018777523	0.05364301
-0.0094815185	0.0902409	-0.0227815	0.0140499845
0.06587152	0.07060235	0.0062181605	0.00801942
0.010244569	0.02442623	-0.02978535	0.056324508
0.009609294	0.038252197	-0.035315838	0.03379311
0.027701488	0.04047147	0.014255062	0.05385671
0.07013255	0.0045494586	-0.03693639	0.045329466
0.06926902	-0.012789866	-0.07578385	-0.0063177035
0.024465002	0.07574078	-0.0023364213	0.026094833
-0.0071924166	-0.014086741	-0.03695064	0.06524529
0.0046420256	0.058296062	-0.05176809	0.010984835
0.017357053	0.05431762	-0.007874192	0.046870686
0.07245044	0.037964024	-0.022073114	0.020181444
0.044367764	0.077608824	-0.0054272553	0.049369525
0.015757725	-0.007275952	-0.055452496	0.049130656
0.017669981	0.031255398	-0.047851797	-0.0068570725
-0.0077824653	0.0795676	-0.020467628	0.02804578
0.032583073	0.046994466	-0.059901267	0.004738197
0.007670474	0.017581766	-0.038708627	0.0735963
0.04086365	0.0024600523	-0.030254591	0.026918212
0.08916413	0.010909772	-0.024762655	0.0029396089
0.01864855	0.014200773	-0.0404168	0.0495189
0.013089013	0.08543989	-0.0041176137	0.066956416
0.090219304	0.023390455	0.0047964933	0.01482453
0.033777524	0.009667937	-0.012444234	0.10888229
0.062123504	0.048133247	0.01636587	0.041802544
0.061649997	0.02715815	-0.047519565	0.0008276888
-0.023633206	0.04428429	-0.05388048	0.039098665
0.0141261	0.004691161	-0.041027572	0.047319736
0.0054059797	0.03916989	-0.06611259	-0.02496356
-0.017976671	0.075656764	-0.02919635	0.0183851
0.05902402	0.02795119	-0.0083998805	0.0030225138
0.059480388	-0.017047992	-0.0205093	0.03622763
0.015205425	0.03147058	-0.012764718	0.059064448
0.058435198	-0.02735283	-0.06449204	0.045887142
0.047505513	0.043294106	-0.021706698	0.06397413
0.075924374	0.012364476	0.00941302	0.083312295
0.03396185	0.02300436	-0.012962371	0.053023975
0.03757696	0.030769156	-0.042033635	0.05856652
0.0156206945	-0.0085339155	-0.073037766	0.06893199
0.039623298	0.035584245	-0.05503365	0.013728876
-0.018557819	0.050169367	-0.04588531	0.020700041
0.049757037	0.050604675	0.0017753403	0.059257
0.07927102	0.00845203	-0.061003387	-0.012940612
0.018159356	0.072286315	-0.028074492	0.03836011
0.035691068	-0.013541225	-0.078170426	0.027140675
0.0067231213	0.024321105	-0.054685246	0.08101086
0.05821523	0.059455343	-0.0043196874	-0.02090178
0.04241276	0.039080434	-0.077679574	0.010084911
0.035718147	-0.0074025537	-0.05403415	0.00796956
0.012859745	0.006033816	-0.065610796	0.041100364
0.024404306	0.08730393	-0.019616026	-0.0041200905
0.030899499	0.060152076	-0.008255259	0.010099362
0.037396245	0.034105584	-0.039668642	0.057594504
0.08851972	0.029593604	-0.020649951	0.01808732
-0.0002730392	0.054779258	-0.044960193	0.026093183
0.028648976	0.0062256553	-0.08950583	0.026681883
0.01415942	0.014008584	-0.060584776	-0.014382208
0.050093394	0.031786844	-0.04943797	-0.022007432
0.057120033	0.013801502	-0.0057457644	0.04763555
0.00478296	0.063381046	-0.021288557	0.0741907
0.00587239	0.0544239	-0.0508448	-0.0029946845
0.05536816	0.034093656	-0.046741594	0.040469673
0.021560412	-0.010886059	-0.0354067	0.044222474
0.03426581	0.016441299	-0.052565757	0.025642315
0.03254911	0.041738775	-0.043053944	0.048379075
0.027561408	-0.00096313993	-0.04519571	0.0057846424
0.04438162	-0.0124516655	-0.04727753	0.019258866
0.07032693	0.05463902	0.02899086	0.05048013
0.027845226	0.03408459	-0.028743483	0.023350745
0.028170459	0.0337791	-0.03841432	0.04118426
-0.022182686	0.02142023	-0.044358965	0.056595717
-0.019595493	0.035970993	-0.07443421	0.07057517
0.02791714	0.052465703	-0.010296922	0.010772388
0.0056732707	0.007006138	-0.0628669	0.060804997
0.08151318	0.08396728	0.00072926306	-0.012585691
0.036449183	0.06436501	-0.015902588	0.08000393
0.031864822	0.018363953	-0.006433578	0.08351
0.038422186	0.035426557	-0.01117755	0.021839613
0.0343882	0.029103722	-0.07741247	-0.0014899668
0.050002836	0.06620949	-0.0420126	0.008912355
0.04158285	0.027006984	-0.075941086	0.013453081
0.043605663	0.0073935767	-0.012807909	0.048296195
0.046056706	0.0012152151	-0.06827619	0.034239978
-0.023615472	0.029058231	-0.017849969	0.039129496
0.027163869	0.067288645	-0.003831179	0.004699315
0.011253689	0.041316744	-0.014678164	0.03444997
0.04872752	0.012665028	-0.016562458	0.029708335
0.08912884	0.037599407	-0.04871183	0.022124298
0.04469505	0.03814609	-0.037114892	0.004009364
0.011286154	0.04771786	-0.07015745	0.021233942
-0.007306916	-0.005173579	-0.057212446	0.068491146
0.048361402	0.04357089	-0.021492183	-0.003548538
0.027022988	-0.027153391	-0.058612376	0.040873054
0.023203697	0.018946197	-0.05515963	0.02295134
0.054386694	0.04136962	-0.013411901	0.0090095205
0.054009397	0.031627666	-0.014624858	0.036785983
-0.011281229	0.055065	-0.039000932	0.03115427
0.028346647	-0.015248768	-0.058769632	0.045132235
0.032915704	0.00036323737	-0.02589013	0.039748225
0.06067161	-0.024821673	-0.056890544	0.05204328
0.022786885	0.030788047	-0.04193161	0.037484664
0.050143402	0.061954975	-0.031804733	0.03898349
0.025201932	0.008950466	-0.053899795	0.033509694
0.043416902	0.011774782	-0.04585314	0.012376211
0.046924625	0.03032095	-0.015479308	0.044668436
0.08243146	0.03450664	0.0056696534	0.009120755
-0.02144475	0.06601893	-0.021723058	0.022499822
0.0105563775	0.019941764	-0.004314115	0.063608974
0.057358894	0.012155124	-0.021222841	0.02363614
0.060888626	-0.01920773	-0.014382602	0.04987985
0.028358094	0.005490089	-0.008673527	0.07475003
0.040718492	0.055707786	-0.008978664	0.03914702
0.095548965	0.024610562	-0.039262064	-0.0026579949
0.009224564	0.00582697	-0.029171925	0.026693717
0.0420843	0.07914392	-0.051278934	0.02637793
0.007856483	0.04010141	-0.0031204016	0.078003176
0.046764277	0.04455842	-0.03855672	0.0027628203
0.07878715	-0.0079572005	-0.02372664	0.032583527
0.020665277	0.022014989	-0.1018105	0.022268608
0.06263618	0.026314463	-0.014596838	0.051587593
-0.007751927	0.043360863	-0.042866077	0.04538579
0.041166645	0.012439428	-0.04686918	0.014203551
-0.010887454	0.046723336	0.010184801	0.019932026
-0.0045408383	0.04696604	-0.029599778	0.049944423
-0.017645814	0.0643172	0.01660952	0.070234835
-0.010352091	-0.007720631	-0.040122658	0.055771284
0.033881653	0.0018044743	-0.018919284	0.038213868
0.047743272	0.033486594	-0.008119817	0.003973825
0.048970334	0.049278755	-0.04816837	-0.016076928
0.015094552	0.008089407	-0.07436013	0.052743945
0.040709168	0.041491937	-0.027327754	0.054921437
0.027855385	0.013465044	-0.00528352	0.05553726
0.043137625	0.05023172	-0.023314456	0.03230094
0.00022258885	-0.015792381	-0.06656423	0.04629579
0.04158383	0.02928579	-0.021569597	0.032250557
0.0040242756	0.016046954	-0.08142198	0.01728155
0.056241244	0.03574671	-0.033801325	0.008037633
0.04754784	0.0677377	-0.045351274	-0.003100325
0.024947966	0.0014843773	-0.009800647	0.031391982
-0.0070189713	0.05951111	-0.053507578	0.0045389803
0.028344238	0.051573243	-0.032055516	0.020175181
0.013803717	0.08417215	-0.02545542	0.047643986
0.03864258	0.0500572	-0.030192241	-0.02196226
0.009850559	0.051730525	-0.081316695	0.032892507
0.07522998	0.050719805	-0.03136221	-0.0025813251
0.063068286	0.04310995	-0.00020756171	0.055368796
0.018866088	0.052225098	-0.07230935	0.030638654
0.033987623	0.08575659	-0.03693413	-0.005357058
0.023169048	0.010822706	-0.017413212	0.1065189
0.0285476	-0.010068504	-0.07996311	0.005802867
-0.009467606	0.009262179	-0.01212714	0.07301968
0.05731704	0.061808195	-0.06272308	-0.0076387543
0.039620735	0.05790096	-0.04837192	0.016129464
-0.0033710068	0.050479114	-0.031008963	0.035373494
-0.0017463686	0.012257414	-0.032340396	0.053742327
0.049617164	0.015834859	-0.026655067	0.041388776
0.036548097	0.07046086	-0.03783825	0.010434639
0.038316336	0.07708255	-0.0133698555	0.033586334
0.014319784	0.010137261	0.010177626	0.08048321
0.042748727	0.02146487	-0.048804056	0.021900812
0.086277604	0.027354835	-0.04068308	-0.0012844892
0.021470806	0.044567496	-0.030358225	0.016318303
-0.0085894205	-0.0016325593	-0.045756396	0.04450582
0.04853607	0.03690749	-0.043354504	0.064617336
0.02280119	0.036925778	-0.040788	0.03854988
0.060525175	0.01011626	-0.015821908	0.048025623
0.035279717	0.03345492	0.005007182	0.023001693
0.02957202	0.00921908	-0.02529703	0.04476523
-0.000538289	0.051407397	-0.02198795	0.04910926
0.012385198	0.0330812	-0.049927264	-0.044316676
0.038451385	0.056569044	-0.020721547	1.0006031e-05
0.011472574	0.05094947	-0.0010446571	0.07253858
0.015610083	0.09367261	-0.01920489	0.013426535
0.053727273	0.04254203	-0.0029118916	0.017240109
0.11130441	0.014418041	-0.014389031	0.0054248874
0.060412038	0.015569741	-0.014056458	0.055428572
0.009868691	0.03718757	-0.019825757	0.029500032
0.030611899	0.013817483	-0.04993736	0.014856241
0.04108582	0.03218794	-0.06653695	-0.022605484
0.040560875	-0.0058556045	-0.062824935	0.07126094
0.016278371	-0.0011602531	-0.06397597	0.047313087
0.00846267	0.061103392	-0.063392036	-0.011598759
-0.017138721	0.048334144	-0.056580547	0.021426916
0.047551766	0.0030656937	-0.014117298	0.04939089
-0.014015848	0.04836694	-8.9526264e-05	0.059310712
0.017852442	-0.010291656	-0.046872817	0.075196795
0.042667236	0.07694583	-0.051760707	0.027826358
0.05585275	0.006966853	-0.039220266	0.028125955
0.03959532	0.034175307	-0.02967911	-0.0072540003
0.0034185702	0.0098001715	-0.091442116	0.06762717
0.05959277	-0.019561762	-0.010790942	0.066436
0.010116377	0.08203195	-0.07875561	0.0102144545
0.014529049	-0.012408945	-0.040540636	0.03430441
0.052140605	0.05397781	-0.038221817	-0.0029708957
0.01373966	0.06642903	-0.017602293	0.056268312
0.06297936	0.00089426804	-0.023795927	0.07250738
0.040203158	-0.016041825	-0.059794374	0.0041039754
0.03131923	0.025315298	-0.013910731	0.029654918
0.013790282	0.054456722	0.002818346	0.06731174
0.07130423	0.07723146	-0.0016900639	-0.0052200463
0.07586218	-0.005799499	0.0018196257	0.06075784
0.031214412	0.0302453	-0.03707011	-0.013081445
0.021240717	0.050538253	-0.041913144	-0.01968128
0.053195707	-0.016728492	-0.015663415	0.080765836
0.058369227	0.00045655365	-0.05091562	0.04767527
-0.018019184	0.009394783	-0.059027854	0.04845667
-0.014001723	-0.018999357	-0.06023464	0.06061638
0.030756138	-0.0013185204	-0.04799888	0.045375656
0.076763	0.0505003	-0.007378773	-0.0064148055
0.013631357	0.058995023	-0.045451764	0.019789064
0.031899206	0.017425777	0.0012246439	0.03698092
0.018079208	0.011208023	-0.023322763	0.04233532
-0.007529313	0.012793363	-0.020401804	0.057300594
0.06093022	0.0074850237	-0.05427174	0.02755818
0.015029055	0.052324925	-0.006272454	0.04649828
0.06039538	-0.00089606876	-0.021835549	0.028131817
0.0021549384	0.05780209	0.0010296524	0.0618159
0.0010920723	0.011772548	-0.032132406	0.039214868
-0.035149906	0.05510493	-0.048445612	0.063596405
0.062229585	0.0025644277	-0.054672137	-0.014122633
0.033245213	0.027101293	-0.016146772	0.014879347
-0.0024949836	0.077192895	-0.061256524	0.017531319
0.06581672	-0.000113198636	-0.075798154	-0.0133171575
0.038014688	0.053302076	-0.031538986	-0.004010583
0.031222062	-0.020845465	-0.03033595	0.05555791
0.012215007	0.023277905	0.0015915212	0.04994689
0.020950753	0.039609335	-0.03474697	0.040013105
0.047094103	0.05404612	-0.03389561	-0.0028788573
0.009503861	0.060756817	0.022910073	0.06687594
0.06296838	0.031229798	-0.014754551	0.012305532
0.076668434	0.046262797	-0.00080980983	0.040400866
0.055820487	0.00018190636	-0.033842605	0.016020201
0.046355974	0.028914621	-0.049874343	0.02824699
-0.0056305714	0.0756195	-0.003221453	0.06838775
0.059323452	0.010017411	-0.0462813	0.013479657
-0.015316316	0.012961325	-0.057876073	0.053159043
0.021111667	0.022737805	-0.05341685	0.024738813
0.043855336	-0.006556874	-0.037252944	0.050517067
0.054618638	0.03365523	0.0028948544	0.04599669
0.0525117	0.0035734067	-0.0164968	0.031013334
0.030525353	0.06290385	0.010324021	0.068386145
0.05769869	0.047714524	-0.024259213	0.035298456
0.027965415	0.023479067	-0.017603766	0.07463858
0.01872639	0.031625632	-0.08382426	0.015617252
0.01199443	0.029551318	-0.08588118	0.01942521
0.003387071	0.05379828	-0.044092998	-0.009135718
0.00130485	0.010349581	-0.076026015	0.0061078505
0.056514326	0.094932966	-0.02696753	0.0141060185
0.009035979	0.030489003	-0.04332272	0.033948343
0.015517113	0.021065952	-0.054954525	0.027472714
0.026470413	0.070946984	-0.049970295	0.040170442
0.0061241235	0.05988489	-0.05845249	0.074826084
0.043561686	0.08338101	0.0016304484	0.030892432
0.05006455	0.046193063	0.01010577	0.042152002
0.055595804	0.01192543	-0.035255454	0.062528275
0.043944657	0.020477839	0.0081456555	0.057922702
0.038998388	0.073635906	-0.015725598	0.014769811
0.029119015	0.008789042	-0.056266535	0.06490037
-0.008002115	0.026029281	-0.021191655	0.068633415
-0.017757764	0.0707778	-0.07929311	0.033845343
0.060022656	0.039343882	-0.016307065	0.04316036
0.025051234	0.00050502736	-0.065870024	-0.010729263
0.040800873	0.00391501	-0.07240021	0.008613353
0.035414126	0.079662584	0.0014209006	0.034027036
0.0154349245	0.029951124	0.012589555	0.04335513
0.08505421	0.03871527	-0.02389267	-0.008888935
0.017228065	0.0025853652	-0.06026292	0.011078144
-0.011107354	0.042618208	-0.0003609599	0.053970367
-0.0038866545	0.0008593395	-0.052633706	0.06858136
0.0029647772	0.027516017	-0.030544683	0.039940916
0.06671064	0.022557432	-0.017983962	0.05526881
0.028316705	0.04047866	-0.047516268	0.025371635
0.04021708	0.090252645	-0.011700977	0.025580188
0.01816662	0.06495365	-0.025470672	0.041524656
0.035640452	0.0026582542	-0.027075509	0.010970907
0.016520636	0.060378015	-0.045707267	0.014938289
0.021397999	0.009498551	-0.055089213	-0.0064228256
0.03665419	0.058921788	0.019529097	0.050377034
0.019805225	0.07889337	-0.013117092	0.013197144
0.06825048	-0.0066371383	-0.008882102	0.075892046
0.020560088	0.043405224	-0.021970352	0.008374594
0.0031065694	0.007919822	-0.06321331	0.077730395
0.064736	0.023424406	0.0005855188	0.011506578
0.020107942	0.007887722	0.006401155	0.07391659
0.07206822	0.006060409	0.0160772	0.042492773
0.015279393	0.023445716	-0.071945086	0.03480533
0.03445117	0.05793072	-0.009683285	0.068319276
-0.005033269	0.051729444	-0.069798894	0.030334404
0.009808958	0.07757214	-0.0015578083	0.07948154
0.030409979	0.016532442	-0.041193742	-0.0114761
0.10030375	0.020288972	-0.033873864	0.018441314
0.020445034	0.025848884	-0.041387275	0.03617335
-0.019981323	0.017017188	-0.04374973	0.06497189
0.012881265	0.050584774	-0.038251832	0.033696026
0.045496844	0.019263443	-0.00090823165	0.04411024
0.021318141	-0.012158108	-0.009111172	0.08290846
0.033627708	0.020319356	-0.04299817	0.020029737
0.0021448382	0.024858762	-0.027684944	0.021568742
0.034768373	0.039260246	-0.056767996	-0.0049861604
-0.018959722	0.051657658	-0.03679077	0.033621974
0.0057048537	0.06947929	-0.071624964	-0.005862406
0.07405541	0.030654654	-0.024571888	-0.0020451606
0.05061306	0.0077596013	-0.04346766	0.052815843
0.08097918	0.037635766	-0.013032167	-0.007900811
0.063012846	0.03453128	-0.060709044	-0.017647935
0.07792425	0.046932284	0.000292283	0.0535945
0.012345162	0.042497694	-0.064465895	0.028779792
0.09900074	0.014823021	-0.01805869	0.045754448
0.040636998	0.02974208	-0.022262882	0.024493
-0.021712678	-0.025890492	-0.017571071	0.06437653
0.031521857	0.02512551	-0.012654228	0.10040786
0.008033684	0.026759831	-0.03197113	0.027215414
-0.0015436492	0.06898042	-0.0149077065	0.07494423
-0.01186399	0.04775273	0.002656138	0.06366124
0.0012225743	0.02084663	-0.06765887	0.06521353
0.019827647	0.06801349	-0.0203747	0.01934296
0.09756326	0.0020219528	-0.035463583	0.023201771
-0.019032553	0.038818922	-0.023337407	0.055929173
0.031660937	0.06410192	0.0048470558	0.06427638
-0.027762325	0.07243801	-0.06978086	0.04384104
-0.0071504847	0.013530288	-0.05034052	0.0927013
-0.0138442	0.010923979	-0.037830353	0.046599735
0.017290063	0.071279906	-0.033788953	0.0049190484
0.06797383	0.026501304	-0.01021393	0.00083386124
0.0146759255	-0.01417777	-0.027168965	0.037870128
0.022636589	0.07360844	-0.06496023	0.041355662
0.0109158475	0.040822446	-0.045607988	0.05591966
0.057938546	0.008289836	-0.012522846	0.048081134
0.025719702	0.03639891	-0.037838243	0.0029166397
0.046411533	0.023901856	-0.040446967	0.03515402
0.058877103	0.026639806	-0.052612055	0.016285798
-0.0068213698	0.04248177	-0.028055567	0.04443907
0.06366428	0.023818867	-0.01925363	0.029914027
0.032972854	0.06504353	-0.038384177	0.010523444
0.018731592	0.049819045	-0.055973597	0.03082571
-0.005944464	0.07060222	-0.004169156	0.065397985
0.049441345	-0.0012090162	-0.06800259	0.00071005675
0.031481255	0.03498613	-0.04491499	-0.0066772313
0.03265272	0.04441845	0.028595392	0.0423316
0.05394484	0.046210583	-0.049014427	-0.02748535
0.017249426	0.01760338	-0.05277097	0.058597002
0.04853462	0.040873267	0.013493154	0.025259541
-0.0035823223	0.059053887	-0.03887961	0.04599257
0.026857514	0.044492032	-0.06261304	0.0046590054
0.0095147975	0.020922642	-0.082243405	0.04953084
-0.0060224063	0.024055576	-0.018563278	0.03255404
0.072479196	0.0039508226	-0.074232005	0.015082997
0.07442297	-0.0004113066	-0.015759228	0.009622973
0.01585134	0.05000835	-0.020694524	0.06736643
0.016693396	-0.015998796	-0.055776756	0.016775865
0.0041176057	0.073035374	-0.041291866	0.037142813
0.029924508	0.04729723	-0.06408443	0.013190937
0.06572998	0.013353993	0.023900665	0.060938198
0.09096297	0.039513037	-0.043364514	0.04640227
0.04170871	0.033077788	-0.05721561	0.023589151
0.059395254	0.00016210105	-0.06337887	-0.010419145
-0.003027611	0.04478458	-0.047396604	0.00732955
0.06791248	-0.0026605085	-0.06841746	0.011144103
0.049930677	0.028251339	-0.044900447	0.029424157
0.040259298	0.04588286	-0.01844535	-0.0032642838
0.076523945	0.0022239578	0.0044688624	0.054031536
0.005142025	-0.02267442	-0.041259505	0.04101293
-0.002337008	0.048979554	-0.017821878	0.06801663
0.070068404	0.022841023	-0.050317064	0.026915846
0.012593055	0.039120574	-0.010567097	0.07250819
0.06657077	0.05783884	-0.014727103	0.022239165
0.014571323	0.06890037	-0.015324748	0.051724084
0.08064237	0.06583361	-0.016052214	-0.009410504
0.02862218	0.062432617	0.014091	0.031861853
0.013912457	0.036078997	-0.04494763	0.07933783
0.021168783	0.02695843	-0.032991566	0.025410814
0.052981548	0.007019026	-0.05486502	-0.0023880948
0.0064907987	0.028751181	-0.012748174	0.016113179
0.060602672	0.005421618	-0.056649216	0.036304507
0.04182964	0.020116221	-0.02229695	0.027438799
0.04334735	0.018594775	-0.065833755	-0.006288772
0.045965146	0.06737298	-0.011028046	0.029044956
0.011923835	0.080189995	0.0052680187	0.047285724
0.06163705	-0.009929375	-0.019075988	0.059909772
0.023080023	0.04076699	-0.06323551	0.013506533
0.031779397	0.07608987	-0.048896734	-0.0022345325
0.045246277	0.040165644	-0.027847877	0.00015806698
0.028439842	0.031574488	-0.0047689755	0.038844947
0.0073347185	0.050239425	-0.04283716	0.032059785
0.051790364	0.006996555	-0.041793637	0.067216605
0.051011797	0.033101227	-0.055995155	-0.020137414
0.03129367	0.05568049	-0.0051327897	0.05500292
0.03508208	0.036221527	-0.038895655	0.017535912
-0.027893888	0.05235122	-0.03566336	0.014954058
0.016494341	0.01659515	-0.021802237	0.0230224
0.018214563	0.04534414	-0.04784478	0.008593518
0.0007776189	-0.03420105	-0.05209096	0.057305254
0.01768725	0.0567324	-0.08646485	0.026973804
0.020711605	0.004544132	-0.03453283	0.084707156
-0.0015526593	0.034421954	-0.016252542	0.05089143
0.066090755	0.008578602	-0.03939449	0.021340406
0.06258544	0.012536322	0.013055982	0.055619914
0.035132103	0.015157983	-0.033465162	0.04857895
-0.00022365926	0.04087232	-0.01720883	0.054210305
-0.018346552	0.0030898845	-0.0012822144	0.058476623
0.053289052	0.023189928	-0.022061016	0.021401966
0.051129032	0.045247063	-0.05280937	0.023579814
0.033044867	-0.006185299	-0.027723653	0.03999565
-0.012494243	0.03328562	-0.02100653	0.055825908
0.024257347	0.08384399	-0.020582752	0.018682808
0.044651404	0.028327186	-0.02076318	0.09191393
0.021361906	0.032008715	-0.03440712	0.038004983
0.036107782	0.0382184	-0.05276033	-0.008282394
0.046428893	0.0030175268	-0.048928175	0.02307721
0.02453289	0.08570757	-0.016653275	0.037086282
0.050698828	-0.009114879	-0.051817942	0.044863176
0.020017589	0.048947196	-0.06571702	-0.025872568
0.020129777	0.023132393	-0.0417195	0.03593782
0.077571064	0.002317983	-0.015922176	0.021745188
0.0443115	0.07997758	-0.02712591	0.0060178777
-0.020205243	-0.0071159997	-0.064826824	0.07169777
0.060334574	0.016712764	-0.0016169416	0.038839355
0.045366332	-0.015922679	-0.04144989	0.060422417
0.06429272	0.038954183	-0.03897618	0.025356881
0.009596289	0.028173815	-0.06127186	0.050811592
0.04900699	0.02005965	0.0015138952	-0.00045224576
0.0075032753	3.864773e-06	-0.0812272	0.05282303
0.02034096	0.0050005754	-0.060592167	0.074491136
0.036106706	0.06032304	-0.009857911	4.135013e-05
0.03753324	0.079332	-0.04804669	0.0014330066
0.04942806	-0.013688503	-0.04522723	0.030113824
0.046518892	0.0023048213	-0.025302125	0.031109571
-0.006262977	0.090562955	-0.0016181251	0.08194715
0.0641055	-0.024583392	-0.04031941	0.03226973
0.014010456	0.020072548	-0.048816316	-0.0027499131
0.045743637	0.076622054	-0.022296727	0.018401729
0.05526197	0.06256612	0.00285152	0.014486707
-0.006955932	0.040266756	-0.038659297	0.06450841
0.022906434	0.008220228	0.0041560577	0.07289744
0.061982762	0.03029293	-0.037228115	0.018592656
0.019074632	0.02752595	0.0023633086	0.044055514
0.05889127	-0.021245355	-0.0283321	0.052242193
0.03730017	0.032500334	-0.012789962	0.005503794
0.014399507	0.04359675	-0.05776694	0.029521348
0.06432592	0.012613873	-0.0084936805	0.03827584
-0.017971972	0.05787126	-0.059076186	0.049153626
0.07500601	0.01395234	-0.06503142	0.028113963
0.046696912	-0.01172434	-0.04945381	0.05587163
0.050888132	0.028153772	-0.020674907	0.061790545
0.07138313	0.03580969	-0.036446035	0.014055916
0.07914184	-0.0014289027	-0.03237361	0.02358106
0.011073452	0.06474563	-0.0087965075	0.028088765
0.0047322703	0.040736374	-0.04685992	0.0071488474
0.027814263	0.010391768	-0.06770956	0.016354844
0.055991966	0.06109466	0.001640344	-0.0019724802
-0.0022150078	-0.016218593	-0.03728085	0.048621852
0.05046073	0.0027102348	-0.014023412	0.054318633
0.016483646	0.0210263	-0.05950261	-0.009777447
0.10595042	0.010379162	-0.023626467	0.0130718695
0.059289232	0.05021516	-0.022867188	0.011628696
0.036538135	0.023529045	0.012335648	0.031841293
0.022092806	0.032313865	0.0072104377	0.05512488
-0.012601064	0.023026057	-0.07460962	-0.009934443
0.08310545	0.03738559	-0.03034429	-0.0072055967
0.06822914	-0.009947202	-0.06972772	-0.008223493
0.024251262	0.02788369	-0.04225912	0.07069596
0.05713195	0.010616937	-0.020715123	0.027136184
0.028923536	0.007836155	-0.027049612	0.027483271
0.062967226	0.04126552	0.003331091	0.06442097
-0.0063243248	0.06411006	-0.042339146	0.006061008
-0.007737451	0.028647516	-0.040119454	0.002427646
0.051764816	0.029485138	-0.046484612	-0.014884459
0.021119807	0.020030161	-0.040012427	0.03992139
0.051720332	0.0097203925	-0.017836802	0.0183921
0.033815052	0.001127446	-0.052180514	0.030290753
0.028970096	0.043884482	-0.06322175	0.011465148
0.0397544	0.07851984	-0.006744942	0.06388224
0.04801837	-0.007315696	0.0007871576	0.03763389
0.047214307	0.037848953	-0.0044909944	0.034799013
0.017280662	0.014729495	-0.06431697	-0.014908263
0.0650958	0.06580389	-0.0013683132	0.045719404
-0.0010820632	0.044933703	-0.07752553	0.018240292
0.035694145	0.016798688	0.004788317	0.047593404
0.058911107	0.030931307	-0.0052268575	0.006873354
0.045556817	0.051608015	-0.02671914	0.053188883
0.028546635	0.013892089	-0.010804178	0.062012877
0.052728113	0.05894101	-0.033649098	0.018016687
-0.009515209	-0.003268626	-0.090345	0.057323284
0.026218066	0.037630677	-0.060733583	0.034105927
0.027692556	0.013756178	-0.066931784	0.02814346
0.06995009	0.028220508	-0.026979273	0.037148442
-0.0404651	0.04416784	-0.05302831	0.014643312
-0.00049804826	0.047231052	-0.06405835	-0.004040058
0.060282134	0.01950401	-0.007887174	0.06203948
0.024310943	0.026604129	-0.07313246	0.039603394
0.016464414	0.020948144	0.005686334	0.05504936
0.02620618	0.019583547	-0.041187193	0.045377735
0.011091642	0.049901683	-0.040006585	0.03842128
0.015038341	0.021188105	-0.053339344	0.013383074
0.009244122	0.022892345	-0.07237481	0.0050891475
0.030435009	0.045668885	-0.03517385	0.07273647
0.03738986	0.07578987	-0.06674249	0.047004182
0.024747852	0.015259051	-0.02026838	0.046417106
0.00258859	0.027509985	-0.07412975	0.028699161
0.06665628	0.037276976	0.0071055247	0.07699301
0.015614469	0.015994485	-0.052307185	0.032777585
0.054643717	0.058791313	0.010605663	0.023163965
-0.009076322	0.05139872	-0.03430431	0.03884661
0.041364837	0.031043768	-0.042535298	0.008874726
0.012312908	0.07305106	-0.0013847268	0.06389791
0.0023673184	0.055022445	0.012021801	0.050187908
0.057860576	0.023864038	-0.033920966	0.036564015
0.046658542	0.06022111	-0.0054230574	0.013546075
0.029058978	0.06881344	-0.07524682	0.0094343135
0.029036677	0.053352565	-0.008604817	0.019846652
-0.0025146494	0.0022726732	-0.019248296	0.084994264
0.055432666	-0.02835616	-0.056368973	0.022556942
0.06180268	0.028633386	-0.0073106093	0.052999496
0.07315865	0.008646221	-0.014541655	0.023289446
0.076642275	0.0041576074	-0.038708907	0.021170303
0.034486286	0.028698351	-0.081798464	0.03801562
0.058260106	0.008984369	-0.0040309164	0.05727798
0.004152419	0.011632968	-0.07335943	0.010434751
0.034842495	0.07389877	-0.028249998	0.022402272
0.031031	0.0029440005	-0.0046316553	0.026159199
0.026341332	0.011496205	-0.012642078	0.04195022
0.08211398	0.012510551	-0.017268855	0.07335448
-0.018656764	0.059469152	-0.04504637	0.013320984
0.07319524	0.028189942	-0.024724016	0.04215929
-0.0026169582	-0.015143615	-0.05551204	0.030190008
0.009234907	0.075844206	-0.028223537	0.036176078
0.085259564	0.0151647385	-0.05158769	0.025741627
-0.022965373	0.02268388	-0.035603777	0.055748016
-0.015520228	0.057272475	-0.072558455	0.0074199894
0.023234429	0.03643625	0.008991289	0.052383866
0.052054048	-0.00842746	-0.09243368	0.04697057
0.03940535	0.037776172	-0.027659079	0.025217885
0.039846484	0.037240013	-0.0091115255	0.038773496
0.041624263	0.011643095	0.028701123	0.04407371
-0.016089903	0.052964803	-0.04346751	0.016338345
-0.014424987	0.05930212	-0.083882906	0.04836346
0.013370218	-0.0039041664	-0.02034262	0.007665121
0.02393288	0.02896405	-0.0806764	0.029304842
0.026726354	0.04747245	-0.015249049	0.0011385785
0.01890308	0.0143438	-0.061317366	0.0022121412
0.003959753	0.0040917685	-0.011200049	0.101914786
0.07042438	-0.009725743	-0.07590209	0.01242834
0.03598067	0.001967903	-0.014573214	0.02514684
0.05002895	0.0014485806	-0.05437117	0.03348159
0.037052184	0.028657688	-0.0059518428	-0.0013111827
0.045745965	0.012711866	-0.050518457	0.0058898027
0.047206137	0.011133806	-0.0044577844	0.03205712
0.02375375	0.053852413	-0.011108664	0.034511447
0.015523195	0.039126605	-0.036197998	0.047816087
0.042675726	0.03998952	-0.042256296	0.015529267
0.033010192	0.054793052	-0.068027295	-0.017660847
0.053959213	-0.012756507	-0.043926142	0.016552074
0.0026343898	0.021337476	-0.022561297	0.05532259
0.05848397	0.019558335	0.005940208	0.04233079
0.034101963	0.00939831	-0.043712914	-0.011370242
0.020504152	0.027514447	-0.04198681	0.032486863
0.05950591	0.036572725	-0.05347169	0.049909063
-0.00062274135	0.07445588	-0.06310758	0.0003767748
0.043930486	0.04908434	-0.017438361	-0.0036192785
0.04760004	0.026167762	-0.01908453	0.039807085
0.0073302966	0.02360489	-0.08983101	0.0053134626
0.059327215	-0.0009939115	0.006802333	0.018996686
0.018804463	0.056501318	-0.013146899	0.067078464
0.035532847	-0.013904868	-0.061786927	0.038773965
0.046314023	0.076914385	-0.01638305	0.0034059344
0.035846923	-0.025103208	-0.018965354	0.062081728
0.0006662281	-0.007107532	-0.054137994	0.057965096
0.038122658	0.0036192918	-0.061981898	0.009427215
0.04996867	0.057265375	-0.050042097	0.020118583
0.028336726	0.06170166	-0.0119658625	0.041991822
0.03649029	0.03412509	-0.04751129	0.01968783
0.009809252	0.029768294	-0.009779837	0.09716451
-0.008686444	0.0783216	-0.02635571	-0.0015745211
0.05330867	0.028572865	0.016626693	0.016687449
0.03055703	0.011823351	-0.062177014	0.024193345
0.057466187	0.011258318	-0.07150248	-0.0020606224
0.055106964	0.02146447	-0.043591466	0.014651664
0.054076746	0.026633158	-0.028552309	0.06118811
0.048606098	0.047175415	-0.02768103	-0.015550747
0.06234679	-0.0069534495	-0.081801385	0.005803458
0.04102189	0.056927953	-0.013603894	0.06510161
-0.0058960314	0.039922014	-0.08413613	-0.0013434197
0.08010454	0.023263637	-0.012213473	0.00786563
0.054620896	0.0059578107	-0.022731453	0.031130644
0.04307572	0.030154893	-0.0023579535	0.014376585
0.024578372	0.07697649	-0.077685036	-0.0014025801
0.051053952	0.03450384	-0.019627307	0.019066833
0.05251974	0.023298623	-0.054349296	0.047762457
0.054222576	0.026507175	-0.026102917	0.06466907
0.025645752	0.0417051	-0.050223827	0.038413778
0.046402466	-0.016196294	0.008200156	0.07801876
0.05162348	0.0449537	-0.05032396	0.034295812
0.02233882	0.0048035104	-0.057949863	0.0062396596
0.025318097	0.07674453	0.010443435	0.038318224
0.044757143	0.067739055	-0.03391398	0.016578516
0.0486964	0.020788707	-0.04983318	-0.022048756
0.06747263	0.047580868	-0.029767055	-0.019760408
0.023377953	0.06189422	0.00332912	0.052869357
0.028259674	0.05852109	0.0018749017	0.02972712
0.016933702	0.052174326	-0.01101988	0.007594025
0.016771497	0.0057981866	0.0032212671	0.07580788
0.034284733	0.0064431415	-0.037116535	0.015509255
-0.0033014307	0.05254772	-0.0042233546	0.076211125
0.020558411	-0.018903252	-0.009219521	0.05062854
-0.0012888218	0.020929871	-0.04582942	0.06302952
0.026755137	0.022430463	-0.08411668	0.017857024
0.0030413303	0.013691533	-0.08526443	0.04339329
-0.0060321027	0.08076602	-0.025002113	0.021223022
0.049313877	0.048775353	-0.006562848	0.05174287
0.07326396	-0.005109996	-0.03248395	0.023825163
0.040544037	0.022100924	-0.02796151	0.0075581553
0.0060342606	0.04681647	-0.0031519379	0.09397845
0.012715629	0.01960499	-0.017899135	0.050713584
0.015950508	0.039754443	-0.049868662	0.038968075
0.048497643	0.05362047	-0.00032822083	0.035817463
-0.0009908278	0.06321615	-0.04241109	0.025351219
0.015966166	0.016371751	-0.0160728	0.07823526
0.083059795	0.014798833	0.010213526	0.05284882
0.072600484	0.009364526	-0.07274328	0.021970194
0.054900702	-0.0025204795	-0.014588823	0.042820185
0.04509174	0.052912693	-0.020544993	0.028566241
0.07683474	0.0040851156	-0.08082349	-0.003233763
0.06683929	0.03823909	-0.031979196	-0.0030402488
-0.008322609	-0.010373439	-0.05664468	0.033583306
0.020758701	0.076402634	-0.086935945	0.0081460625
0.091686115	0.02059135	-0.0027512982	0.011378362
0.038920987	0.025199555	-0.013418558	0.05436552
0.0397963	0.03967909	-0.005830316	0.042525884
0.025819873	0.025123628	0.015188455	0.044061344
0.02481804	0.056509633	-0.0669832	-0.0138471145
0.064892665	0.052394003	0.02954408	0.032465104
0.0076946705	0.024621326	-0.051578853	0.07395253
0.04339532	-0.0033277962	0.0049873446	0.06415234
0.03562151	0.039829932	-0.003162123	0.07403371
0.014771817	0.053190593	-0.052569482	0.020691143
0.054407667	0.025223248	-0.0247502	-0.009632547
0.013716374	0.105180226	-0.011275662	0.036811512
0.0095651345	0.07342446	0.010620406	0.014429678
0.059312318	0.016560458	-0.0037574733	0.036527276
0.027349958	0.028371723	-0.030546986	0.027949603
0.0073238052	0.029305257	-0.01633184	0.059644856
0.042013578	0.0051865014	-0.004670116	0.014099354
0.0047288123	0.0549128	-0.04577269	0.0027095247
0.037416805	0.058905676	-0.046863977	0.014223671
0.03478389	0.060688302	-0.04973818	-0.022268193
-0.009199968	-0.0062177964	-0.06896539	0.08330303
0.009653359	0.05690092	-0.0076206313	0.035819557
0.072232164	-0.034006767	2.951271e-05	0.039531473
0.034923863	0.02184574	-0.0044026314	0.04518401
0.0027091922	0.0386268	-0.008854534	0.07067954
0.069774434	0.071525455	-0.003632398	0.027286602
0.06687162	0.00065965415	-0.06628337	0.03191774
0.070546366	0.04915038	-0.027091188	0.03618016
0.03889837	0.021757955	0.0009276109	0.0162848
-0.006372971	0.047160726	-0.02716916	0.0039878227
-0.0022629923	0.040255737	-0.022888023	0.0075586275
0.028210793	0.0073301094	-0.039001573	0.05859645
0.015489817	0.04986326	-0.008305368	0.045960464
0.06848665	0.0059989444	-0.01730039	0.07465192
0.04390423	-0.00019169791	-0.028895594	-0.02384894
0.04866752	0.026672138	-0.045689855	0.012975335
0.00045526962	0.026476037	8.715397e-05	0.06244287
0.017249055	0.036966495	-0.026233453	0.011508401
0.03818592	0.031455744	-0.039290186	0.043001678
0.042980086	0.024673453	0.02747468	0.03260778
0.071417205	0.00483668	-0.027051376	0.013828134
0.039112534	0.083337456	-0.011522869	0.021008376
0.032788534	0.0048567518	-0.06617943	0.06231261
-0.0019157298	0.026852358	-0.01493357	0.08652671
0.056294993	0.045393936	0.0050117974	0.0100132115
0.03063391	0.03381997	-0.0036046964	0.03269706
0.05473251	0.03999762	-0.0011889494	0.07227499
-0.00678253	0.09124031	-0.0010219918	0.032383356
0.060360935	0.002385842	-0.05260159	0.017864233
0.041454118	0.06139565	-0.015474323	0.025770996
0.059113037	0.0009391897	-0.03511682	-0.003853638
0.025800707	0.03692139	-0.002673138	0.03715353
0.042116985	-0.001548751	-0.018126013	0.06945732
0.021306762	0.0768432	0.018024545	0.009839638
0.020182298	0.04590752	-0.02912585	-0.01809371
0.0029890158	0.02681815	-0.06617307	0.04436534
0.07737759	0.046236306	0.01643687	0.004427029
0.06834515	-0.006421887	-0.03850688	0.052805655
0.03619598	-0.0069307815	-0.033253692	0.044734024
0.061663546	0.038363166	0.006021057	0.013925265
-1.8320039e-05	0.057902433	-0.053310778	-0.01204602
0.026009535	0.0319928	-0.03898029	0.008454467
0.045260724	0.07610703	0.014845022	0.054682564
0.008764618	0.0164933	-0.05294349	0.047633752
-0.00073408347	0.039186243	-0.018617058	0.025875026
0.028605694	0.084335625	-0.018361809	0.027036726
0.043607615	-0.03126551	-0.038413372	0.05592465
0.03735373	0.04131121	-0.032539196	0.0058235344
0.053539224	-0.0140781095	-0.009930777	0.07397433
0.04797058	0.035057977	-0.024035396	0.048979487
0.06328347	-0.017834611	-0.02241707	-0.013197427
0.009829485	0.05720408	-0.009459912	0.03690203
0.019733712	0.04792021	-0.024892833	0.07034232
0.0031052625	0.006039375	-0.038927056	0.054905325
0.070235536	0.03754094	-0.050923336	0.02879707
0.0074617635	0.048158567	-0.037136804	0.06497477
0.0352162	0.05970504	-0.0026567283	0.059580527
0.013156678	0.037289307	-0.032084033	0.04739359
0.013141119	0.037568513	-0.0062718587	0.053788826
0.05440825	0.04005016	-0.048442107	0.017389307
0.010951258	0.031938665	0.0024733476	0.034250334
0.0446614	0.049691863	-0.020355389	0.045740902
0.053466894	-0.008121583	-0.06635324	0.054799095
0.03675839	0.014069925	-0.07088168	0.009675908
0.052129775	0.07937485	-0.031763844	0.0021751614
-0.03617432	0.04875079	-0.032508932	0.040066905
0.028469918	-0.006921194	-0.055180166	0.0152219
0.0045918045	-0.022135181	-0.05921011	0.053060938
0.012107587	0.091896124	0.0016307177	-0.0010165768
0.015510154	0.020660732	-0.036843304	0.024274958
0.0335722	0.05185648	-0.032914806	-0.0048785848
0.040080324	0.025208957	-0.015401691	0.016626697
0.038179036	0.06744611	0.019439219	0.059343435
0.04755168	0.0036540339	-0.02289029	0.05767274
-0.0054773297	0.038173676	-0.023690987	0.0517731
0.06672234	0.04115472	-0.012679514	0.042839635
0.0021317555	-0.019228704	-0.06734722	0.044578902
0.0040284805	0.005123891	-0.043282907	0.095839694
0.06978966	0.022184517	0.016182788	0.053324595
0.012307992	0.034393493	-0.040352535	-0.0062263054
0.06965349	0.011974546	-0.02153262	0.016504912
0.012215012	0.0066072545	-0.027180046	0.065642394
-0.003084947	0.007491812	-0.047152277	0.06895035
0.032136325	0.028475264	-0.027144799	0.015486689
